{"layers":[{"out_depth":1,"out_sx":24,"out_sy":24,"layer_type":"input"},{"sx":5,"sy":5,"stride":1,"in_depth":1,"out_depth":16,"out_sx":24,"out_sy":24,"layer_type":"conv","l1_decay_mul":0,"l2_decay_mul":1,"pad":2,"filters":[{"sx":5,"sy":5,"depth":1,"w":{"0":-0.07727155432551099,"1":0.30476111942749196,"2":0.221657700498016,"3":-0.1352207119192451,"4":-0.4729993151741534,"5":-0.03691740299559251,"6":0.1007013853220562,"7":0.33783424136786144,"8":0.2952820173727187,"9":-0.10974787318729637,"10":-0.5545245245132707,"11":-0.17572202459695094,"12":0.2838397011850538,"13":0.3810035636174406,"14":0.07175461966237037,"15":0.045118624003171466,"16":-0.46901488210432385,"17":-0.24745004703560936,"18":0.24408959103261943,"19":0.38550430283927606,"20":0.00022429450958922918,"21":-0.01241754042671565,"22":-0.3481213726518174,"23":-0.2820140999525931,"24":0.02548799872260375}},{"sx":5,"sy":5,"depth":1,"w":{"0":-0.22146673757625335,"1":-0.5385827959818312,"2":0.13902449115812265,"3":-0.0809479531853663,"4":0.1500187312890051,"5":-0.6205233206602082,"6":0.06567136965715975,"7":0.4306615833575141,"8":0.2761286144019407,"9":0.18855286075576183,"10":0.1440599080896295,"11":0.27470278648784086,"12":0.3551894022292418,"13":-0.26361572287539903,"14":-0.2715201201437139,"15":0.16315076223463365,"16":0.3164438933829734,"17":-0.09578709894482702,"18":-0.1458875527375097,"19":-0.20835628556936395,"20":-0.12932458250246529,"21":-0.11656067305767856,"22":-0.12722931849139196,"23":-0.2232360990288863,"24":-0.13735689073255342}},{"sx":5,"sy":5,"depth":1,"w":{"0":-0.3236795143340768,"1":-0.33934997992870336,"2":-0.24773013690039436,"3":0.22664756188624666,"4":0.03490967135586088,"5":-0.3659907847978936,"6":-0.23636970237883476,"7":0.08735416953810013,"8":0.22324578099737163,"9":-0.07808862148166491,"10":0.10487737956002112,"11":-0.13623924894951175,"12":-0.5483150676644319,"13":0.29936644807751717,"14":0.2681192819827916,"15":0.028564735241305723,"16":0.35893392665353285,"17":-0.4160693807122213,"18":-0.3170672300707355,"19":-0.1566734907085953,"20":0.47740372044817325,"21":0.4061491020089936,"22":-0.32916060843010897,"23":-0.4548264383259457,"24":-0.3240951712998097}},{"sx":5,"sy":5,"depth":1,"w":{"0":-0.8507427407731185,"1":-0.4700391621198188,"2":-0.5120153066737932,"3":-0.4619733672064653,"4":-0.4816287558393528,"5":-0.19196724349290678,"6":-0.04441741629679531,"7":-0.2781852468752302,"8":-0.22648917244181846,"9":-0.6178537999093171,"10":0.3374992514025658,"11":0.29634450624318803,"12":0.1573535754489162,"13":0.04628458011933713,"14":0.008167722445758564,"15":0.12658428681013226,"16":-0.2566926880152546,"17":0.20419836544394468,"18":0.09269534693899764,"19":0.3599153981896401,"20":0.1886636431798845,"21":0.024174888772259248,"22":-0.14984817120626256,"23":0.3204108083619348,"24":0.3173692469773667}},{"sx":5,"sy":5,"depth":1,"w":{"0":-0.009057678346778586,"1":-0.21261236749628792,"2":-0.05471649017649846,"3":0.14534720282749833,"4":0.2313684567636045,"5":0.369549814412918,"6":0.16027074028393576,"7":0.19578033099824743,"8":0.07049642881882168,"9":0.11235517585897195,"10":0.33986243078909106,"11":0.36700645112490904,"12":-0.14156008821618377,"13":-0.2608332565174338,"14":0.08323149362842254,"15":-0.22637401711690747,"16":-0.4192921969191947,"17":0.05063170143643514,"18":-0.5201677384611745,"19":0.06648044028136714,"20":-0.42459896126616165,"21":-0.10626329463210037,"22":0.33331029178607513,"23":-0.17652956505480905,"24":0.13917040834311445}},{"sx":5,"sy":5,"depth":1,"w":{"0":-0.2165949298900416,"1":0.4135204852479524,"2":0.4540203768670625,"3":-0.1901526552698151,"4":-0.09732509150205512,"5":0.38251021783719,"6":0.4878866664783754,"7":-0.09959838903303964,"8":-0.21585941456159072,"9":-0.6144822364807659,"10":0.5334370033013118,"11":0.19210525638742496,"12":-0.26381769003113514,"13":-0.14172088614348122,"14":-0.05109607120645203,"15":-0.2929311697836023,"16":-0.1551267975776633,"17":-0.1310761786323511,"18":-0.1604774085456202,"19":-0.00980802079436702,"20":-0.27656131915050053,"21":-0.358495835552382,"22":-0.4395688146637595,"23":0.11310861450869418,"24":-0.5480587551402478}},{"sx":5,"sy":5,"depth":1,"w":{"0":0.03403372488826584,"1":0.3765034983466855,"2":0.15527019639988804,"3":0.21766904693647576,"4":-0.10139134615358664,"5":-0.33992667034941115,"6":-0.30417796740568087,"7":0.16180474167273756,"8":0.21269189681154352,"9":0.20091143563492903,"10":-0.45130088266277146,"11":-0.09654628521187879,"12":0.16022910123109685,"13":0.4786241824968145,"14":0.006588738364515091,"15":-0.41097127540644274,"16":-0.13131354745252044,"17":-0.1206583079657111,"18":0.16997761778056392,"19":0.3015048990185642,"20":-0.4345247184093191,"21":-0.1269106815208566,"22":0.008001467709977304,"23":0.2398711510555177,"24":0.03880480330784646}},{"sx":5,"sy":5,"depth":1,"w":{"0":-0.035897305979775536,"1":-0.12034453063807633,"2":0.16011747920661834,"3":0.38177044469374083,"4":-0.3825349760627292,"5":-0.08190120746849808,"6":-0.20860251219453635,"7":0.321499499244914,"8":0.3594608206727924,"9":-0.32028907657905115,"10":-0.1609504855818554,"11":-0.09903344503712816,"12":-0.14509626974877537,"13":0.34961093734808757,"14":-0.26687358095001656,"15":0.05228005996028813,"16":0.2296430767167469,"17":0.228392651731781,"18":0.19068934233170273,"19":0.23256578452602472,"20":0.06255835208074326,"21":0.002293501830933636,"22":-0.23053092853398055,"23":-0.03915185937147661,"24":-0.10830810246867066}},{"sx":5,"sy":5,"depth":1,"w":{"0":-0.2883501420798841,"1":-0.23009131015310513,"2":-0.48886148939733237,"3":0.05877006932078651,"4":0.3076592624050086,"5":-0.304984977144028,"6":-0.24367423115665382,"7":-0.287463419872367,"8":0.1404053539958278,"9":0.18228280954754034,"10":-0.5796888267489689,"11":-0.29783522514022165,"12":-0.20841496784785557,"13":0.45936616759368215,"14":0.18340097932334473,"15":-0.28835172040186274,"16":0.12072338175765039,"17":0.05878820525760062,"18":-0.056990734883545634,"19":0.5884251930392992,"20":-0.39058852248856873,"21":-0.04332836222926446,"22":-0.12728123348924567,"23":0.3252920481504212,"24":-0.16790139792599618}},{"sx":5,"sy":5,"depth":1,"w":{"0":0.03447491743103501,"1":-0.03491534472557585,"2":0.5283259959350175,"3":0.24346896249490008,"4":-0.20009853551018844,"5":-0.1793107902732903,"6":-0.3870763453162227,"7":-0.6367379933280708,"8":-0.16347746363903864,"9":-0.2683761346696631,"10":-0.053896314438724405,"11":-0.6689484518419939,"12":-0.1273579204048308,"13":-0.4470521282851167,"14":-0.36951541748561995,"15":0.06670054368386458,"16":0.28839013375915995,"17":-0.146220175418776,"18":0.10484975407920766,"19":0.21631275781478956,"20":0.5867374968226317,"21":0.37418865587058797,"22":0.2789363228355729,"23":0.4833896415260855,"24":0.059293372393182726}},{"sx":5,"sy":5,"depth":1,"w":{"0":0.010836760043644306,"1":-0.12638163739942113,"2":0.09499781151937838,"3":-0.31397260087015755,"4":-0.20483126660723466,"5":0.2660876358944663,"6":0.17192184964873097,"7":0.11064896727183686,"8":0.12456272478695916,"9":0.007250072715206368,"10":-0.041640442488455415,"11":0.12807343676646,"12":0.4531119575695254,"13":0.5436231363029473,"14":0.49294691468106266,"15":-0.22923238907657906,"16":-0.08604742811360042,"17":-0.06582967776579031,"18":-0.17213428139398806,"19":0.11279348874359073,"20":-0.25136002488003056,"21":-0.699317498593787,"22":-0.2911823685509297,"23":-0.6694996303027357,"24":-0.13756450516412116}},{"sx":5,"sy":5,"depth":1,"w":{"0":0.370286040752834,"1":-0.10107260803532907,"2":0.09496910968602129,"3":0.0863460245649872,"4":0.05406414228906826,"5":0.038646277733277674,"6":-0.3129795473172167,"7":0.09263077103960757,"8":0.09268574058455138,"9":0.07154211051853876,"10":0.016333070415606186,"11":-0.2181592122703533,"12":0.6184293792675142,"13":0.012168010852027593,"14":-0.27851828175317117,"15":-0.5667939625288663,"16":-0.14178228756754474,"17":0.18369275574001215,"18":-0.2539479514566706,"19":-0.2934173953751407,"20":-0.27971060987852037,"21":0.042118754865727984,"22":-0.17902335339667147,"23":-0.45797852780526427,"24":-0.14802602138812657}},{"sx":5,"sy":5,"depth":1,"w":{"0":0.06482731665166949,"1":-0.1353196700184207,"2":-0.130258404009897,"3":-0.23287983367406762,"4":-0.2900484067787297,"5":0.018097024562495737,"6":0.14869521382674847,"7":0.26525110581444744,"8":0.12457394649174412,"9":-0.31909442926388876,"10":-0.05795817165124947,"11":0.1376936849252116,"12":0.10087470362456491,"13":0.04236178701948358,"14":-0.41571445749744684,"15":-0.13429084980684455,"16":-0.1508358941199833,"17":0.09757673164626053,"18":-0.09163167248104358,"19":-0.02324321322861173,"20":0.06905162248746184,"21":0.48487467966550385,"22":0.0584410175881237,"23":0.36693590376553237,"24":0.4690318005974587}},{"sx":5,"sy":5,"depth":1,"w":{"0":-0.16343248927376136,"1":-0.31476623813275506,"2":-0.409176292720713,"3":-0.570908892185065,"4":-0.41375987882174425,"5":-0.41785898132234756,"6":-0.3497795256320336,"7":-0.4577527210149866,"8":-0.16346252282356094,"9":0.34537689781960024,"10":-0.38576374588775797,"11":-0.40023175880400225,"12":-0.06946429975781011,"13":0.10622109561380862,"14":0.11555222179856076,"15":-0.5710192686038384,"16":-0.23802677815275392,"17":0.202380676275258,"18":-0.024500117687940484,"19":0.12826494735822805,"20":-0.21595537714196342,"21":0.06117103519455938,"22":0.11440241309223456,"23":0.04421708982619294,"24":0.6135270979023392}},{"sx":5,"sy":5,"depth":1,"w":{"0":0.05455391282301307,"1":-0.10991923010802647,"2":0.03845079864493369,"3":0.16756914739353246,"4":-0.3988683379358648,"5":0.16810324013152791,"6":0.372037995109487,"7":-0.006763342185357851,"8":-0.16599860549033518,"9":-0.3031343929970984,"10":0.20161927616948694,"11":0.17480124891958312,"12":0.13807622940494685,"13":-0.498632136105636,"14":-0.16641979536623663,"15":0.3040851217697324,"16":-0.04185332196368268,"17":0.08220869703365886,"18":0.005523705534383859,"19":-0.3510598127979492,"20":0.4531698649632455,"21":0.007983832139438776,"22":0.024183713097135462,"23":0.006978199839977009,"24":0.006261251860364303}},{"sx":5,"sy":5,"depth":1,"w":{"0":0.03079351870290103,"1":-0.03981942966647176,"2":-0.1562945023708561,"3":-0.562702350805152,"4":-0.35398467951812473,"5":-0.11874681689661022,"6":0.1576752515953991,"7":0.07789653663141406,"8":-0.37954618225889497,"9":-0.2881678869476223,"10":-0.012418383451997415,"11":0.13256502629262237,"12":-0.37152218055401875,"13":-0.6070345373357126,"14":0.2355355188743404,"15":0.11654409170249824,"16":0.33878503716521474,"17":-0.11245020452825534,"18":-0.49969803456886197,"19":-0.16465355493496647,"20":0.2814787413208461,"21":-0.056464853325321994,"22":-0.2182147791324913,"23":-0.43343215869523277,"24":-0.30663529860028566}}],"biases":{"sx":1,"sy":1,"depth":16,"w":{"0":-0.06113758761542235,"1":-0.07812314101308455,"2":-0.014832521217778281,"3":0.16579221988285928,"4":-0.15139472018936276,"5":0.06629853574667972,"6":-0.16644258643880797,"7":-0.21177238571295218,"8":-0.036930168955263715,"9":-0.035508794278576554,"10":0.015114565570603642,"11":0.018771392886938073,"12":-0.22976092370111445,"13":0.22300363132858816,"14":-0.12380827827021357,"15":0.23100928098593085}}},{"out_depth":16,"out_sx":24,"out_sy":24,"layer_type":"relu"},{"sx":2,"sy":2,"stride":2,"in_depth":16,"out_depth":16,"out_sx":12,"out_sy":12,"layer_type":"pool","pad":0},{"sx":5,"sy":5,"stride":1,"in_depth":16,"out_depth":16,"out_sx":12,"out_sy":12,"layer_type":"conv","l1_decay_mul":0,"l2_decay_mul":1,"pad":2,"filters":[{"sx":5,"sy":5,"depth":16,"w":{"0":-0.06088124082847065,"1":-0.1856614792599568,"2":-0.3813061380582443,"3":-0.2608957956872979,"4":0.25055907380506537,"5":0.015364125675032323,"6":-0.04416532619422131,"7":-0.1777840520236683,"8":-0.2648456913375052,"9":-0.06496899098030431,"10":-0.045894987642472275,"11":-0.19458701670884393,"12":0.0028269389307055445,"13":-0.18540339207780643,"14":0.15156797297418506,"15":-0.06684244538499119,"16":-0.049209300176108244,"17":-0.3159417255613518,"18":-0.12230804446854529,"19":-0.12931662248327488,"20":0.027451300250045912,"21":-0.12936046672027043,"22":-0.08365856147539691,"23":-0.2965142780429864,"24":-0.18158830523341518,"25":0.12342083065410338,"26":-0.09180917164098698,"27":-0.14355457926929344,"28":-0.1124168627717723,"29":-0.13374031059507954,"30":0.022091493290528424,"31":-0.009479382092594857,"32":0.029466232300360964,"33":-0.09319587683921993,"34":-0.1031820150357313,"35":-0.13787768518836088,"36":-0.037501415103017625,"37":-0.03823922503091646,"38":0.06025746774919679,"39":-0.04953455845313159,"40":-0.10906522603242588,"41":0.08033201447694385,"42":-0.19378902763352854,"43":-0.04506021534596641,"44":0.036587413304232534,"45":-0.19005410021196778,"46":-0.0929865031591321,"47":-0.12743515986079068,"48":0.10092943761421304,"49":-0.08613170114376803,"50":0.020746098436315696,"51":-0.11903136227186993,"52":-0.0768160408341691,"53":-0.09422552269283216,"54":-0.02085786254005188,"55":-0.08326047671046392,"56":-0.08273494380202295,"57":0.0008810576989913239,"58":0.02229898382555297,"59":0.07658351305487053,"60":0.020998383164050616,"61":-0.06574362808364594,"62":0.0046247269991797416,"63":-0.06123456059873821,"64":-0.017906348192179206,"65":-0.1278613901532707,"66":0.010766328488373776,"67":0.0841546536098616,"68":-0.07522442969701369,"69":0.10661853296463962,"70":0.04608003183133106,"71":-0.07317708181275386,"72":-0.06615293282145268,"73":-0.0002723033875906808,"74":-0.049634833360374074,"75":0.0679924716743201,"76":0.10096456062390448,"77":0.10279572129225385,"78":-0.08189815647775898,"79":-0.0022224972652776873,"80":-0.04879242575092608,"81":-0.1212797734167223,"82":-0.11394289287219611,"83":0.01956583029977407,"84":0.006731087987498324,"85":-0.03279779095270589,"86":0.03648992889388785,"87":-0.03491726243193383,"88":-0.007901804192598984,"89":0.18401029813091982,"90":-0.10401476943444364,"91":-0.1803714219069731,"92":0.16576357995400431,"93":0.14275341681897977,"94":0.21506969200042114,"95":0.2516351018858836,"96":-0.06640200814686012,"97":0.06586549074650777,"98":-0.023683843560321438,"99":-0.03186549773118089,"100":-0.06469969656391099,"101":0.03243360760133207,"102":0.013275807784638275,"103":-0.0664212851218643,"104":-0.07889729418360943,"105":0.08427565255438857,"106":-0.2668538402069319,"107":-0.09460954586289853,"108":0.07228906390208154,"109":-0.004857663328631569,"110":0.19024012101555754,"111":0.22535584984565715,"112":-0.035936633553214345,"113":-0.11553842948099195,"114":-0.07564043989686033,"115":0.09164182406323651,"116":-0.19869611423971817,"117":-0.16873280160729917,"118":-0.05302170279538817,"119":-0.039940471475863576,"120":-0.0249783246650238,"121":-0.045589282988322335,"122":-0.09878618477517748,"123":-0.07105686740568845,"124":-0.07732615308662921,"125":0.052026718354023,"126":-0.03769753398478521,"127":-0.0028725140929589457,"128":0.0410182057784616,"129":-0.03778338984367623,"130":-0.028904171693213142,"131":0.02249360184845342,"132":-0.22253799359594673,"133":-0.09778312210772708,"134":-0.07454254464840487,"135":-0.10405360994213547,"136":-0.006481320457217211,"137":-0.011538223556447978,"138":-0.023178098982088283,"139":0.044814643418902685,"140":0.09729003563254346,"141":0.09548441449590031,"142":-0.0888361038432548,"143":0.0761348344814771,"144":0.049281103922357725,"145":-0.04315645645913895,"146":-0.09041409858795244,"147":0.22698474441393923,"148":-0.10674044620491917,"149":-0.0632564657258872,"150":-0.05237924576887598,"151":-0.04403778892017734,"152":-0.05314745575864795,"153":0.07943702874211495,"154":0.022194799681315956,"155":-0.0025148925816866866,"156":0.009230354930291501,"157":0.043741925336962535,"158":-0.02273408495493993,"159":0.07209605268095329,"160":-0.00310287101960409,"161":0.09391900063598861,"162":-0.1617933984456591,"163":-0.07545965802975332,"164":0.2997857488563998,"165":0.30199245814735887,"166":-0.05636261720321598,"167":0.135849783324342,"168":0.21873291461503774,"169":-0.14399304949281355,"170":0.18023544690028206,"171":0.07254850975702472,"172":0.007773817353261584,"173":-0.14320113372963136,"174":0.2423099387841577,"175":0.04711385410334892,"176":-0.1226343972490343,"177":0.17374991408449003,"178":-0.14676069478143797,"179":-0.10870761388541827,"180":0.16024608481185826,"181":0.2237147032986402,"182":-0.17427505355393313,"183":-0.03649538320000397,"184":-0.013854712012417541,"185":-0.13890241541507317,"186":0.12825660349136372,"187":0.105409017712107,"188":-0.06546423382517153,"189":-0.0652284033414989,"190":0.12443880957378203,"191":0.05601779408852362,"192":-0.11005508369566029,"193":-0.07447101313446419,"194":-0.06999848554453093,"195":-0.07170041803788692,"196":0.005163884469953139,"197":-0.11636498078243958,"198":-0.1011639623506862,"199":-0.06156620114938532,"200":-0.07225356212628282,"201":-0.03516384436184799,"202":0.017082870767956827,"203":0.005387857325668467,"204":-0.07863985364745217,"205":-0.13353083911745312,"206":-0.09889334699193307,"207":-0.08649350297844628,"208":-0.08161546353066008,"209":-0.07324201384676128,"210":0.0594192177028014,"211":-0.031075537497147355,"212":-0.03881292960866199,"213":-0.0337549811665738,"214":-0.0028012587432367617,"215":-0.11927147403219127,"216":-0.041764163064422044,"217":-0.029085287843079646,"218":0.008174447599289413,"219":0.006105322251607156,"220":-0.13411589768529414,"221":0.00621033368155807,"222":-0.12794638992576526,"223":0.07418430246291441,"224":-0.08667816224911104,"225":0.009489176932393449,"226":-0.10992827625623054,"227":0.02355088725246536,"228":-0.06430820347074588,"229":-0.034887648547814516,"230":-0.05536646011980273,"231":0.01679782603671415,"232":-0.12716325402551165,"233":-0.08968295191458145,"234":0.012652018227547364,"235":0.035761123834273115,"236":-0.026672455021656678,"237":0.0048089474145436815,"238":-0.12955044692220416,"239":-0.0024358120988175846,"240":0.11590761367804137,"241":-0.1761355733584897,"242":-0.14983281126676978,"243":-0.07799241541355723,"244":0.10311948518902136,"245":0.08774913094757927,"246":-0.0707868284703966,"247":-0.08246722461599909,"248":-0.07876464859761248,"249":-0.015583135760190832,"250":0.07028744670014167,"251":0.051823171486224805,"252":-0.1155448100652363,"253":-0.012758658116717706,"254":-0.035814813214467466,"255":-0.0664272002260325,"256":-0.06544694766645624,"257":-0.0485339332663375,"258":-0.14206990532574829,"259":-0.16967228167672752,"260":-0.0443091775134324,"261":-0.03293273243323821,"262":-0.11365403734409996,"263":-0.06040796306691307,"264":-0.04877274397434352,"265":-0.04960439653856288,"266":0.011426810426291584,"267":0.052330692458921454,"268":-0.06922028274719076,"269":-0.1145930343152176,"270":-0.13237749733672818,"271":-0.05830104046037175,"272":-0.10426772680993197,"273":-0.12101309562967584,"274":-0.03900121752933728,"275":-0.13065215571514144,"276":-0.07121841624440703,"277":-0.03844687502113292,"278":-0.08709907104789849,"279":-0.08200102250697826,"280":-0.15942101323241137,"281":-0.09939088489857219,"282":-0.004387245944608475,"283":-0.07056517190290243,"284":-0.08700882272635271,"285":-0.0828079622525521,"286":-0.15587894800494304,"287":-0.07204862390105585,"288":-0.06275870767031701,"289":-0.02748943651009777,"290":0.011315030529195188,"291":-0.08958447463167277,"292":-0.001621510377224774,"293":-0.04084310357231585,"294":-0.04951399356829659,"295":-0.13979164300458227,"296":-0.14502223235217285,"297":-0.1543218652196793,"298":-0.009257908677783904,"299":-0.0012560544149931238,"300":-0.21387955594922564,"301":-0.010613936846675161,"302":-0.23833105768614204,"303":0.021654718537761117,"304":-0.05209054572482561,"305":0.04522671279154767,"306":-0.019122376266889923,"307":0.060598311994114584,"308":-0.05583945433953361,"309":0.029600171853774216,"310":-0.20639399353513252,"311":-0.06088841157304517,"312":-0.0959047381845809,"313":-0.10723246340048896,"314":-0.019382096866242413,"315":0.05705194046185925,"316":-0.20320212916192665,"317":0.006334267627106304,"318":-0.20895020378934429,"319":-0.10567247213095927,"320":-0.01578574240599798,"321":-0.20353914672203494,"322":-0.10961364325672068,"323":0.044696624621739886,"324":-0.19072608136693547,"325":-0.20094179470177043,"326":0.05216845831717536,"327":-0.0708191529839998,"328":-0.018220508059158154,"329":0.06501575596872596,"330":-0.08565906574914307,"331":-0.17903351951440527,"332":0.05288537086087475,"333":0.11584117771658965,"334":-0.11970078585093813,"335":-0.008493862534468067,"336":-0.03654639467850819,"337":-0.18255660355721176,"338":0.07531237152150586,"339":-0.022275703200551333,"340":-0.03588190531722367,"341":-0.18043916053942996,"342":-0.14104726285549674,"343":-0.04011422237050293,"344":-0.08023657194392127,"345":0.012105223058894462,"346":-0.11897277024926102,"347":-0.10376339573628046,"348":-0.003336438027869447,"349":-0.007723950072197457,"350":-0.025373707779117714,"351":-0.0423840234039636,"352":-0.09656304694057101,"353":-0.07012574685668659,"354":0.02025142361263072,"355":-0.07008327442789886,"356":-0.01541639802606086,"357":-0.09317340933657922,"358":-0.07404746184424983,"359":-0.10322744043427379,"360":-0.20029381445704914,"361":0.18672641091218484,"362":0.02355732660541302,"363":-0.07771790763034861,"364":0.019975165956117393,"365":0.019226065006399617,"366":-0.009683897519972817,"367":-0.018241730568660398,"368":-0.13157744615958478,"369":-0.11105600226539292,"370":0.018884920364552214,"371":0.020958422271079365,"372":-0.027751832380580634,"373":-0.054294220042918895,"374":-0.14974777076029977,"375":-0.11409965713361767,"376":-0.03576549112207526,"377":0.10743734192273328,"378":-0.01658167729696864,"379":-0.0670216334423148,"380":0.0566893477379429,"381":0.10671776462940104,"382":0.00803967802728535,"383":-0.002945918896842397,"384":-0.2139843975926154,"385":-0.1027037019529086,"386":-0.06343194417444561,"387":0.15024450654511157,"388":-0.056600132376174325,"389":0.034453035521334996,"390":-0.08949875084522177,"391":-0.05911198683937253,"392":-0.0871353403713181,"393":0.1126284376716569,"394":-0.1055692995786635,"395":0.03945726196414033,"396":0.2574426445431397,"397":0.12986087553135933,"398":-0.11251797978142018,"399":-0.01762868711830331}},{"sx":5,"sy":5,"depth":16,"w":{"0":0.09925860546211074,"1":0.16917185472483795,"2":-0.015607047693776929,"3":0.0050109055365303995,"4":0.055219538291316705,"5":-0.04726616676273397,"6":-0.09895117210665101,"7":-0.09943153568980997,"8":-0.11746379972785162,"9":0.13531897934547973,"10":0.051119768995930556,"11":-0.03752951939901563,"12":0.0730541044602528,"13":-0.24668792393225897,"14":0.12686835562511384,"15":-0.2077652520829984,"16":0.09209225754371728,"17":0.021299337597397522,"18":0.012382656179553031,"19":0.1066131522240439,"20":0.19503434635361802,"21":-0.04098614897824109,"22":0.0973414209364476,"23":-0.05242960313306297,"24":-0.17538124595575408,"25":0.053895787485056176,"26":0.14888398842452893,"27":0.036702969064735864,"28":0.03915379076255477,"29":-0.2091097324309189,"30":0.030896603748733393,"31":-0.2809396239980129,"32":0.15595387166834665,"33":0.12747818764908395,"34":-0.09685196468968696,"35":0.010567788356099622,"36":0.1616508736568724,"37":0.033232548757388826,"38":-0.018445198590845337,"39":-0.03155317066522777,"40":-0.27301339929261437,"41":-0.057460880550024476,"42":0.1940281575974595,"43":0.004923808248491049,"44":-0.031257142645297796,"45":-0.21976220902007634,"46":-0.002829100771188307,"47":-0.0627610535058061,"48":-0.109608416883679,"49":-0.10194086066365672,"50":-0.11402143152357669,"51":0.024911540463006893,"52":0.052855498718600805,"53":-0.1323966014504873,"54":-0.018248541468015893,"55":-0.12628792972864106,"56":-0.02584433390338228,"57":-0.09687288415208838,"58":-0.050469397315129845,"59":-0.09161579885240693,"60":-0.17485033767124772,"61":-0.03114504009873199,"62":-0.1338046540065387,"63":-0.08181624521394894,"64":-0.21845346965847087,"65":0.21187666183955836,"66":-0.10190375223754747,"67":-0.17575106615957545,"68":0.08062087024959795,"69":-0.2037946241104402,"70":0.2817111410932565,"71":0.07438983635947576,"72":0.14786658470618258,"73":-0.36781935772006163,"74":-0.07705866135288827,"75":0.1560401809628939,"76":-0.12068841151330026,"77":0.045130957175700585,"78":0.04683363417597776,"79":0.031185428928681803,"80":-0.013305259316069257,"81":0.004807576923455884,"82":-0.02824520238135976,"83":-0.20399286274977274,"84":0.2145625932044077,"85":0.17196695184473143,"86":-0.07865340634630022,"87":-0.10118495496741366,"88":-0.13077153235840216,"89":-0.1598296382028443,"90":0.07713478094559598,"91":0.03266369521514646,"92":-0.1379570656105983,"93":-0.08831864668787993,"94":0.07971112058370643,"95":-0.24074410049587483,"96":0.015114122648234281,"97":0.08921541018372595,"98":-0.0077138966353500395,"99":-0.12352390286521873,"100":0.05560131242590559,"101":0.05130535896206068,"102":-0.032277557677346254,"103":0.0011198006365712887,"104":-0.0825741433658267,"105":-0.10219675002296254,"106":-0.05397121107034001,"107":-0.0015248191325529779,"108":-0.14341277341213615,"109":-0.21484015970227383,"110":-0.04134647772787779,"111":-0.21031437356591354,"112":-0.05352442335012298,"113":-0.013640847447660054,"114":-0.025292849180314242,"115":-0.19679086124688133,"116":0.05487816158129154,"117":0.073125602935616,"118":-0.06860146904808936,"119":-0.13094975269001205,"120":-0.09931151411421804,"121":-0.11478440451650039,"122":-0.03181037568090561,"123":-0.0350378733832555,"124":-0.22480083183270008,"125":-0.13274019459352018,"126":-0.0758042235287717,"127":-0.06489229750281837,"128":-0.11404864099955851,"129":0.005615477233468874,"130":-0.14123281108721744,"131":-0.23065865131495034,"132":-0.13288316599562974,"133":-0.127591057625643,"134":0.11195820940499829,"135":-0.0153921665683846,"136":0.17150820560691996,"137":-0.2935628435227235,"138":-0.021069286574587533,"139":-0.0251593041100892,"140":-0.14832835149283757,"141":0.06975741184815902,"142":-0.04919229250592221,"143":-0.04166328091124561,"144":-0.0424670647611654,"145":0.05830984446865249,"146":0.021981386249615733,"147":-0.32414003633029626,"148":-0.09740363029372122,"149":0.056680074725867724,"150":0.1314481183116717,"151":0.16005374707019898,"152":0.10170218975735335,"153":-0.24198272955502378,"154":-0.16785950718240367,"155":0.06811757753110124,"156":0.14224602126466912,"157":-0.08349857815005185,"158":0.33529616729137923,"159":0.05417839023644014,"160":0.04192115012776924,"161":-0.10482566244569824,"162":-0.04061276470528886,"163":-0.12837246168532085,"164":0.05398282582053123,"165":0.11798255544419779,"166":-0.11753189164611157,"167":-0.04212607417880705,"168":-0.03504828375659597,"169":-0.011262064169798526,"170":-0.06116277237597122,"171":-0.017131539676796127,"172":-0.12250378924350933,"173":-0.06696639054007097,"174":-0.0489920926205492,"175":-0.16650278632335042,"176":0.050632398967272244,"177":-0.0737440272346945,"178":-0.06948572621615963,"179":-0.08738655525212963,"180":-0.09607757628930394,"181":-0.009934315687863897,"182":-0.11830615791174524,"183":-0.027518859289332107,"184":0.0499944736201668,"185":0.007184712702625375,"186":-0.19841392702437977,"187":-0.1258101309067475,"188":0.038941423539672705,"189":-0.09013479619698526,"190":-0.10578628597640265,"191":-0.13056433524161934,"192":-0.05276058447105763,"193":0.0030291987754516663,"194":0.09145598374904622,"195":-0.20537871853460754,"196":-0.02714131535431619,"197":-0.055976534578629424,"198":0.02491847255057103,"199":0.014237857182480482,"200":0.07548133445350029,"201":-0.12756344557204408,"202":-0.10315043297156075,"203":-0.10043090445423929,"204":-0.04778417233682741,"205":-0.0402433179708056,"206":-0.06451574734303682,"207":-0.046548768901189516,"208":0.2475510988281998,"209":0.026623156835451297,"210":0.2916585213945323,"211":-0.2930050232572141,"212":0.045022162439326927,"213":-0.05100485964526241,"214":0.10770947307520304,"215":0.21610399542658446,"216":0.1731030238525207,"217":-0.20290323028188795,"218":0.11738100792623934,"219":-0.027904124698395386,"220":-0.004048373178921374,"221":-0.08689412925542256,"222":0.12793798916296273,"223":-0.23335952221228848,"224":0.3789219769654272,"225":0.13890630244712984,"226":0.20716412814917243,"227":-0.2197411653689599,"228":-0.022529882686631565,"229":0.09826789590240505,"230":0.2606267477936552,"231":0.40713753380707773,"232":0.0557817019750915,"233":-0.034468622337507714,"234":0.2559450193568678,"235":0.14377511523862846,"236":0.06286970926971178,"237":-0.3290588314291298,"238":0.15067567202433363,"239":-0.05159094840684401,"240":-0.05800328392688307,"241":0.017261060834104593,"242":-0.08632767284761435,"243":-0.13579649154143336,"244":-0.059467757291160384,"245":-0.04759258769504867,"246":-0.022190306855893967,"247":-0.09134211006229054,"248":0.07730303758058485,"249":0.09177213611308671,"250":-0.04895214860989096,"251":-0.08276904647192156,"252":-0.05852380379942238,"253":-0.057195139333556445,"254":-0.04556162790770957,"255":-0.16835586122122898,"256":-0.03210354915335091,"257":-0.06392386446735987,"258":-0.04962327376822831,"259":-0.062382774844852266,"260":-0.02270202754489211,"261":-0.09690322458766011,"262":0.0687276483631202,"263":-0.04390341343140708,"264":-0.029035379644722917,"265":0.0046387882121522,"266":-0.014588694467905595,"267":-0.09881325455748811,"268":-0.04788071054680663,"269":-0.05019111997544102,"270":-0.025950855820272224,"271":-0.023732195980677037,"272":0.03694188185187341,"273":-0.006992045913323154,"274":0.01792555369023183,"275":-0.17106202612936738,"276":-0.04030351860992154,"277":-0.09247477864928291,"278":0.008360387829436062,"279":-0.012138364612082725,"280":-0.07839055989819042,"281":-0.016025151417126904,"282":-0.05573465655518303,"283":0.049804402406729724,"284":-0.08885856013314883,"285":-0.2302266406729376,"286":-0.0036323002671477863,"287":-0.14801858352149666,"288":0.04619340585457371,"289":-0.018490840315133632,"290":0.0883845736865838,"291":-0.18623358310134405,"292":0.01292763267217033,"293":0.033660774513644263,"294":0.032948981211218586,"295":-0.04792757279294893,"296":-0.07412460593220903,"297":-0.08431431306834991,"298":0.0648875910804703,"299":0.0009255320718172895,"300":-0.07755593501434613,"301":-0.2885881063802598,"302":0.048382377568172555,"303":-0.02346092368253811,"304":0.06324023977458532,"305":0.03999189203955694,"306":0.023311025906344436,"307":-0.12491699577155528,"308":0.022449675219849818,"309":0.08149400108787072,"310":-0.018853901342087098,"311":0.011051005968945008,"312":-0.16134194669723198,"313":-0.008354169914161975,"314":0.09382499612183576,"315":0.007385450683643733,"316":-0.10216261487352199,"317":-0.2972141033422044,"318":0.043839734474792696,"319":-0.10662141420528891,"320":-0.01241426270711999,"321":-0.030430641512545736,"322":-0.015713591191214252,"323":-0.09337353908175001,"324":-0.07431762849338654,"325":-0.041014247224757244,"326":0.007621009318044622,"327":-0.03258550937182726,"328":-0.03657857715651497,"329":-0.03457454089112221,"330":-0.05758283745426247,"331":-0.05267303809286402,"332":-0.03848247391073914,"333":-0.07459938766118221,"334":0.019954708909266646,"335":-0.016622732481548046,"336":-0.00408525606055695,"337":0.027170057394317916,"338":0.04246699050579092,"339":-0.10705401010615648,"340":0.015847608557595375,"341":-0.03355153311204545,"342":0.009290783476713737,"343":0.051773583327654964,"344":-0.05515063929872763,"345":-0.029489924363476798,"346":0.0814422955953912,"347":-0.07312097692478864,"348":-0.1114740141911553,"349":-0.14383616868027957,"350":-0.0005543416296074031,"351":-0.11255860271060028,"352":-0.07994201916181982,"353":0.07327904216649381,"354":0.008544517824562238,"355":-0.15540773938973187,"356":-0.05781784581707161,"357":-0.0044605915732654515,"358":-0.07959217256097995,"359":-0.00012725074141320663,"360":-0.0498923860740524,"361":-0.007838407684242855,"362":0.05610627138707134,"363":-0.018870892907651725,"364":-0.08282273797470784,"365":-0.05450681068088366,"366":0.002502133831822959,"367":0.0014851079442062152,"368":-0.09429511553021247,"369":0.000048896332393839586,"370":-0.04860425945831767,"371":-0.0023462862820937116,"372":0.02665963206151227,"373":0.054558658949106435,"374":-0.20953725073841148,"375":-0.18443726287015855,"376":-0.19398875808061983,"377":-0.020520408994290924,"378":-0.12100619714128175,"379":-0.100001006421379,"380":0.005091522842912021,"381":0.08738350548208336,"382":-0.12163792020086163,"383":-0.07963350424380393,"384":-0.09569323600172774,"385":0.02745220654837907,"386":-0.043949830863161045,"387":0.0922737563067465,"388":0.0010050453230792972,"389":-0.03836519969284845,"390":-0.127881269546367,"391":-0.1452430691022524,"392":-0.11498298059862043,"393":0.08332223775487911,"394":-0.18995279539669557,"395":0.077497306537513,"396":-0.05365479448323285,"397":-0.05230910383355904,"398":-0.059012353062792317,"399":-0.0712387622769713}},{"sx":5,"sy":5,"depth":16,"w":{"0":-0.046972969926843126,"1":0.06428413065113674,"2":-0.13124950690517356,"3":0.050615514487769506,"4":-0.027641840821163322,"5":0.03487935503473247,"6":-0.10393178032275704,"7":-0.03757167681927104,"8":0.09097095329767477,"9":-0.13540160494674489,"10":0.0495853710725525,"11":0.0763124448103014,"12":-0.11204422179850348,"13":0.14697700195664584,"14":-0.17702342361281628,"15":-0.05934131218008419,"16":-0.09659683427954728,"17":0.16213229160602655,"18":-0.04810013568376602,"19":0.12875293405564361,"20":0.0967155891765074,"21":0.02431250952833915,"22":0.1395147543969378,"23":-0.10304810405394535,"24":0.1445053972647253,"25":0.021003833750853088,"26":0.10890699339768194,"27":0.03397115910839249,"28":-0.07298704584420028,"29":0.11631210884188126,"30":-0.14774769931082382,"31":-0.03810239900632884,"32":0.12373463439821726,"33":0.05033803459941775,"34":0.010481003158584017,"35":-0.06477822916861893,"36":-0.005593359177546489,"37":-0.0012608958480352312,"38":0.19376517588192507,"39":0.1658140034046478,"40":0.08628537089896686,"41":-0.030015039743231928,"42":-0.007171386725244055,"43":0.10619282639037805,"44":-0.16608485862403663,"45":0.11449349006722767,"46":-0.22876000013213815,"47":0.03538591123870355,"48":-0.003631604458786857,"49":0.12963880153635587,"50":0.0028369579669039495,"51":-0.08524245237974645,"52":0.023049536092301804,"53":0.08244691678498636,"54":0.047214347852544046,"55":0.07032818715927032,"56":0.09939376781168309,"57":-0.2391744418724845,"58":0.04621975010459505,"59":0.00914450084816084,"60":0.05953814423265448,"61":0.0554932325560847,"62":-0.03292949211142663,"63":0.2251967805652236,"64":-0.07392877616947098,"65":0.09291748705737311,"66":0.023098663909460585,"67":-0.06844479134067655,"68":0.035356520519077915,"69":0.041997706883525845,"70":-0.06153893260943253,"71":0.07460882664246248,"72":0.029131373557382278,"73":-0.0237838419447585,"74":0.08283620346387213,"75":-0.0998128566769418,"76":-0.0027603039788500045,"77":0.2095739471445916,"78":0.1164896336785196,"79":0.15968910847672635,"80":-0.006446441753554702,"81":-0.2662459372117353,"82":0.021876892128672377,"83":-0.02685284146176413,"84":-0.12638555852321523,"85":0.019131061514872382,"86":-0.17692646630627024,"87":-0.10278146895562165,"88":-0.14078317872686055,"89":-0.02309169497223502,"90":0.13391969343327156,"91":-0.010789221912014845,"92":-0.20277702208807127,"93":0.06757347998988457,"94":-0.4085549861755513,"95":-0.10238387912192956,"96":0.026788573447338534,"97":0.015136477862976925,"98":0.10576233206174664,"99":-0.06837695036473454,"100":-0.11054855247048723,"101":0.03711084259804538,"102":-0.12152243284191555,"103":-0.0874261335749731,"104":0.024801417237842963,"105":-0.15104352176301808,"106":0.015727809845887102,"107":-0.031179769154322648,"108":-0.31819831341684673,"109":0.15484342056280612,"110":-0.27340881823362967,"111":-0.004961529500533708,"112":0.06344037620005828,"113":0.010952221106046411,"114":0.056791398240747554,"115":-0.23958063907171775,"116":0.02202994364268969,"117":-0.09834471045144114,"118":0.18957877677738802,"119":0.12467304469416524,"120":0.13495776581313526,"121":-0.35885519336250815,"122":-0.04965596946041192,"123":-0.0013846734526661766,"124":-0.29751103073738394,"125":-0.054146113204862505,"126":-0.09838103164826084,"127":-0.0849019530956332,"128":-0.06947463056179573,"129":-0.0027470751746028034,"130":-0.06994259491402526,"131":-0.14426969403147902,"132":0.0696581094835708,"133":0.1503489366204635,"134":0.16790314117804708,"135":0.026372892163946195,"136":0.03655410343723286,"137":-0.21222414132520384,"138":-0.011491710297102402,"139":-0.0531087332034181,"140":-0.023747483483760632,"141":0.14377734713347656,"142":0.006299691291476932,"143":0.09191512680139674,"144":0.00721169275805552,"145":-0.0003754285462991768,"146":0.03380761432893825,"147":-0.03563172089306031,"148":0.08793913401406314,"149":0.0433494701035916,"150":0.0620806836910116,"151":-0.06275302604430816,"152":0.2565540467079207,"153":0.020196699265353637,"154":-0.07284817965291528,"155":0.04476108378499035,"156":0.032534099234955,"157":0.1767122695927001,"158":0.07495185852681063,"159":0.01010889973264512,"160":-0.08247776997805091,"161":-0.1112787333940898,"162":0.28019431478987755,"163":0.3733387616318333,"164":-0.21309902177921017,"165":-0.2571186206085073,"166":-0.23471734486352583,"167":-0.24523087028180138,"168":-0.06775959128181037,"169":0.38467031029617876,"170":-0.15148143153202928,"171":-0.18731175083654333,"172":0.12859022356987423,"173":0.11195877214908684,"174":-0.17653320520076876,"175":-0.19746726094235373,"176":-0.08824081354423584,"177":-0.07613477502797998,"178":0.259090470352398,"179":-0.12297197320479993,"180":-0.1527825629274817,"181":-0.23648230601408815,"182":-0.2792509484528094,"183":-0.20751803832358706,"184":-0.20355806010934982,"185":0.1629204103489623,"186":-0.032697860408464334,"187":-0.11910127732262792,"188":0.08288327576594323,"189":-0.2512045063779835,"190":-0.012489106921739497,"191":0.0015968715605744108,"192":0.22491051214961247,"193":-0.2813800454822616,"194":0.3067976418918675,"195":-0.1909738855836989,"196":-0.19904879970950015,"197":-0.11005640836228192,"198":0.03876388477176172,"199":0.03298753984356142,"200":-0.08499352841939535,"201":0.17045356198620376,"202":0.23698112217331405,"203":-0.18991203854451483,"204":-0.06049567039850897,"205":-0.3128873718452999,"206":-0.22630197220576254,"207":-0.015143166850400371,"208":0.18795428754853277,"209":-0.23077526691043643,"210":0.08641330937493083,"211":-0.1396158359632496,"212":-0.09615615705786883,"213":0.07216874381905736,"214":0.173374943998658,"215":0.07505421489276723,"216":0.03977702655811309,"217":-0.045461425418227695,"218":0.20284093894545266,"219":0.08044158101994577,"220":-0.1740369537108256,"221":-0.0308267946389511,"222":-0.15787636475310662,"223":0.05445185302366816,"224":0.03765260330877291,"225":-0.062401478938781875,"226":0.15050532232480524,"227":-0.22278142537481063,"228":-0.002478803259577871,"229":-0.04279660931786905,"230":0.14449211706088153,"231":0.04637083242452582,"232":0.1490388555727744,"233":-0.19687738684172781,"234":0.2028634058311271,"235":0.10375305838512175,"236":-0.14412269435329264,"237":-0.033092656176280245,"238":-0.02893386589182968,"239":0.05849983430613225,"240":0.031217810121502324,"241":-0.07627948297641078,"242":0.16106887544483103,"243":0.3739892175690837,"244":-0.0031361292244670466,"245":-0.1112724521344663,"246":-0.0346162275760959,"247":-0.002113230598426901,"248":0.007741795833363314,"249":0.12597553215679128,"250":-0.010198152566513179,"251":-0.06672101855744178,"252":0.17757298435762273,"253":0.0503208533553986,"254":-0.14797756264799422,"255":-0.07180191785273486,"256":0.011675268919507232,"257":-0.1156574743742835,"258":0.213298282522861,"259":0.18132578822786674,"260":-0.04977289796899838,"261":-0.3581054699737852,"262":-0.13886239354435453,"263":-0.1707724729125463,"264":-0.21802726076683537,"265":0.20105815808671593,"266":-0.053493810116781566,"267":-0.3241583700190449,"268":0.10751950755731332,"269":-0.1456248661071754,"270":0.14630584615686867,"271":0.01521762360137725,"272":-0.042016822770366995,"273":-0.27930238705585086,"274":0.2115581552294361,"275":0.1327951521579773,"276":-0.14162917333841885,"277":-0.3570961947106733,"278":-0.15358321103034242,"279":-0.2860512435449679,"280":-0.2289790928420715,"281":0.18283174321574414,"282":-0.19544560313572273,"283":-0.1555722364377771,"284":0.042092678636396284,"285":-0.10202411848107858,"286":-0.1261879371718433,"287":0.05595976521520693,"288":0.1648789194836577,"289":-0.08065608560942532,"290":0.1813178679296134,"291":-0.058737796260517776,"292":-0.2022384141644772,"293":-0.3888525911444032,"294":0.02120692374664533,"295":-0.025679460586184297,"296":-0.12943599753468435,"297":0.0624258141377807,"298":-0.02039490767923355,"299":-0.18790240636237635,"300":-0.08601675245490137,"301":-0.09813200986064703,"302":-0.3040256178140629,"303":-0.1291130601399419,"304":-0.02740201855532107,"305":-0.13302523444283101,"306":-0.025589233144025423,"307":-0.13241776549989434,"308":-0.09393486597051906,"309":-0.2074282566974572,"310":-0.045029966072174715,"311":-0.07228746368720651,"312":-0.17551106958171125,"313":0.016750905894039988,"314":-0.002068723219584475,"315":0.008880240500347688,"316":-0.0018291295182913682,"317":-0.14931699029640383,"318":-0.10881660900575066,"319":-0.042149324553899234,"320":0.08109427221221648,"321":-0.13969046994226403,"322":0.21453029935690612,"323":0.06072062296873021,"324":0.10980370423698599,"325":-0.15419319322712102,"326":0.020601949771257018,"327":0.14632973297828572,"328":-0.011542483763200675,"329":-0.07825088666304279,"330":-0.08155728581155948,"331":-0.16980910952952163,"332":0.23758689343861272,"333":-0.058088006301776074,"334":0.15994555890225462,"335":-0.0952279508657678,"336":0.25894763351708505,"337":-0.21388531008382483,"338":0.16821222209983555,"339":0.15769991758138846,"340":0.10794332321629371,"341":-0.1756914032912338,"342":0.21412038733323552,"343":0.022194711535812876,"344":-0.04773266275702449,"345":0.017158786270823106,"346":-0.02891993269668756,"347":-0.16726924087696082,"348":0.22038248848825634,"349":0.01483678416899596,"350":0.13248850528866543,"351":0.05894380512731204,"352":0.16526389020918997,"353":-0.17757440540881791,"354":0.35498526292858607,"355":0.15949643520376183,"356":-0.07865480378072895,"357":-0.2438733742285797,"358":0.03502067537892489,"359":-0.09190145488801146,"360":0.02202400951077922,"361":-0.01093805405243292,"362":-0.09086496064782765,"363":-0.17908303276245224,"364":0.20312464661501212,"365":-0.016674843383799355,"366":0.1777940678433467,"367":0.1983708631408321,"368":-0.03979494976949668,"369":-0.2159693648705058,"370":0.06679261793472091,"371":0.20147262214633768,"372":-0.09338966753360149,"373":-0.3392308534831377,"374":-0.08654053579146846,"375":0.035609585755682995,"376":0.04609958191990233,"377":0.18567129138509175,"378":-0.0795404754918522,"379":-0.1750060106983468,"380":0.06866768135168423,"381":0.16452215444591645,"382":0.0014485053951450756,"383":-0.060060842767860806,"384":-0.048271462275656145,"385":-0.16709195280212444,"386":-0.3202290134824953,"387":0.2806365101690371,"388":-0.16528554845291332,"389":-0.2916805648205443,"390":-0.12387962620918812,"391":0.005462333299489174,"392":-0.15769087512239727,"393":0.1537177962578989,"394":-0.1423660809557414,"395":-0.2501140521761494,"396":0.25261535568162713,"397":0.133788650250605,"398":0.02234072245112499,"399":-0.38452696277698284}},{"sx":5,"sy":5,"depth":16,"w":{"0":0.1739789191068841,"1":-0.06770035060579321,"2":-0.01666148688610775,"3":0.001656861998822911,"4":-0.09895037683997311,"5":-0.032729632621709796,"6":0.201891349536214,"7":0.07477783770829567,"8":0.03702529495032666,"9":-0.10713125813434889,"10":0.04811410825965412,"11":0.14357587035974004,"12":-0.09007089449512307,"13":0.03227293161017656,"14":-0.1172983338003755,"15":0.04048751631173424,"16":-0.0036943509534050406,"17":0.025399457280464516,"18":-0.1093577493807649,"19":-0.10665913034823006,"20":0.06388483906450027,"21":-0.05591569869557468,"22":-0.03104098711737637,"23":-0.1347777563464556,"24":-0.06364609559058919,"25":-0.16112963648841275,"26":0.0870631638206497,"27":0.07571641125468197,"28":-0.12241733239863685,"29":-0.04813916051704222,"30":-0.06316397061312681,"31":-0.056345187026785364,"32":0.08159525168500928,"33":0.014871489895916003,"34":0.1553259957072405,"35":-0.08265073848129129,"36":0.04650401465909294,"37":-0.044136271836513224,"38":0.06348536390281134,"39":-0.04129663091733204,"40":0.054987774942147016,"41":-0.007739032108618848,"42":0.18778760659596375,"43":0.03543437139721847,"44":-0.18993462011045162,"45":-0.08190891102462627,"46":-0.022848910940066563,"47":-0.16485087954264852,"48":0.2586790161075282,"49":-0.004919757097164747,"50":-0.0015118423526901915,"51":-0.2456523786062735,"52":0.09349100680648005,"53":0.02011170265961411,"54":0.19725752266882804,"55":0.042286050813226214,"56":0.035881075104639636,"57":-0.20232600647384796,"58":0.08086046151340398,"59":-0.05482186544996993,"60":-0.11172100716892339,"61":-0.11097688779813515,"62":-0.20508862467344868,"63":0.07218309449190423,"64":0.22827266495113055,"65":-0.15548229725453014,"66":-0.04019178445134339,"67":-0.2158004401524612,"68":-0.0008116016427375515,"69":-0.17337004678472698,"70":0.18593175527072855,"71":0.2353980538391321,"72":-0.016781138951472947,"73":-0.3094654322699063,"74":0.05861500313461706,"75":-0.02075334283949743,"76":0.0021656497482658655,"77":-0.11462009959350937,"78":-0.01498589318911792,"79":-0.11547968704470493,"80":-0.06471182245279478,"81":-0.028264258150862094,"82":0.01691888752054566,"83":0.15536585081485116,"84":-0.10442126123849908,"85":-0.15014006389021883,"86":-0.039417261478323876,"87":0.015399278126455364,"88":-0.032332790080883606,"89":-0.010380254308963024,"90":-0.04916947795281863,"91":-0.0603946788921195,"92":-0.13803678767465064,"93":-0.05063015473232881,"94":-0.09989240937251959,"95":-0.010986413900663685,"96":-0.11082770244225065,"97":-0.13044456279952438,"98":0.022488238247341055,"99":0.06383716949420337,"100":-0.002470084428966044,"101":0.026347248644350847,"102":-0.10582914744220766,"103":-0.09676924455225372,"104":-0.1514257998347348,"105":-0.08448292613647405,"106":-0.16203590030130643,"107":-0.06914167382469108,"108":-0.05125508975967703,"109":-0.04241235605626338,"110":-0.01767108976782675,"111":-0.033825040292235334,"112":-0.06866513830599758,"113":-0.09996184009195033,"114":-0.041412702947182994,"115":0.03226894704658358,"116":-0.032394402965175394,"117":0.001886962696823301,"118":0.018176907034646774,"119":-0.1636004111316998,"120":-0.01419639334899617,"121":0.06180299482581086,"122":-0.13010481173100713,"123":-0.03503491432437351,"124":-0.034457271256992744,"125":0.026509102071580717,"126":-0.17624401178954224,"127":-0.03556916920195697,"128":0.0036667761546799733,"129":0.04555600764417526,"130":-0.019648588470598912,"131":-0.09950178665087103,"132":-0.04639231504614361,"133":-0.13885591779193757,"134":0.012508596945044583,"135":-0.09523323868817382,"136":-0.09919188363731098,"137":-0.06818366688286404,"138":-0.03973215969142986,"139":-0.042717378174002466,"140":-0.035968213393044665,"141":0.017723331354415985,"142":-0.1788940254377664,"143":-0.010882434908726616,"144":0.17765997958500657,"145":-0.12194302682346177,"146":0.1609932459966369,"147":-0.25337739788665886,"148":0.01669454899295067,"149":-0.08511081990806688,"150":0.13369597653523246,"151":0.0859068143642943,"152":0.30321994596947105,"153":-0.24496352242843,"154":0.0984705373337889,"155":-0.06789127635363738,"156":0.0005935754018012697,"157":-0.02313997523674963,"158":-0.0606770036217181,"159":-0.05798504841064952,"160":-0.0654916826741051,"161":0.03300047172235221,"162":0.09816601234258658,"163":0.08463759061837707,"164":-0.13459426636604305,"165":-0.0811444674506306,"166":-0.1371895116297703,"167":-0.08025766336120116,"168":-0.08320519877220706,"169":-0.04971304676628955,"170":-0.024810883906424722,"171":-0.05520825827804494,"172":-0.13079162743904124,"173":0.03760859216831961,"174":-0.09901454492486493,"175":0.03386888281415851,"176":-0.1128992114017961,"177":-0.12209743492347487,"178":-0.023796603640711712,"179":0.053168712425733115,"180":-0.13632860550702547,"181":-0.07625787454146629,"182":-0.047257924434905604,"183":-0.17288807892738228,"184":-0.0673402675112818,"185":-0.0803122429029348,"186":-0.0603553127722542,"187":-0.14637323304754465,"188":-0.025383063446049115,"189":0.07500542569784864,"190":-0.19317074434038142,"191":-0.15792105928599495,"192":-0.15886357143148436,"193":0.0025286122449842147,"194":-0.164232295914009,"195":0.14124771752742316,"196":-0.03367562046588998,"197":-0.19875272058557678,"198":0.0706012166139592,"199":-0.05562941822962814,"200":0.06647704352654868,"201":0.1488142703686318,"202":0.02900282684133218,"203":-0.09032785258591486,"204":-0.0031679874963200304,"205":0.06777640031852372,"206":-0.29615761408152363,"207":-0.17127964762790085,"208":-0.023572588203383295,"209":0.01026599917829396,"210":0.09929217779381282,"211":0.04419552020845038,"212":-0.0396187518892067,"213":0.012387344134894469,"214":-0.03300188565123103,"215":-0.05628872646363846,"216":0.022937528700728627,"217":0.06684673848338413,"218":-0.06510996333562308,"219":0.04647328722285136,"220":-0.07006472769507786,"221":-0.08001127318183922,"222":0.049020381390832,"223":0.008963362446906998,"224":0.11384489713129882,"225":0.025548885894554917,"226":0.12216704665667222,"227":-0.3793210583419234,"228":-0.0292656398802625,"229":0.01812864165749381,"230":0.16199052301615688,"231":0.0800916483970114,"232":0.2397822551564306,"233":-0.19912770262763227,"234":-0.0259736335873365,"235":0.021337190874282815,"236":-0.18601002516916798,"237":0.023303332020370604,"238":-0.019192380546298456,"239":-0.05288114676318096,"240":-0.1760147824787317,"241":0.06894971459740352,"242":-0.0039390726384026685,"243":0.03670065852126387,"244":-0.07637399529782675,"245":0.11929178325130814,"246":-0.05740316583684865,"247":-0.06274149927104183,"248":0.020215266486297123,"249":-0.07800530755346294,"250":-0.0844539951836528,"251":-0.06761712308532997,"252":-0.08762731124979861,"253":0.041274616203720416,"254":0.08105929316450376,"255":0.039219166560597866,"256":0.027506034945114267,"257":-0.00423810187443291,"258":-0.07469041056610044,"259":0.08716985250212768,"260":-0.19521336402635123,"261":-0.17319185615501365,"262":0.03773365503548018,"263":0.012388201965784123,"264":0.08106942969736589,"265":-0.05124214833925842,"266":0.06528007003630994,"267":0.07840633129745701,"268":-0.010274548270903225,"269":0.06453515601242514,"270":-0.21399568928554683,"271":-0.0066571898400611795,"272":0.04518010312293074,"273":0.22920979336638303,"274":-0.01937133471523502,"275":0.0931314295011774,"276":0.0008770432150808043,"277":0.0305308262218351,"278":0.02537788122733162,"279":0.044137211819574335,"280":0.2645286654768254,"281":-0.021899697956879613,"282":0.04278468930474515,"283":0.09021788456650338,"284":-0.10964650030849439,"285":0.12862131993910092,"286":-0.11463411091281846,"287":-0.28570659865172593,"288":-0.06033294337771536,"289":0.09036261093996059,"290":-0.015365809961886313,"291":0.019627541605270412,"292":-0.017492248608908717,"293":0.1359575209074686,"294":-0.13780171148535672,"295":0.005161638330418612,"296":0.01716971600310171,"297":0.05958907569049027,"298":-0.044273729120098956,"299":0.008698040758866895,"300":-0.04857196524280005,"301":0.10918556606963971,"302":0.1356189982177338,"303":0.06459275146991761,"304":-0.26103280651583655,"305":-0.0651012766171708,"306":-0.0076499661972155245,"307":-0.03466429958882044,"308":-0.0020053962462177385,"309":0.04267795120319885,"310":-0.1887937755789795,"311":-0.13411493395058088,"312":0.08585511170651822,"313":-0.2258135566873916,"314":-0.1590652908597877,"315":-0.06289705045431372,"316":-0.14481162793660055,"317":0.06986900726341394,"318":-0.02335966007860103,"319":0.0095101129319802,"320":-0.040849567152895894,"321":0.01879437707942895,"322":-0.022615194665877535,"323":0.0697644199189049,"324":0.020545924241706218,"325":0.0767672827460259,"326":-0.11206793081015981,"327":-0.0574514588303839,"328":0.003605398648351266,"329":0.005426737298168357,"330":0.012590690817281822,"331":-0.018773016155866042,"332":0.04974297727453274,"333":0.04162174282194252,"334":0.05054192635529734,"335":0.1845980696089479,"336":-0.030767446024311876,"337":0.09858671180860154,"338":0.097545047410872,"339":0.1413157934677128,"340":-0.03675336482546132,"341":-0.05682658515429359,"342":-0.011038219547945892,"343":-0.056799023120632536,"344":0.07736520142621155,"345":0.07321197635066676,"346":0.014180225317796235,"347":-0.072831106000467,"348":-0.0036355930722951116,"349":0.07725682516996042,"350":-0.15591342693941615,"351":-0.017811258965569763,"352":0.09902425651449466,"353":0.2399151435785796,"354":0.17226900564949035,"355":-0.09134372147903039,"356":0.06410298236546351,"357":0.11281906827428108,"358":0.05075267395310891,"359":0.0607415480809513,"360":0.046729117387873255,"361":-0.1798279570174567,"362":0.010468589801792053,"363":0.13603066472748426,"364":-0.13842186815908342,"365":0.03213994608973908,"366":0.03029566651263416,"367":-0.10425863850483524,"368":0.16590104729253757,"369":0.19207280721936848,"370":0.06197284157325277,"371":0.14909311838889872,"372":-0.033251667025522576,"373":0.2677893624112884,"374":-0.046052683254426824,"375":0.024916600705691443,"376":0.08281510804602371,"377":-0.07097445390748486,"378":-0.02913039208379911,"379":-0.06566900977146482,"380":-0.027015080393086973,"381":0.17065041727582753,"382":0.059378384216653056,"383":0.07494386156696,"384":-0.08234443883608693,"385":-0.03780395799413423,"386":-0.13029489878996442,"387":0.029952454370142597,"388":-0.12470116338201362,"389":0.04169562308883863,"390":-0.04895347452025555,"391":-0.08071461169963949,"392":0.13999973770631027,"393":0.023600800325742192,"394":-0.07213229635378571,"395":-0.03558076462028973,"396":0.039986943838723116,"397":0.09717940615501659,"398":0.010856845871918755,"399":-0.13077800453739796}},{"sx":5,"sy":5,"depth":16,"w":{"0":-0.14562239054955267,"1":-0.2021470203842911,"2":-0.28467209151915013,"3":0.0335384862051631,"4":-0.16952582239724975,"5":-0.278374237357048,"6":0.11286811405770347,"7":-0.29828092037956605,"8":0.07847445702676087,"9":-0.1742954242343753,"10":-0.00015061747595059813,"11":0.05376039562493047,"12":-0.25204351609344694,"13":0.141409561776491,"14":-0.5007234700859398,"15":-0.06012627306245854,"16":-0.3309425585154308,"17":0.09964565799120931,"18":-0.141753156984666,"19":-0.00984594865708355,"20":0.10081151626709982,"21":-0.15390978142389858,"22":0.051362643785117526,"23":-0.004983571718491973,"24":0.18693944021395997,"25":-0.22374609121388292,"26":-0.008152129906089075,"27":0.09677104121209763,"28":-0.08166242200824224,"29":0.08866013658195275,"30":-0.08781972936324924,"31":0.011112685011469753,"32":-0.20661697185287553,"33":0.004269588028588649,"34":0.05191225466716438,"35":-0.058042133005289286,"36":0.13663328894137733,"37":0.05107397094149954,"38":0.06478167970478345,"39":0.02951151726556472,"40":0.07575356510175571,"41":-0.196435859518387,"42":-0.15629502031981202,"43":0.037348178424090724,"44":-0.20827825088025684,"45":0.07620442848612509,"46":0.19349690073944648,"47":-0.10188428922822276,"48":0.12321350349621678,"49":-0.16325546881105668,"50":-0.13512734464418283,"51":-0.17221223261167576,"52":0.00418777047297098,"53":0.012101024233981475,"54":-0.15890024298438304,"55":-0.09250809475511121,"56":-0.1835194805215642,"57":-0.3100154095555179,"58":0.02004690887242618,"59":0.10231485846053043,"60":-0.34687178697208576,"61":-0.026366273780865576,"62":0.0761170173020049,"63":-0.22234489464660592,"64":-0.11687256996305234,"65":-0.226622697809544,"66":-0.1684495409026212,"67":-0.2426040704108912,"68":-0.03316481420255022,"69":0.13795307566111642,"70":-0.09071788761902236,"71":-0.16697700263808044,"72":-0.19589266606807293,"73":-0.25624910534385986,"74":0.09629570552997929,"75":0.16943298257392758,"76":-0.19213680124719748,"77":-0.2387949693073597,"78":-0.1241290405416254,"79":0.041483661758624196,"80":-0.09475835471587364,"81":-0.09356352157881782,"82":-0.15093873161670002,"83":0.05439178524272375,"84":-0.17470244236682353,"85":-0.1733203245440654,"86":0.20972637981417622,"87":-0.012420648187154779,"88":0.20209826328688832,"89":-0.1459008574329982,"90":-0.18884399479334718,"91":0.050137359919026014,"92":-0.09767564237019966,"93":0.2040901992546632,"94":-0.4061405399873707,"95":-0.13612155384335092,"96":-0.11869312999700068,"97":0.10475469901450445,"98":0.21417209697180853,"99":-0.10827005766402602,"100":0.035183596096367994,"101":0.025144291476723868,"102":0.20414364117796183,"103":0.041945495009977275,"104":0.16198418501062462,"105":-0.16799907351720753,"106":-0.0838008099932819,"107":0.20219851141781847,"108":-0.026815766676555598,"109":0.09333391018211827,"110":0.04303123611040392,"111":0.1495109780576294,"112":-0.09209970125464181,"113":0.08297139565680463,"114":0.0015032317453257229,"115":0.018136636954143016,"116":-0.00607322336202746,"117":0.0677446618094145,"118":-0.10192153671988391,"119":0.021066908756750487,"120":-0.09371766725968612,"121":0.0054137773966561244,"122":-0.1555912040065122,"123":-0.02506919599365981,"124":0.00899212626027,"125":-0.09582089978941734,"126":0.19651560825474004,"127":0.03752543302581883,"128":-0.13523418707524776,"129":-0.1437930369586806,"130":0.0012203405775910378,"131":0.040648653943563415,"132":-0.07174146687545564,"133":-0.0340866854009413,"134":-0.34706612683689597,"135":-0.16586084252333338,"136":-0.2556456735406156,"137":0.019943055744203023,"138":-0.020183594588377023,"139":-0.16208205897959832,"140":-0.00034763263976631,"141":-0.08029942229176898,"142":0.07746721056743046,"143":-0.030659140608262123,"144":-0.0097054377951944,"145":-0.07141119139610214,"146":0.031936374325374904,"147":-0.0513540559523423,"148":-0.09940191983720925,"149":0.061937188341350286,"150":-0.16203503754794996,"151":-0.09868261941102585,"152":-0.21172549606036742,"153":0.06274825440156968,"154":-0.10002186031767381,"155":0.1399861538289122,"156":-0.025762559157298873,"157":-0.04199118272234155,"158":-0.024549371646002915,"159":0.03492981346508378,"160":0.07645527755285847,"161":0.008730978039672254,"162":0.2009940379394467,"163":0.040385097552704176,"164":-0.14450493250656876,"165":-0.15343056407782485,"166":0.2568495111246098,"167":0.04024112936312699,"168":0.39609511099428435,"169":-0.2887945962997435,"170":-0.1927956571913874,"171":0.029658712583207087,"172":-0.054565303890964485,"173":0.2636734501034785,"174":-0.03775784514672408,"175":-0.08141513467438033,"176":0.07027969567314937,"177":0.19788322339534764,"178":0.13574928413011084,"179":-0.06474193875244037,"180":-0.0521481460572973,"181":0.211405967912071,"182":0.13276222902930632,"183":0.12756755820232654,"184":0.2161452366100287,"185":-0.11032109523766734,"186":-0.01409843003297912,"187":0.18562411557579525,"188":0.03823274754119819,"189":-0.08993816137419332,"190":0.04301700236097443,"191":0.16315201841958532,"192":0.047285125290000354,"193":-0.13411242125352468,"194":-0.06965551788523161,"195":0.016178673873842395,"196":0.021749906082536526,"197":0.07328741979776318,"198":-0.11274861116031645,"199":0.09245567693727239,"200":-0.26841675608085597,"201":-0.09564869831155352,"202":0.032287098263574864,"203":-0.010119290764964525,"204":-0.029241908705495336,"205":-0.11719905099126136,"206":0.2141767154732837,"207":-0.08637073259864829,"208":-0.0870067649472474,"209":-0.040138314285791885,"210":0.03432260222368809,"211":-0.046262845711277915,"212":-0.07081808372376146,"213":-0.046643827490532246,"214":-0.27623864551133326,"215":-0.21515852139809885,"216":-0.08000049098598232,"217":0.05137210372507631,"218":-0.06393322430237866,"219":-0.09728997090785127,"220":-0.050349417083690555,"221":-0.09614320757596184,"222":-0.13467903700842437,"223":0.1151696321222968,"224":-0.09102423208155438,"225":-0.0026046136084549552,"226":-0.17083787996779892,"227":0.1046343152352698,"228":-0.062070685794018136,"229":-0.07421512732682464,"230":-0.18903868333263768,"231":-0.10378240608819134,"232":-0.11901417632056653,"233":0.12365155928795275,"234":-0.14250323701436454,"235":-0.10473547789989124,"236":-0.039249676893031125,"237":-0.10870813692312653,"238":-0.11977313033839984,"239":-0.02695527237685234,"240":-0.06290425247675592,"241":0.07009700005861745,"242":0.04319028172510088,"243":-0.2905922237569076,"244":-0.07093774502061088,"245":0.04490920180291445,"246":0.13965747119722927,"247":0.12230920317208416,"248":0.27744381385678973,"249":-0.2736692710758284,"250":-0.07842903700419254,"251":-0.10572590068265163,"252":0.07635524363113086,"253":0.1398413390993928,"254":0.15496394761816829,"255":0.1619661441283702,"256":-0.03516718790610996,"257":-0.09901911716309923,"258":-0.08259761380262132,"259":-0.21370488871892385,"260":-0.10668474465963995,"261":-0.07019891789352557,"262":-0.01055408835616001,"263":0.0471403408333067,"264":0.004010837333205484,"265":-0.17307251614527275,"266":0.015951627380233722,"267":0.012413571462738818,"268":0.03786122214970973,"269":-0.2609992140243206,"270":0.011503996941912845,"271":0.022856405205196027,"272":-0.15508947626968375,"273":-0.09615325137942055,"274":-0.0900474051256732,"275":-0.16733948336592744,"276":0.014400825741669067,"277":-0.1235639310586948,"278":-0.33116031426387743,"279":-0.1952873392670532,"280":-0.3628151573583176,"281":-0.06807473943248087,"282":-0.0613214389650117,"283":-0.1487439010369077,"284":-0.0881990451093938,"285":-0.04034097757270675,"286":0.024884910283500036,"287":-0.08092797645605608,"288":0.00970328238676115,"289":-0.16892798343596627,"290":-0.06039877695220242,"291":-0.09476125530929003,"292":-0.11409997627067509,"293":-0.08021949576236735,"294":-0.2573017737329996,"295":-0.2498178346376664,"296":0.032170556637181734,"297":-0.03582698464831403,"298":-0.007520364681788831,"299":-0.1812725587585665,"300":-0.17278220076066955,"301":-0.13719608355967378,"302":-0.17333719372311043,"303":-0.05523264439547546,"304":-0.043733740875609065,"305":-0.14747904686219693,"306":0.0719208830773886,"307":-0.13228397643033576,"308":-0.11114631690925511,"309":-0.11567223030736215,"310":0.006348723248500951,"311":-0.10916998470853818,"312":-0.13253051959652912,"313":-0.20490880823908544,"314":-0.03406368009731891,"315":0.010141322946981708,"316":-0.17903333439475252,"317":-0.1978797098563861,"318":-0.27122060271197623,"319":-0.07405084711520919,"320":-0.05787465598639935,"321":0.026378088498471584,"322":0.0009237676284216783,"323":-0.26121283686036506,"324":-0.07026870095388053,"325":0.06421519290283297,"326":0.04676557937028989,"327":0.1901229153172558,"328":0.2673916942507335,"329":0.09830558164789822,"330":-0.021871172128360025,"331":-0.15924632603309744,"332":0.06577477541780952,"333":-0.02312130272669127,"334":0.17444162591220375,"335":0.16371567189615155,"336":-0.03613323670392294,"337":-0.23842474216338724,"338":-0.09686744961181479,"339":-0.2407165114323113,"340":0.016529421975592803,"341":-0.006969492607651661,"342":-0.002596248327087416,"343":0.03327393656138271,"344":-0.025957112105918726,"345":0.047538546022591735,"346":-0.13978252972969266,"347":0.01481480912084776,"348":0.0779249943974703,"349":-0.3269779021382995,"350":0.11353274353355704,"351":0.03402320155567903,"352":-0.1471107895871413,"353":-0.21000112217090455,"354":0.09037745042342961,"355":-0.09530571591970494,"356":-0.039495486111160764,"357":-0.1357765576895644,"358":-0.21503651764734732,"359":-0.1449009007082991,"360":-0.28432829215603533,"361":0.19586600413863225,"362":-0.1654754688203192,"363":-0.2778447296926831,"364":0.0245396563728254,"365":-0.12584514531078236,"366":0.012085247348145641,"367":0.1470397824388359,"368":-0.02887312759506159,"369":-0.12274659237195748,"370":0.21079229773399977,"371":-0.039576078777221406,"372":-0.13376074326281315,"373":-0.09712678316041298,"374":-0.03211558692425311,"375":-0.1323126492024956,"376":-0.061105661206771245,"377":0.12392202102155407,"378":-0.11819850959950853,"379":-0.05147599776127481,"380":-0.15805487791828157,"381":-0.013466158608915353,"382":-0.0784576675836398,"383":0.08960857649662865,"384":-0.001960252740781277,"385":0.07168452599359192,"386":0.11013770512156576,"387":-0.08179918138550736,"388":-0.09903386579520299,"389":-0.09369259247958203,"390":-0.02936840837897016,"391":0.061392654644024304,"392":-0.0552881657970866,"393":-0.05289965563080213,"394":-0.053094681452773705,"395":0.20504149788036116,"396":-0.11709444463463126,"397":-0.03170827335334388,"398":-0.1088682426742912,"399":0.043223447253361205}},{"sx":5,"sy":5,"depth":16,"w":{"0":0.033083819180966735,"1":-0.04681049728835109,"2":0.12839351378623612,"3":0.055550807393512924,"4":-0.02329856393247318,"5":-0.0037308034520437995,"6":-0.07905933194128069,"7":-0.15799209540052556,"8":0.01426827692551311,"9":0.13788954071567272,"10":0.10563249389258093,"11":-0.11127564609917004,"12":-0.012905133603585587,"13":-0.14075499392686033,"14":0.12077421345931061,"15":-0.004077095293121469,"16":-0.08809547440447599,"17":-0.010866491057212208,"18":0.16526217141459074,"19":0.017342767115337956,"20":0.03110174551135928,"21":-0.031226626407862734,"22":-0.27196475802304326,"23":-0.3433240607920014,"24":-0.1895367436029958,"25":0.12973783637793349,"26":-0.04315719189323302,"27":-0.22677709195155876,"28":-0.1404019638424983,"29":-0.07866053167275326,"30":0.08091531087857913,"31":0.02800809224291398,"32":0.07097048608127862,"33":-0.1420273561583093,"34":0.23570861029176243,"35":-0.0692171004991874,"36":-0.061024656346036814,"37":0.0780248623108264,"38":-0.16750476476731468,"39":-0.16551980474093894,"40":-0.24920832531545425,"41":0.14099676598916297,"42":-0.08199350134315908,"43":-0.0650011126957633,"44":-0.2019368724139342,"45":-0.1273258958483022,"46":-0.09718434669715613,"47":0.022251722183418306,"48":0.09261040916975677,"49":-0.2007150202221347,"50":0.11139219853764117,"51":-0.09281620584854383,"52":-0.08926201826680549,"53":-0.013985740808816012,"54":-0.1463956081423407,"55":-0.20609044350479347,"56":-0.18834286798384778,"57":0.07458999890004794,"58":-0.020432967978480997,"59":0.09788692259173178,"60":-0.17523274842109246,"61":-0.14236550470851128,"62":-0.1553916669315684,"63":-0.01088679029169623,"64":-0.06860974084898601,"65":-0.2781878542676482,"66":0.03554759116177718,"67":-0.18089841374079185,"68":-0.191927790015188,"69":-0.14995890885978455,"70":-0.07955478229921911,"71":-0.23941581221294347,"72":-0.12332479320850481,"73":-0.10057466059467245,"74":0.0029858338896016326,"75":-0.05306185503630976,"76":-0.23831820422896965,"77":-0.13260282642663662,"78":-0.20510419662777699,"79":-0.018422660642021117,"80":0.19261466359300197,"81":0.1800467048214136,"82":0.1488955351908396,"83":-0.11077328796434396,"84":0.059009688691249125,"85":0.13635715729451686,"86":0.02197127199073877,"87":0.028395772841199835,"88":-0.3066885742646642,"89":0.016868412614135055,"90":0.1831479201229909,"91":0.08059848508214108,"92":-0.10336701369629273,"93":-0.3913295538220153,"94":0.010724891963377996,"95":-0.006298654714496481,"96":0.2380018615403145,"97":-0.11493260540892263,"98":0.006813584673797868,"99":0.02830014348127078,"100":0.03844271619760305,"101":0.07851962948409845,"102":0.0016923675077614188,"103":-0.019933027533259866,"104":-0.36238251255544035,"105":-0.07543208184565987,"106":0.1113718584743139,"107":0.09713112930042814,"108":0.017255356769997954,"109":-0.08924715366272458,"110":0.058370520218989266,"111":-0.08854500140682005,"112":0.03517909318683413,"113":-0.15569239133271007,"114":0.2054172170858424,"115":0.18106105617566925,"116":-0.08264117924731908,"117":-0.09897884677255127,"118":-0.04710377634985627,"119":-0.2817427835084683,"120":-0.15997027702685826,"121":0.012546531417027409,"122":0.06183823485552772,"123":-0.10398662241616531,"124":0.019334861806249916,"125":0.0075499143793078885,"126":-0.08463020497329121,"127":0.1037779350486434,"128":-0.17780574829202125,"129":-0.12834195702793633,"130":0.0649432367796882,"131":0.06045816460265485,"132":-0.12802462545138824,"133":-0.26064137630697454,"134":-0.20651114523021985,"135":-0.15658498552946867,"136":-0.22083144921548525,"137":0.06873053180822321,"138":-0.14778541698560216,"139":0.045425011594845854,"140":-0.09476146845705302,"141":-0.1138443525532509,"142":-0.15484221828235922,"143":0.09518672135718576,"144":0.027844912277980426,"145":-0.23828474219495244,"146":0.10639413245440112,"147":-0.12519473319962918,"148":-0.34098117794308125,"149":-0.30096470743189463,"150":-0.18004880633783193,"151":-0.16120154892555544,"152":-0.0978159033010902,"153":-0.01737885078473968,"154":-0.06432011163160486,"155":-0.23384888009817828,"156":-0.10052603833175869,"157":-0.04938739192200519,"158":-0.1826531444919934,"159":-0.0003975610171268768,"160":-0.07998295530948929,"161":0.03572344584388568,"162":-0.20435162667562803,"163":-0.2412334671910156,"164":0.043930217353181804,"165":0.10576554234855456,"166":-0.029827689962029766,"167":-0.09653847663459954,"168":-0.09608918515228425,"169":-0.006751535132838353,"170":-0.05190023307208871,"171":0.001296700891530925,"172":-0.07488549804275924,"173":-0.10824284845119483,"174":-0.15667274043400128,"175":-0.1435966822993758,"176":-0.03876251230184585,"177":0.01198860173115561,"178":-0.04838142798675208,"179":-0.005047227562048811,"180":-0.08820036941746376,"181":-0.14281579551813184,"182":0.010995439798227386,"183":-0.01686348607301167,"184":0.007358554281500276,"185":0.02445473222866819,"186":-0.039974645809863915,"187":0.04391310814825462,"188":-0.040729165427777686,"189":0.025935863976095905,"190":-0.11296504379704543,"191":-0.03899200790984444,"192":0.06555435045494919,"193":-0.19996167044745808,"194":0.028004114979481,"195":-0.04841462038454653,"196":-0.05646242058656496,"197":-0.07071252774311952,"198":0.10749594904544553,"199":0.1097791733837667,"200":0.09737595906594709,"201":0.07207813294750996,"202":-0.0628061827869067,"203":-0.05202189735954351,"204":0.12311237663789089,"205":0.00623411670362949,"206":0.01603558986995691,"207":0.0017729824688861525,"208":0.11488425592753838,"209":-0.17337697305868272,"210":0.018218691947028024,"211":0.010872100179994418,"212":-0.16520044056725358,"213":-0.11227299094049535,"214":0.028118284159414843,"215":0.06497110026609725,"216":-0.03337102069603703,"217":0.05123221125913079,"218":-0.022185906767319952,"219":-0.103906732745536,"220":0.10926713748144462,"221":0.12370485586082283,"222":0.0406839399334439,"223":0.09118970360488307,"224":0.04366125610022906,"225":-0.29771827395554984,"226":-0.0916301624681611,"227":0.17455339499429318,"228":-0.15597160388494388,"229":-0.29911464362425305,"230":-0.030967274069667438,"231":-0.1626276386734663,"232":-0.04147462022494936,"233":0.1761401403291041,"234":-0.09376337231103947,"235":-0.164546067977377,"236":0.2150944365687757,"237":0.03219800820818929,"238":-0.03463399473706993,"239":-0.20122348211691,"240":-0.31161884691721936,"241":0.15866097132845366,"242":0.1594754150486476,"243":0.15596497756855981,"244":-0.10537447401574065,"245":-0.20956733756952636,"246":-0.14822538695116494,"247":0.02378576967918505,"248":0.01950004128521153,"249":0.25333599911420474,"250":-0.30087732879489376,"251":-0.11301229983239826,"252":0.10694459055571529,"253":0.02739882477414868,"254":-0.1902255318366157,"255":-0.047131831622083876,"256":-0.20977873858694393,"257":0.19764347433058868,"258":0.23270500143191822,"259":0.1928353895453661,"260":-0.15139035470888706,"261":0.07061367141207246,"262":-0.11203782512289036,"263":0.049408837238418664,"264":0.06769162040140533,"265":0.07058760181071386,"266":-0.16269768352667263,"267":0.1022471629788668,"268":-0.024475275191261858,"269":0.13381633387625408,"270":-0.047891464367946085,"271":-0.036638988321448865,"272":-0.057676887017631844,"273":0.22853301078531096,"274":0.07741699955831684,"275":-0.08859812719599126,"276":0.12799727980903217,"277":0.15490487912031875,"278":-0.07682016965778603,"279":0.14533246377050302,"280":0.1607537502031521,"281":-0.06442375463147619,"282":-0.017849712338898736,"283":0.15185212902330447,"284":-0.0765237992930313,"285":-0.03467462639234922,"286":0.05284835479956937,"287":0.12324576974359445,"288":0.14545942164151338,"289":0.06135774286763409,"290":0.052410328010220116,"291":0.16005228655350703,"292":0.12925445969866764,"293":0.0431756628543355,"294":0.0576985534599128,"295":-0.006673099163818313,"296":0.054731941672455146,"297":-0.1960545998590999,"298":0.2555397187789849,"299":0.15914275553484292,"300":-0.03196646855381139,"301":-0.044273124787126236,"302":-0.0605835328855249,"303":-0.0610579206514474,"304":0.20260643312516713,"305":-0.20015186311883204,"306":-0.049303340504001834,"307":0.20069773016639364,"308":0.007929708188013966,"309":-0.24180248149998132,"310":0.30608405797488264,"311":0.17515178006708482,"312":0.0637636344346871,"313":-0.0360985202199795,"314":0.32677780311947685,"315":-0.025141627164321896,"316":0.13811917901399082,"317":0.04427168797958967,"318":-0.13999638600183764,"319":-0.1782296425366325,"320":-0.014608368882170389,"321":0.42762352598024067,"322":0.32661004287997664,"323":0.09860659094506648,"324":0.1101469884445233,"325":0.17630777446505153,"326":-0.26100796977038837,"327":0.058869144869017155,"328":-0.06768139897195596,"329":-0.02825170076256735,"330":0.15718079231803161,"331":-0.02877046428284247,"332":-0.023777242700533264,"333":0.06017417366702518,"334":0.05810287805913112,"335":-0.19621815891895147,"336":-0.010325180369879524,"337":0.2584029858434038,"338":0.1619060923421433,"339":-0.1075501257809904,"340":0.19800628186984326,"341":0.3912679253484496,"342":-0.2474769793901321,"343":0.04880434893282875,"344":0.06858715929909535,"345":-0.1333141708229148,"346":0.1875259297219032,"347":0.011080933893198593,"348":-0.07902467865802278,"349":-0.060684032731206726,"350":0.0140207927497738,"351":-0.2525838529344195,"352":-0.11904559398092165,"353":0.1049924669855943,"354":0.11324951706456367,"355":-0.1080609509265761,"356":-0.004355841918893178,"357":0.28613564659110907,"358":-0.1571151880568024,"359":-0.03269662111272672,"360":-0.2931020666483606,"361":0.06895958087543433,"362":0.05515772830374935,"363":-0.07476577855739136,"364":0.11940528990853286,"365":-0.17397898037074402,"366":-0.04194373981793512,"367":-0.00795506833411749,"368":-0.09128667985294472,"369":0.0015173725100770087,"370":0.036925671901624546,"371":-0.1730176529100474,"372":-0.04691493983245609,"373":-0.28718704493413083,"374":-0.1240049978981127,"375":-0.11169398191909889,"376":-0.2705224079416499,"377":0.07215088103915743,"378":-0.15372958380932109,"379":-0.08354047355837688,"380":-0.021911746256711544,"381":-0.045927480372144655,"382":-0.10893692063108452,"383":-0.04441215417620649,"384":0.03903092079057436,"385":0.2359452032499617,"386":0.18425167734172562,"387":-0.1732313481626215,"388":-0.006394619133368337,"389":-0.25577630194084106,"390":0.03807114584222797,"391":0.14336578585532375,"392":0.02030004550317737,"393":0.09211384478640759,"394":0.10764145325773468,"395":-0.03949692654985796,"396":-0.03563019870743373,"397":-0.17468185324972765,"398":-0.1192423310580593,"399":-0.16715594562346828}},{"sx":5,"sy":5,"depth":16,"w":{"0":0.24715084954784497,"1":0.0035043751778582556,"2":-0.13424391844097894,"3":-0.2754156268776084,"4":0.05253745291242347,"5":0.0857083164202989,"6":0.09197233288327764,"7":0.05528339744292169,"8":0.06687766266231815,"9":-0.16463038987845496,"10":0.3347552910538635,"11":0.18699106434509308,"12":-0.30956731630988066,"13":-0.11972511135724007,"14":-0.16159763159329146,"15":-0.2485349749157657,"16":0.17803608162828036,"17":0.1330238008389871,"18":0.07698020245269441,"19":-0.16918141171153217,"20":0.12186246839355562,"21":0.08860836654524001,"22":0.3053893728951438,"23":0.20114777985689092,"24":0.1673159854863468,"25":-0.13925004914367545,"26":0.3935100932759163,"27":0.36468034368059726,"28":-0.16325422104833395,"29":-0.1325022557032764,"30":-0.056519139895766915,"31":-0.2219691551488663,"32":0.13747034042399459,"33":0.23532945390114693,"34":-0.04645322071437035,"35":-0.23296553928197702,"36":0.35957396357899224,"37":0.3341921451808455,"38":0.15595788402663327,"39":0.16611211893574862,"40":0.186383148491038,"41":-0.091203055279856,"42":0.17453156884220794,"43":0.32433277287504425,"44":-0.2503347598116082,"45":-0.18441049350776817,"46":0.037407385529989456,"47":-0.17789655117680822,"48":0.024778863463276915,"49":0.1015513034829254,"50":-0.021291497089268266,"51":-0.3064904249912148,"52":0.25569656180445427,"53":0.4650874377146896,"54":0.061534077595810574,"55":0.054742210221489535,"56":0.021138125223450707,"57":-0.09737778882611921,"58":0.04109324726647208,"59":0.2789296714938786,"60":-0.06107850078031701,"61":-0.23835259470518674,"62":0.034219535077995425,"63":-0.053314200076130296,"64":-0.05298142022211085,"65":-0.2610890247446059,"66":-0.041267498130265104,"67":-0.31741378605846715,"68":0.07709309931066677,"69":0.17253006776164898,"70":0.05525209769388705,"71":0.004749050478400802,"72":-0.18196791397094939,"73":-0.2725270747943289,"74":-0.14998409857190192,"75":0.04507047879737325,"76":-0.02205247865796845,"77":-0.14553749099686142,"78":0.07288823611003448,"79":0.03915095146292541,"80":-0.12682324715424176,"81":-0.016746930834701988,"82":0.12779275323356362,"83":-0.1321533424917245,"84":-0.23395687566495874,"85":-0.08479732358925915,"86":-0.06929146038641286,"87":-0.0543112266718816,"88":-0.005702091907506956,"89":0.12056132039687038,"90":-0.16068833136870636,"91":-0.07372843904610435,"92":-0.10924086067426345,"93":-0.0361762473459389,"94":-0.19896043890513862,"95":-0.14434624275619948,"96":-0.02353367193026085,"97":0.13145002028467895,"98":0.16616687792186338,"99":-0.0993638546667801,"100":-0.07166284819731235,"101":-0.05177192062304867,"102":0.01641478440593517,"103":-0.01731138784367434,"104":-0.11572550054005283,"105":0.10043560330082069,"106":0.05179452836243693,"107":0.07666120813259926,"108":-0.12494129983860804,"109":-0.09872519622711459,"110":-0.15510957321482838,"111":-0.07263950433261784,"112":-0.07890732322399735,"113":-0.10990867413833519,"114":-0.02574804316614727,"115":0.020651551911947733,"116":0.04458117858725401,"117":0.22080694242656881,"118":-0.1966606614497638,"119":-0.05563221695979412,"120":-0.07257514803655642,"121":0.07652021242490617,"122":-0.07016464835697628,"123":0.026064383013409406,"124":-0.2657949782084403,"125":0.05663395528210082,"126":-0.09421385455568666,"127":-0.08359030233492777,"128":-0.03307301228287069,"129":-0.04218851257831708,"130":-0.042947274681292225,"131":0.02576317652198044,"132":-0.04973491175239138,"133":-0.0027936571572997324,"134":-0.15215844474382437,"135":-0.11564917236796114,"136":-0.02517740540933268,"137":0.11482344694443114,"138":-0.08998675345107239,"139":-0.051290209417468556,"140":-0.06709285174453436,"141":0.13410999976897825,"142":-0.0868317471847107,"143":-0.07227724499100736,"144":-0.29857772998218274,"145":0.02657228921223976,"146":-0.09025748685529675,"147":-0.001340337662031821,"148":-0.2411647174424673,"149":-0.037943475868188,"150":-0.056012983359829016,"151":-0.0725744347249873,"152":0.1515965180611649,"153":-0.044599754955295626,"154":-0.11558612792707361,"155":-0.29695640310137555,"156":-0.06765165139251202,"157":0.17241230453440973,"158":-0.07024464136508095,"159":-0.016069848016491774,"160":-0.10598927745050807,"161":0.03140573693791202,"162":-0.005894061524083087,"163":0.11625039185352305,"164":-0.14160746218274506,"165":-0.11358885127197975,"166":-0.19198466571854375,"167":-0.22623317278116872,"168":-0.057607951991732256,"169":-0.0820792931895301,"170":-0.14954919745387316,"171":-0.11633588324943306,"172":-0.09781698231774458,"173":-0.15731007991076787,"174":-0.013891005650135036,"175":0.019016234497580838,"176":-0.0992202042466732,"177":-0.10552964510694857,"178":0.035785323348381706,"179":0.18352712445177086,"180":-0.16907371419105136,"181":-0.02612346895808683,"182":-0.22254153769385043,"183":-0.19581490536270463,"184":-0.09118365718415443,"185":0.010064162189344392,"186":-0.10890876556297514,"187":-0.10698597754848965,"188":-0.13002119024574516,"189":0.03628322208732394,"190":-0.05416821669890869,"191":0.018526338139949475,"192":-0.17704563020044814,"193":-0.008870847232635285,"194":0.08068333779141791,"195":0.17888071809627232,"196":-0.26704660424688303,"197":-0.06693301538483948,"198":-0.09869931713820716,"199":-0.23708229789658664,"200":0.09392186168730143,"201":0.0424708058256006,"202":-0.09380756576255025,"203":-0.03998066804360928,"204":-0.05939925537966983,"205":0.15707554654135328,"206":-0.2705483603735274,"207":-0.07222856602943889,"208":-0.212072319493157,"209":0.12402504033405139,"210":0.03597000879868058,"211":0.14641088117543782,"212":-0.1291256005494533,"213":-0.02458738269061374,"214":-0.18446766321957386,"215":-0.03892720036132664,"216":0.0833003596924719,"217":-0.009608894653621552,"218":-0.002596489629971817,"219":-0.03397500465832571,"220":-0.08594610961349239,"221":0.11029087932943504,"222":-0.09435015354328916,"223":-0.1285055150700234,"224":-0.03241141755230817,"225":0.0225415100899467,"226":-0.042204279701483584,"227":-0.1410923093156592,"228":0.008973325326576532,"229":0.22999243372814382,"230":-0.0003959741565701008,"231":-0.01676810285309659,"232":0.1867598495112881,"233":0.02793401078144465,"234":0.09120547713335929,"235":-0.05248818587684688,"236":-0.018672271075965065,"237":-0.04473212888109848,"238":-0.01532279310207394,"239":-0.14632027488884622,"240":-0.025034167730708365,"241":-0.01593515846160913,"242":0.0870080630691041,"243":-0.03606882527627336,"244":-0.03636943148542585,"245":-0.1861529458650096,"246":0.026921424575527788,"247":-0.06721773408046149,"248":-0.011494938303658326,"249":-0.14724440873743902,"250":-0.1444942633970823,"251":-0.2192432536884305,"252":0.030809242505440863,"253":0.060229777580395556,"254":0.14136159657601505,"255":0.18001455042814385,"256":-0.09348022391362763,"257":-0.0541405264955516,"258":0.21916326652655738,"259":-0.06706021763415604,"260":-0.1388428431820525,"261":-0.061457562869918714,"262":0.00263381677783209,"263":-0.15954895501012842,"264":0.05405652254418503,"265":0.042235429620078646,"266":-0.11062750284347382,"267":-0.20311110743186325,"268":-0.0041348316540289155,"269":0.10924711635892972,"270":0.08947231686638349,"271":0.09221964712458773,"272":0.00016825641074718947,"273":-0.011748180882392621,"274":0.31736894945559235,"275":0.08196624056902377,"276":-0.10480365815349618,"277":-0.2926075788910521,"278":0.027384136364255296,"279":0.03911297857897059,"280":-0.05461363710344083,"281":0.0005940992088297435,"282":-0.018430996625555984,"283":-0.0035867559446473053,"284":0.013406236182248578,"285":0.05498378830614466,"286":-0.06633842831643637,"287":0.009118992592443777,"288":0.057174336101801566,"289":-0.027004877748045972,"290":0.11971284705534894,"291":0.027168534984022562,"292":-0.037390587730108935,"293":-0.06111274137665926,"294":0.07154333654408325,"295":-0.016173612188047005,"296":0.0769677871178814,"297":0.002977119987088086,"298":0.0573204784226946,"299":-0.07420896014297629,"300":-0.027098666609140662,"301":0.009222813091814018,"302":-0.01143906682959228,"303":0.05556581111880365,"304":0.03352592731785174,"305":-0.012358683300055304,"306":0.0699519354885538,"307":0.026101395139239616,"308":-0.10513591007500848,"309":-0.0489600739485398,"310":-0.03652201904069879,"311":0.00005180685033470109,"312":-0.08186412274193645,"313":0.02064079793234024,"314":0.0847082732218975,"315":-0.004792398447206794,"316":-0.12189735869028175,"317":-0.025041881260811694,"318":-0.07621115869801956,"319":0.01902337821051069,"320":0.18544687522000478,"321":-0.05153051604312591,"322":0.1275633524864517,"323":-0.11697141701634568,"324":-0.04149725657287279,"325":-0.12822061146703298,"326":-0.07110083163383217,"327":0.06066495831138745,"328":0.013663795064470017,"329":-0.09691034794771987,"330":-0.10267631646609081,"331":-0.1712914860173078,"332":0.04736948541640505,"333":-0.011969906162351086,"334":0.12427529226306155,"335":0.21860548640949765,"336":0.10998597070525538,"337":-0.037182973884952376,"338":0.08479926508101761,"339":-0.10733905955652555,"340":-0.06368822549292247,"341":-0.2612273991923432,"342":0.20212537532298105,"343":0.09432783938241905,"344":0.08285262294335471,"345":-0.1421008791626993,"346":-0.13650783979125727,"347":-0.11695359801370925,"348":0.07761707727536672,"349":-0.02646559284708485,"350":0.17540960507792852,"351":0.00047044838479833024,"352":-0.1844973466975507,"353":0.004555886443819349,"354":0.15902856995789344,"355":-0.06042610168183446,"356":0.09880631516448474,"357":-0.17347811653664869,"358":0.11135264410439114,"359":-0.01411786903185947,"360":-0.026422164492289263,"361":0.017074131950558562,"362":-0.024655614328317334,"363":-0.06044940258216539,"364":0.06674862754760758,"365":-0.05249426936896097,"366":-0.022330986122389165,"367":0.1288900598245013,"368":0.02002844549999857,"369":-0.10516150753751265,"370":0.10498103085041788,"371":-0.009493575001807477,"372":-0.04851450187410477,"373":-0.19472785645933102,"374":0.06858385205505009,"375":-0.07142946957229447,"376":-0.10779138288111366,"377":-0.06994581673689541,"378":0.0044804463292064,"379":-0.1401127421703388,"380":0.05734130963430828,"381":0.048109289892127184,"382":-0.07799254053113365,"383":0.06985043208764784,"384":-0.03885431531732235,"385":-0.1322885801649167,"386":0.009203350491937188,"387":0.040745934814770096,"388":0.14641980005017843,"389":-0.20284613808085133,"390":-0.0972902140641936,"391":-0.1308586302495186,"392":-0.10769532244300946,"393":-0.022656999908643546,"394":-0.24373812419074734,"395":-0.2126054447536045,"396":-0.05425465036411897,"397":0.030025450529504498,"398":-0.007773264211184922,"399":-0.061482942400108}},{"sx":5,"sy":5,"depth":16,"w":{"0":-0.0029751503623206494,"1":-0.10082593374860224,"2":-0.09186518546810428,"3":-0.05125330783603223,"4":0.015299311159668831,"5":0.04594110036579383,"6":-0.10226660507256395,"7":0.10508319607405976,"8":-0.15116404358870733,"9":0.12553274735412226,"10":0.17226859083349433,"11":0.12109369115392003,"12":0.23506666112273542,"13":-0.052347404973049794,"14":0.07554917028729018,"15":-0.15604617090543346,"16":0.03022535684185355,"17":-0.013371115952342742,"18":0.015244846604982371,"19":-0.06278967684681969,"20":-0.17896989037116923,"21":0.019674104331158068,"22":0.21142868168364315,"23":0.06649341849548038,"24":0.14394104220924153,"25":0.19724782215001735,"26":0.026273891265444146,"27":-0.07642825200884894,"28":-0.035524443744436904,"29":0.0797186749463517,"30":-0.07041947103604566,"31":0.1526194104795067,"32":-0.05551688630389408,"33":0.10403062891814342,"34":0.04383866239358008,"35":-0.0390582389087685,"36":-0.00959876659128697,"37":-0.10449544830137465,"38":0.08683605098375978,"39":0.027884895087098453,"40":0.09687507337567267,"41":0.13736255873619202,"42":-0.01182841013338675,"43":-0.06276559633932692,"44":0.012892076568289501,"45":-0.033078633076121876,"46":0.006802891425036776,"47":0.1726707329660474,"48":-0.18064175812191258,"49":0.04422920008316752,"50":-0.1625207395184443,"51":-0.022375458050061983,"52":-0.18564562487639533,"53":-0.23156512929552997,"54":0.004844848744867488,"55":-0.18399705967027208,"56":0.07173741128094248,"57":0.0424882011119226,"58":0.00959533560669518,"59":-0.22649396467505223,"60":0.17021615823287617,"61":0.053788491515259274,"62":-0.27042387426853964,"63":-0.22098651770058858,"64":-0.012324863265095456,"65":0.18850689764714104,"66":-0.10065730213440222,"67":0.10262522835944861,"68":-0.12938642329339722,"69":-0.11381864960036468,"70":-0.052782288580361394,"71":-0.03528678840530092,"72":0.0457281834457329,"73":0.05840042933280686,"74":0.034294683704206665,"75":-0.2254155484503594,"76":0.005655451540882945,"77":0.0654051551118536,"78":-0.15991265788976955,"79":-0.13374942051598174,"80":0.2051808293284407,"81":-0.0771999231462085,"82":-0.13190821758376475,"83":-0.10080692513320057,"84":0.005954082365988514,"85":0.05743022804624032,"86":0.02958261148768817,"87":0.033278661155908815,"88":-0.1582161802121225,"89":-0.2858569040805352,"90":0.3145120200630169,"91":0.15746832700591276,"92":-0.28664880943793586,"93":-0.22553056861092888,"94":-0.04143047601744737,"95":0.08468104030636318,"96":-0.001954666362435973,"97":0.04535727317234976,"98":0.08520802100219886,"99":-0.04999806549372934,"100":0.02879275673547428,"101":0.05969894567124642,"102":0.01530458925989124,"103":0.08418266082381778,"104":0.17932176597446164,"105":-0.05791411924726545,"106":0.3075803924080573,"107":0.04055344867149727,"108":-0.13710646871803514,"109":-0.02045765824530102,"110":-0.025214477887266287,"111":0.16373522638791915,"112":0.18933299721899807,"113":0.09294977143308022,"114":-0.09287889461080848,"115":0.009216878632326642,"116":-0.04805418059138168,"117":0.09630734413696954,"118":0.18301290461736716,"119":0.11712619655399656,"120":0.19743084461960422,"121":0.0012887995694620925,"122":0.18409436003245958,"123":-0.008449292938723497,"124":-0.03854981740627314,"125":0.053937833352985964,"126":-0.04750032700814791,"127":-0.0036364972250781426,"128":-0.049617669888394354,"129":0.04944444398565107,"130":-0.06657737293059833,"131":-0.06260788086223586,"132":-0.005316560843532407,"133":-0.16779788621506636,"134":0.1194530826508988,"135":-0.02110477819366898,"136":0.21854690526692128,"137":0.036372032489013315,"138":0.09560366920313097,"139":0.150807517042882,"140":-0.09618077145315727,"141":0.15513428903905532,"142":-0.3869658135439232,"143":-0.17186801909737268,"144":-0.02093561369610403,"145":0.3131794162624796,"146":-0.014621536354678333,"147":-0.1333939514240966,"148":0.21686953321788804,"149":0.018848812645298658,"150":-0.0031813096137687513,"151":0.16720757395445743,"152":0.11776201976434462,"153":-0.09584326171347977,"154":0.18529230865898658,"155":0.08316646096473064,"156":-0.11013856234365693,"157":0.12466521087256592,"158":-0.21036169117827108,"159":-0.2267745237945229,"160":0.08451792002243694,"161":-0.24018035962423456,"162":-0.048702612351639925,"163":-0.24416116629194465,"164":-0.1687464561931509,"165":-0.0750747302238035,"166":-0.0911076901552517,"167":0.02877437553177819,"168":-0.33474571492326094,"169":0.14523937454909727,"170":-0.011088389632314536,"171":-0.027305741468835163,"172":-0.16986872286649976,"173":-0.17991939999409548,"174":-0.13389618963930813,"175":-0.009977618659200521,"176":0.14926723034282158,"177":-0.25158538178397005,"178":0.10429916237094064,"179":-0.19737884210712212,"180":-0.06726633897754929,"181":-0.008465993414968974,"182":0.05594482519668874,"183":-0.08052048861681202,"184":0.02368286397778895,"185":-0.03904151584504247,"186":0.1527766907111987,"187":0.09571738887236497,"188":-0.17565397370617683,"189":-0.17653099230880478,"190":-0.11566944659489416,"191":0.029392465815951074,"192":0.21065104073793917,"193":-0.08533366956556919,"194":0.1347853731832763,"195":-0.29325385660159464,"196":0.10043319810402893,"197":-0.018578482692757463,"198":0.06750004417847315,"199":0.08656366048928442,"200":0.05145630274428557,"201":-0.06110375850899972,"202":0.1274856220222444,"203":0.07451447871259033,"204":-0.3653670899805873,"205":-0.23128500886984482,"206":-0.2572258776889827,"207":-0.15220333572810427,"208":0.07034164210047844,"209":-0.011798784000758756,"210":0.09838945360908219,"211":-0.17816445936479314,"212":0.13400159271296222,"213":-0.11067910415375219,"214":0.04342766780420494,"215":-0.014937281389117298,"216":-0.07001962657036283,"217":-0.20172652595961885,"218":0.150451687295816,"219":0.11834490582641012,"220":-0.24168560459471142,"221":-0.09313067765249744,"222":-0.4268175392635412,"223":-0.20658918793570807,"224":-0.045945243868530355,"225":-0.06825716828479406,"226":-0.20483416673077967,"227":-0.2534746709540165,"228":0.1665744025583296,"229":0.157952502297612,"230":-0.06288773943616921,"231":0.03007678943338991,"232":-0.024137347247518776,"233":-0.11660827799202625,"234":0.1396220064194658,"235":0.08468003937357184,"236":-0.18828159174541892,"237":-0.22825727318554875,"238":-0.1751055257979187,"239":-0.11903980225895407,"240":-0.0391251652846637,"241":-0.05257639592053813,"242":0.03738416751455878,"243":0.10107752535184614,"244":-0.1855834777140728,"245":-0.0504543602316793,"246":-0.2751750210183916,"247":-0.10788401221987996,"248":-0.15191588330238295,"249":0.049117120438034255,"250":0.10409688025093214,"251":-0.06214222551313332,"252":-0.0749211612357915,"253":-0.014158662872816077,"254":-0.08277305090992645,"255":0.11392033374273935,"256":-0.1814721905617592,"257":-0.0834289122738668,"258":0.22061877331156132,"259":0.13987671506878274,"260":-0.21339267661303007,"261":-0.08689499418071209,"262":-0.16011450027835988,"263":-0.24738482369953707,"264":-0.12986037054563165,"265":0.10154865875651478,"266":-0.18063801206972419,"267":-0.02337488521070651,"268":-0.11637002814036236,"269":0.026131153947707184,"270":-0.12545348479107102,"271":0.1254890558453729,"272":-0.10465664062136035,"273":0.0473611771199342,"274":0.1105561723202478,"275":0.16977955463284716,"276":-0.1504441094633773,"277":-0.23081762264360253,"278":-0.14064951223634106,"279":-0.24212404612983474,"280":-0.19274825857329336,"281":0.09945065973759086,"282":-0.1030136720085575,"283":0.04698029384216567,"284":-0.07760196728214121,"285":0.03766597625733098,"286":-0.15792496166656006,"287":0.004109339103113787,"288":-0.07013368152555059,"289":-0.223274767150355,"290":-0.10129330239046722,"291":-0.01745927393445854,"292":-0.02723756117549105,"293":-0.09635206750315131,"294":-0.1655595815525742,"295":-0.12830060204675484,"296":-0.20167392713838725,"297":0.2502971756978934,"298":-0.027789304660128807,"299":-0.08923571915428198,"300":-0.017871527095475025,"301":0.009835104681683231,"302":-0.3956840302143911,"303":-0.13295126624248743,"304":-0.12645598841912117,"305":-0.10821587368698987,"306":-0.1574845090151025,"307":-0.05205036495334311,"308":-0.04169886504409745,"309":-0.014652874758419386,"310":-0.16206805738279936,"311":-0.09210690247799758,"312":-0.012867091746028299,"313":0.09989307083494979,"314":-0.060742217619233284,"315":-0.09949531552923313,"316":0.07114401224740688,"317":-0.04695135001199511,"318":-0.18940203599551284,"319":-0.16560965340774464,"320":0.13324387921744188,"321":-0.1539725269132251,"322":-0.0071571524871171235,"323":0.1316933590676089,"324":0.00886617400561984,"325":0.10804014299256562,"326":-0.0219973104679523,"327":-0.08548725767023692,"328":0.14736781529662477,"329":-0.0773350008398312,"330":0.15309382901106197,"331":-0.014591241749982865,"332":-0.0008234395569571149,"333":0.12435281587896656,"334":-0.10849528441557266,"335":-0.08090423493017694,"336":0.06944384032043881,"337":-0.10103249370726931,"338":0.024248692607747948,"339":0.21756694729066042,"340":0.019059146332516666,"341":-0.0599230358807046,"342":0.15032314341155997,"343":-0.03499641977744125,"344":-0.013879835964380732,"345":0.07075693697792802,"346":-0.07343568325631775,"347":-0.1947669969555993,"348":0.08397108749601717,"349":0.15317697217807452,"350":-0.04641655547022394,"351":0.03340561427666546,"352":0.09027439146077011,"353":-0.08022903551536391,"354":0.06188460465046882,"355":0.27685195647446886,"356":-0.28899016844052605,"357":-0.20445101406594232,"358":0.06722061545085176,"359":-0.031046336043950004,"360":0.1371536612521562,"361":0.3123154529749942,"362":0.02775051431948544,"363":-0.14394429387468202,"364":0.17918683502040123,"365":0.2972401628829961,"366":-0.09872632350979693,"367":-0.09006715808096381,"368":0.06377425639478722,"369":-0.04428154072535528,"370":-0.06548702465128198,"371":0.28977566488972983,"372":-0.25932810244247634,"373":-0.22722591248792273,"374":-0.1118244356132041,"375":0.03769354023370075,"376":0.11274817979243018,"377":0.21199443808983834,"378":0.14149170766242733,"379":0.014895000557053452,"380":0.18969212612218567,"381":0.30242867615485636,"382":-0.055537056018700064,"383":-0.1303468443111714,"384":0.10292191418608813,"385":0.017569000649825858,"386":-0.11272382098798589,"387":0.17220874063927732,"388":0.01657331637618985,"389":-0.07466035592361807,"390":-0.06647571666161264,"391":-0.006506510319704207,"392":0.0982674011572848,"393":0.2439445477634947,"394":0.10735603380362621,"395":-0.14232991400052578,"396":0.08409023821817513,"397":-0.040224492886323515,"398":-0.11579960080193391,"399":-0.09640726700886494}},{"sx":5,"sy":5,"depth":16,"w":{"0":0.019154220481941413,"1":-0.021570965086233653,"2":0.05194051554635558,"3":0.15479614311149467,"4":0.0926591174233409,"5":-0.09638513671188201,"6":0.1401652911571498,"7":-0.004756878391060583,"8":0.03996028035139185,"9":-0.0656336982898844,"10":-0.056097938283556845,"11":0.08445587364518602,"12":-0.03521160631562878,"13":0.17352972515219034,"14":0.053039217182489745,"15":0.22264066203978905,"16":-0.010997427224654669,"17":0.05337467245179962,"18":0.2940069161675595,"19":0.13245836684276166,"20":0.03311761321193576,"21":0.03855191734087845,"22":0.07025742217430805,"23":0.0075756725404936415,"24":0.12135588528972147,"25":-0.0350593291196634,"26":-0.0845611489498542,"27":-0.030717415890772034,"28":-0.14821850359441452,"29":0.052754042241807436,"30":0.12040564550859974,"31":0.08747457591100698,"32":-0.029962245072675493,"33":0.02546765524529477,"34":0.10408250188836052,"35":0.046708781883260955,"36":-0.0073230664208614816,"37":0.059757320960755964,"38":0.026651962101323937,"39":-0.0380598583236975,"40":-0.014488983944537095,"41":-0.008786300354105036,"42":-0.09129946629099198,"43":0.02500024183554401,"44":-0.11140839139987158,"45":0.11327956691857612,"46":0.01925657589605291,"47":-0.02271829846322727,"48":-0.09277810337421846,"49":0.032591632564000765,"50":0.029256931636866598,"51":-0.08534955732759616,"52":-0.059645337996385224,"53":-0.01578247342438892,"54":0.038837656584422224,"55":-0.05911227432805299,"56":0.08561176744214453,"57":-0.1360387504845321,"58":-0.1461478608975698,"59":-0.024959337038440173,"60":-0.10414001428369797,"61":-0.06453536442210263,"62":0.00007102157948958647,"63":-0.13091304576647272,"64":-0.01579313904990613,"65":0.011928209663656146,"66":0.06192392140535722,"67":-0.03574716293951483,"68":0.013784411700934023,"69":0.034659043676983955,"70":0.07031373319713818,"71":0.07657338030746076,"72":0.1025697626724765,"73":-0.15569738488081375,"74":-0.1010200483483259,"75":0.19403339549504034,"76":-0.12012399380324154,"77":0.00633339669073372,"78":-0.1140515541454048,"79":0.000956729197746816,"80":0.001487454695159482,"81":0.12344679026265586,"82":0.04353154490518464,"83":-0.01743861742680196,"84":-0.06001994824599585,"85":-0.08493468927405938,"86":0.13720943972504196,"87":0.1337479267352238,"88":0.2194460684177213,"89":-0.23935176366587735,"90":-0.2119468230405031,"91":0.06159880208294029,"92":0.20716699973806124,"93":0.06652285830074389,"94":0.18406472218688086,"95":0.2232909887630463,"96":-0.08890055090545317,"97":-0.08290071691401174,"98":-0.0005004929737092564,"99":-0.13084428715210833,"100":0.002659613776046263,"101":0.1000539611569309,"102":0.03551111606251933,"103":0.008879125752956728,"104":0.09989402637837144,"105":-0.2534836567912055,"106":-0.1349094345674952,"107":-0.07637605556326044,"108":-0.0643307198968516,"109":0.028945567835516613,"110":0.12128980400996758,"111":0.17340335449212818,"112":-0.10442749365037629,"113":0.059753416685306086,"114":-0.026817817789188708,"115":-0.030982402789256024,"116":0.047108211370647225,"117":0.22101005668774296,"118":-0.09978484443545503,"119":-0.04633195955896645,"120":0.15633190610452152,"121":-0.23088840197147137,"122":-0.13009162004097932,"123":-0.058965260071331585,"124":-0.09949307672464697,"125":0.046523359221995776,"126":0.09112143189869251,"127":0.06744379769650341,"128":-0.044161261772828184,"129":0.042758458248703626,"130":-0.10086908101443567,"131":-0.08485322973119827,"132":-0.24168825564671198,"133":0.04121814790614928,"134":-0.030589382962294544,"135":-0.08766665310217119,"136":0.14813791346348898,"137":-0.13411859247497565,"138":-0.21303388684456803,"139":-0.12028976021059731,"140":-0.11579987495115425,"141":0.10907535885502116,"142":-0.002764652529677184,"143":-0.138978976024229,"144":-0.3093394393720165,"145":0.2535212769444542,"146":0.030219156059071498,"147":-0.21647212660258425,"148":-0.17060406380986196,"149":0.10863848688925447,