{"layers":[{"out_depth":1,"out_sx":24,"out_sy":24,"layer_type":"input"},{"sx":5,"sy":5,"stride":1,"in_depth":1,"out_depth":8,"out_sx":24,"out_sy":24,"layer_type":"conv","l1_decay_mul":0,"l2_decay_mul":1,"pad":2,"filters":[{"sx":5,"sy":5,"depth":1,"w":{"0":-0.5682123858670955,"1":-0.4468399576844386,"2":-0.42609746152305616,"3":-0.025910722853264963,"4":0.1225825528992823,"5":-0.21981383898391066,"6":0.37341697590523537,"7":0.22646350701577728,"8":0.3032792936287773,"9":0.0297728522776628,"10":0.06147757450119993,"11":0.4554165470574766,"12":0.6408852096899043,"13":0.0625599270889136,"14":-0.3188380809572098,"15":0.3798628736143528,"16":-0.1883214392528031,"17":-0.541936328075441,"18":0.20956141133364825,"19":-0.46890318933694286,"20":-0.16182032563504323,"21":0.06035689789346769,"22":0.19884082202036055,"23":-0.14196377797191945,"24":0.09265836109369402}},{"sx":5,"sy":5,"depth":1,"w":{"0":0.41587131768067076,"1":0.2384546769299079,"2":0.24708408290241193,"3":0.42190045762503064,"4":0.1611970325442058,"5":0.2131463589894333,"6":0.2688699883896681,"7":0.12757589693488416,"8":0.4213958490504178,"9":0.24701832085936992,"10":0.07412332810800465,"11":0.03826511397974277,"12":-0.06229683573344275,"13":0.12431035241004698,"14":0.4139434492381229,"15":-0.45077552115191405,"16":-0.6483018651688154,"17":-0.4737136601604795,"18":-0.393226594198403,"19":0.1651003801345945,"20":-0.6010677449816023,"21":-0.18626962273808403,"22":-0.4741314131046818,"23":-0.3951583983602797,"24":-0.14879738317659189}},{"sx":5,"sy":5,"depth":1,"w":{"0":0.3063085608757335,"1":-0.04212233282288577,"2":0.07766266792975861,"3":-0.046194494962304905,"4":0.2278441791645894,"5":-0.049674065880851465,"6":0.12072438471276505,"7":0.07233677224687403,"8":-0.10291468420606463,"9":-0.21096377367697589,"10":-0.22461965032407613,"11":0.07791426194181028,"12":0.39374534647905785,"13":0.16463138701647997,"14":-0.418522401870451,"15":0.27257506898821743,"16":-0.05984472846325219,"17":0.24813049978807503,"18":0.38858486528206665,"19":0.1657558471012139,"20":-0.06993672391227741,"21":-0.2919695542188204,"22":-0.16254436798382232,"23":0.09690320716899063,"24":0.08855013950937834}},{"sx":5,"sy":5,"depth":1,"w":{"0":-0.3721196082777928,"1":-0.2263413325333049,"2":0.10813531791954477,"3":0.6039104712639037,"4":0.2449536134759734,"5":0.3710593716346081,"6":0.3354640361874408,"7":0.02830358981546948,"8":-0.03959646554878773,"9":-0.09427946205703229,"10":-0.4025886673359008,"11":0.13922041949705516,"12":0.05961434956349583,"13":0.13691663561150033,"14":-0.4275593799239219,"15":-0.5480268616876907,"16":-0.4803771706301033,"17":-0.20872350672782156,"18":-0.5669839631828727,"19":0.04111972204837061,"20":-0.13669974442722593,"21":-0.4327814649306266,"22":-0.3988619163567146,"23":-0.00867754939072283,"24":-0.03784928193441268}},{"sx":5,"sy":5,"depth":1,"w":{"0":-0.20788459569218157,"1":-0.08819053920479945,"2":-0.5086484836833945,"3":-0.14816244330079562,"4":0.0062840955599529945,"5":-0.6700943065676895,"6":-0.8686010451362071,"7":-0.1040389262692909,"8":-0.12185224983253187,"9":0.5662937984366897,"10":-0.4668455587888143,"11":-0.33853861703472277,"12":-0.42674518817315404,"13":0.3777521772317021,"14":0.5337024993947709,"15":-0.5804155068017275,"16":-0.2707907589972692,"17":-0.003293302717363087,"18":0.3779587179161134,"19":0.20765546505259258,"20":-0.1496799574557026,"21":-0.20778501512452652,"22":0.14538559818923977,"23":0.6549405516985219,"24":0.3504343259428679}},{"sx":5,"sy":5,"depth":1,"w":{"0":0.2052748160651158,"1":0.12832867520702668,"2":0.26547135495527235,"3":0.3955332025680822,"4":-0.0018590930840327391,"5":-0.22116441221813712,"6":-0.21469175562166085,"7":-0.09280494798090876,"8":0.35237109296274505,"9":0.04688261896315421,"10":-0.462809634494391,"11":-0.4827769931790523,"12":0.20551908727216947,"13":0.29197432238074644,"14":-0.051912217375856974,"15":-0.14149867596797921,"16":-0.1529404830202978,"17":-0.23617249435538049,"18":0.3305062896317901,"19":-0.08970216925869076,"20":0.37510104735668254,"21":-0.07432894077288917,"22":0.004490890744187011,"23":0.3110244477660302,"24":-0.17594877819056975}},{"sx":5,"sy":5,"depth":1,"w":{"0":-0.08867533006957991,"1":-0.25086480213453366,"2":-0.36937035674063823,"3":-0.3951236777227985,"4":-0.4750852498708562,"5":0.00045253435242351885,"6":-0.24703440633513896,"7":-0.4272357914542619,"8":-0.31880951363072807,"9":-0.4367490333072683,"10":0.22162826920246453,"11":-0.3020101135100976,"12":0.21397295474846043,"13":-0.2745845555331146,"14":-0.023166993308834413,"15":0.27407606057525186,"16":0.06498444133867388,"17":0.40673425671276,"18":0.2646468725848399,"19":0.590727157165494,"20":0.48834562455572433,"21":0.1913539029170926,"22":0.29508325820337766,"23":0.37053291640163655,"24":0.20746333500939274}},{"sx":5,"sy":5,"depth":1,"w":{"0":0.033058092303112366,"1":-0.011624706507405717,"2":-0.13158373778102103,"3":-0.119475634728672,"4":-0.033546661145672556,"5":0.033307678344475955,"6":0.027744784741643373,"7":0.01058324454427496,"8":-0.3788143996515297,"9":-0.3902765130998507,"10":0.4933896672110742,"11":0.1855807572079552,"12":-0.40960336905145583,"13":-0.9225449190691167,"14":-0.524018481301901,"15":0.2627576655272794,"16":0.5523503102954699,"17":0.2543772520569115,"18":-0.29565916024986527,"19":-0.3816122926301367,"20":0.32708277421565457,"21":0.2637834957885326,"22":0.4779000068499095,"23":0.4543293034978102,"24":0.33282715551996817}}],"biases":{"sx":1,"sy":1,"depth":8,"w":{"0":-0.12327759319576842,"1":0.0019645854166586117,"2":-0.31091985776239445,"3":0.1837345026127227,"4":-0.011789637605564196,"5":-0.17807174089893676,"6":0.05085077109046671,"7":-0.1216118444831019}}},{"out_depth":8,"out_sx":24,"out_sy":24,"layer_type":"relu"},{"sx":2,"sy":2,"stride":2,"in_depth":8,"out_depth":8,"out_sx":12,"out_sy":12,"layer_type":"pool","pad":0},{"sx":5,"sy":5,"stride":1,"in_depth":8,"out_depth":16,"out_sx":12,"out_sy":12,"layer_type":"conv","l1_decay_mul":0,"l2_decay_mul":1,"pad":2,"filters":[{"sx":5,"sy":5,"depth":8,"w":{"0":0.04787987512835823,"1":-0.2035315564532832,"2":-0.026744089350081345,"3":0.019818854461775108,"4":-0.010521962176438655,"5":-0.14059934599251536,"6":0.10239142062402104,"7":-0.12743071751784013,"8":-0.03416341164970655,"9":-0.09294388010568438,"10":-0.05872320787210551,"11":0.08617153708102768,"12":-0.06842972534465436,"13":-0.10120495441154771,"14":0.1370414153505027,"15":-0.06933773635460345,"16":0.04166907843208035,"17":0.04171688203937827,"18":0.08315164104217213,"19":-0.021513068809501407,"20":-0.1013692669512854,"21":-0.22750293554131215,"22":0.17186752873053765,"23":-0.031166118382700298,"24":-0.005661324968347813,"25":-0.029570390162870833,"26":0.21342440207463562,"27":-0.2224906624486187,"28":-0.2028669709332286,"29":-0.005693135292704149,"30":0.2056985238735615,"31":0.08859928006843132,"32":-0.1672970379877598,"33":-0.15409592963416202,"34":0.034035692125463854,"35":-0.04331470232540415,"36":-0.10914046904906234,"37":-0.14771826490136922,"38":0.12413440395088886,"39":0.2417171945086613,"40":0.007266869259689484,"41":-0.059348222626267565,"42":0.03316635354757062,"43":-0.19320139571261993,"44":0.10723095099836809,"45":-0.06402337285032676,"46":0.1962842824790493,"47":0.0321240146820612,"48":0.20289077465908775,"49":-0.0036534907515774527,"50":0.07863124416937384,"51":-0.09233818015221743,"52":-0.009901134142634672,"53":-0.09549932884517615,"54":0.10586879487144575,"55":-0.04782378381077799,"56":0.08090505286040572,"57":0.0009454556176670647,"58":0.04383639320866727,"59":-0.10293107459112001,"60":-0.09020943051513686,"61":-0.04753839442578038,"62":0.001801548795329537,"63":-0.05848598833978548,"64":0.12665964099867816,"65":-0.03257192125889358,"66":-0.007644444435402218,"67":0.0029235023787122423,"68":-0.10021858539767926,"69":0.004213017459895494,"70":-0.05966063172696191,"71":-0.06533888552532975,"72":-0.03352511011959987,"73":-0.1888258740285575,"74":0.07271530409356891,"75":-0.15652706210895062,"76":-0.15540314689787882,"77":-0.07834406297779112,"78":0.18139233411542746,"79":0.11260099648683597,"80":0.15916577837381607,"81":-0.08024396619334906,"82":-0.026866953421660778,"83":-0.0936422597497996,"84":0.027335278795079614,"85":0.013783745404576674,"86":-0.05724460608170656,"87":0.13356352533932148,"88":0.16096331266028654,"89":-0.05120252058047602,"90":0.0844109631048295,"91":-0.16946286910831823,"92":0.03992609640025325,"93":0.018001507426451267,"94":-0.06690507199201697,"95":0.04836053277356074,"96":-0.0736327674221473,"97":-0.21751903581867107,"98":0.0025562579375973385,"99":-0.20232128610398908,"100":-0.020244789440386404,"101":0.04670829852061866,"102":0.043488527547732615,"103":-0.011501270919598293,"104":0.02274701640927092,"105":-0.14262171093403395,"106":0.006895726965239029,"107":-0.11422495805550224,"108":0.04465302528982463,"109":0.19096761816119623,"110":-0.16437183683134196,"111":-0.017527887794229445,"112":-0.03574885653010328,"113":0.0035446336497498426,"114":0.13414947149714043,"115":-0.2596096061473687,"116":-0.06813609660718843,"117":0.07613579024825444,"118":-0.10586976401984383,"119":-0.11674680231133691,"120":0.009829047804708542,"121":-0.008976821589012321,"122":0.023535733119003154,"123":-0.07956722712137616,"124":0.15861643057377298,"125":0.14598107356435036,"126":-0.10971669168359706,"127":0.044253972220008334,"128":0.04261542329982274,"129":-0.14936188394629527,"130":0.09473580574949712,"131":-0.13339593306888517,"132":0.12437970268820828,"133":0.23353113912521214,"134":0.15067021244808898,"135":-0.19532499471694045,"136":0.14500871934433543,"137":0.043273042522067866,"138":0.21237301982376816,"139":-0.17717734740378324,"140":0.1614992260205999,"141":-0.04000499274357735,"142":-0.10908639502589094,"143":-0.02324878513432177,"144":0.31985265441034977,"145":0.06692017266769655,"146":0.11523788086851008,"147":-0.04255856463435073,"148":-0.06939845728688691,"149":-0.14015827917682236,"150":-0.0030330364214677594,"151":0.004258105728544162,"152":0.08926949568573848,"153":0.2245521100730985,"154":0.00922051779515484,"155":0.040578757276229296,"156":0.06521843476467598,"157":0.05846872168654343,"158":-0.029929359370664495,"159":0.0009890724285680874,"160":-0.0237024159791668,"161":-0.12633683386875422,"162":-0.013769323897745413,"163":-0.1778103010893332,"164":0.0007090497947455555,"165":0.080292533523684,"166":0.14696377523581428,"167":-0.030904927065741484,"168":0.25246380110983524,"169":0.019385784863854835,"170":0.09341161276443165,"171":-0.19738667299251056,"172":-0.19813789098878037,"173":0.02829719951670686,"174":-0.13648580418886821,"175":-0.11028654883756053,"176":0.2588668855295106,"177":-0.04177752735873192,"178":0.08483922102478446,"179":0.062015129962631074,"180":-0.05749386824525799,"181":-0.21961919760494825,"182":-0.1510827908459217,"183":-0.025791430026439844,"184":0.06944429762458408,"185":-0.21421794443896153,"186":-0.04718878351039373,"187":-0.018178546318423586,"188":-0.22953436648539807,"189":-0.3213536384975395,"190":0.055620544412458554,"191":0.019454670007751477,"192":0.010718068984850816,"193":-0.0814419801165488,"194":-0.19144160232727608,"195":-0.007563887083653101,"196":0.027723630541028502,"197":0.0009885573189788016,"198":0.19341687862391085,"199":-0.07763982885163692}},{"sx":5,"sy":5,"depth":8,"w":{"0":-0.014941271570664076,"1":-0.26014246856449796,"2":-0.09739015101617349,"3":-0.20845602345472528,"4":-0.02613775418931167,"5":-0.17875404285289784,"6":0.185397039641298,"7":0.10296560381504569,"8":0.0675692276951949,"9":-0.24071701135373133,"10":0.1271718629196696,"11":-0.17500748527391732,"12":-0.09404825341264847,"13":-0.24995273714753527,"14":0.15477121392946147,"15":0.1601660237652407,"16":0.0980849620455133,"17":-0.2097746693243132,"18":-0.03500034940621921,"19":-0.11604338246915867,"20":0.01669374296266356,"21":-0.26842172663413016,"22":0.16618395153642632,"23":-0.017567443840540323,"24":-0.0563681311875549,"25":-0.05414408979896396,"26":0.02351750501829487,"27":-0.09151816325465702,"28":-0.05409793741849254,"29":-0.18430855759905723,"30":0.19885058379506212,"31":0.07460929298561775,"32":-0.06659569616855732,"33":-0.18190225115274614,"34":-0.09562940881407757,"35":-0.18342636681087834,"36":0.09905161432689752,"37":-0.18891618597476798,"38":0.09704482457384726,"39":-0.006034300456654517,"40":0.00546066534243721,"41":-0.228343613866948,"42":0.14212021761906338,"43":-0.2046451039826056,"44":-0.045913288963775986,"45":0.045960931691498924,"46":-0.1279368284757987,"47":-0.16043645238252338,"48":0.07392585690535183,"49":-0.09964048575776756,"50":-0.028167297278461418,"51":-0.2448491954321666,"52":0.009126640325812093,"53":0.020200313208435933,"54":-0.13530999509090944,"55":-0.06899127028308825,"56":0.15680938722247392,"57":-0.273631253969428,"58":0.01661340008733337,"59":-0.2726082487359976,"60":0.08097753385698682,"61":0.1298473580707549,"62":0.08856921357235507,"63":0.0026749586861100232,"64":0.02025664658943817,"65":-0.3832658329537469,"66":-0.00034464701837591045,"67":-0.26071167678263,"68":-0.06652618956482928,"69":-0.18374952675349954,"70":0.1817981150757564,"71":0.25428638181207464,"72":0.022464340426677935,"73":-0.2324339406038914,"74":-0.0665624184780597,"75":-0.15168148243129417,"76":0.11192172110273378,"77":0.06507864350218813,"78":-0.10460511105020995,"79":0.13870135785352203,"80":0.05264564727790427,"81":-0.27135681299339653,"82":-0.011326940408807544,"83":-0.2282844493355694,"84":0.05852333140257905,"85":-0.12728888764990848,"86":-0.1730523296262957,"87":-0.10885774209928664,"88":0.09355297408534553,"89":-0.14493794463389378,"90":0.0002501846450970918,"91":-0.2067445851447625,"92":0.0068723269508077,"93":0.11163979706641569,"94":-0.24878086385084175,"95":-0.23635699006904856,"96":0.15932341275239018,"97":-0.2881790253526632,"98":0.1756627321713082,"99":-0.16777646436393115,"100":-0.018303206452737628,"101":0.1251748886820448,"102":-0.24563565231260748,"103":0.06764684345380492,"104":-0.02791067021475551,"105":-0.024883307230706215,"106":0.2285579724815433,"107":-0.20982265329795535,"108":-0.09179773044548467,"109":-0.13066180371112948,"110":0.05370784684966268,"111":0.018827947423663994,"112":-0.06140480862780373,"113":-0.06732844312758993,"114":0.15128677846859048,"115":-0.287632153884864,"116":0.09105385214393014,"117":0.12537352219077813,"118":0.03460388822228833,"119":0.0062102148402722575,"120":0.10711683351309793,"121":-0.2668617376451109,"122":0.22486412653921417,"123":-0.04077901984559149,"124":-0.06383961399237024,"125":0.006087927035849528,"126":0.08296273622936665,"127":0.0505334457265136,"128":-0.0566164350012776,"129":0.07117381792649984,"130":0.14345384581372078,"131":-0.08913714932373863,"132":-0.05572058522580229,"133":0.07630174411905305,"134":-0.11876621971019598,"135":0.03598352808526418,"136":-0.12888234460956002,"137":-0.10336856606101286,"138":0.14270979478386656,"139":0.008255025516707192,"140":-0.11994989730422735,"141":-0.10607449847466925,"142":0.00503269865155657,"143":0.11263682450454272,"144":-0.09457615878863683,"145":-0.18818156793886398,"146":0.043200894859012615,"147":-0.19028028013213788,"148":-0.14966864559449114,"149":-0.09838182887531452,"150":0.1282285298970362,"151":-0.02036673970713007,"152":0.052103785786577324,"153":0.0504384180044048,"154":-0.030945446059403837,"155":-0.13792730007586032,"156":-0.0505881202764511,"157":-0.06323134477018982,"158":0.18285057872650143,"159":0.02736207522728039,"160":0.10908596486160549,"161":0.3188238225010688,"162":0.3506714474029418,"163":-0.07997655703500997,"164":-0.2638020709433064,"165":0.0041373429220237425,"166":-0.16709179234716884,"167":0.005703177447514212,"168":0.0086183368507557,"169":0.26666786487782096,"170":0.22547262594643425,"171":-0.016938668305215267,"172":-0.11072551007796573,"173":0.013962152247632545,"174":-0.1918786570152908,"175":-0.06680880669185485,"176":-0.005304606484069227,"177":0.2399920731724156,"178":0.21482109113508696,"179":-0.03179882506970604,"180":-0.20053389352386805,"181":-0.013507311580793489,"182":-0.06790873656578073,"183":-0.13035969790121596,"184":0.09345609601218147,"185":0.16075873984664374,"186":0.04680588694425696,"187":0.12128970904857121,"188":-0.20324544481023954,"189":0.07040053563143048,"190":0.01970269691318206,"191":-0.1623299396978757,"192":0.20950570024717374,"193":0.09309880332965188,"194":-0.017228653080365086,"195":0.1779342336144304,"196":-0.4210045480074563,"197":-0.0311147398050789,"198":-0.2407845250566417,"199":-0.1987767103044115}},{"sx":5,"sy":5,"depth":8,"w":{"0":0.09295130327828632,"1":0.09213665931379944,"2":-0.1193795638816129,"3":-0.012718707187688725,"4":-0.10020979367591724,"5":-0.03582764566357625,"6":-0.09000708233695832,"7":-0.1901254987766331,"8":0.11008738640002902,"9":-0.10628577164927216,"10":-0.10617245792515402,"11":-0.034361799972350546,"12":0.09481796341052662,"13":-0.13032246921800464,"14":0.06101883835319403,"15":-0.2715309957196124,"16":0.05633729766296192,"17":0.054049636950597536,"18":0.014569617229288614,"19":-0.13163017899772092,"20":0.09077926874465081,"21":-0.009121480297045598,"22":-0.0590723840466033,"23":-0.08729277513581422,"24":0.21081331820661312,"25":-0.05300996385758115,"26":0.08827288075038647,"27":-0.18191711102438546,"28":-0.025584753826828035,"29":-0.05289707855448848,"30":-0.03953043962070481,"31":-0.007004995686146927,"32":0.2676475201095322,"33":0.025746607771088205,"34":0.1425592695002545,"35":-0.1792662005097382,"36":-0.15724486749413275,"37":-0.031761482199306884,"38":-0.011864612820157903,"39":0.08625795774860821,"40":0.07202360108087234,"41":0.06782330342731085,"42":0.019738117175815303,"43":-0.02893169200519655,"44":0.10827983297273006,"45":-0.1181820908462279,"46":-0.1770359464126624,"47":-0.07404579747300559,"48":0.05140871722577269,"49":-0.29026234898970094,"50":0.06815198254614292,"51":-0.13935609182337694,"52":0.06824545568054173,"53":0.011501333235787092,"54":-0.06750017177976231,"55":-0.2501845298669833,"56":0.10673532107412913,"57":-0.3347569155838874,"58":-0.05925014848403017,"59":-0.24891727446483536,"60":0.10688132351155419,"61":0.07915706678958706,"62":-0.14632160829102944,"63":-0.07386266435126623,"64":0.22951874238490025,"65":-0.09621072851267116,"66":0.11667790784640558,"67":-0.13046710893961838,"68":-0.20982210811942198,"69":0.003582983129167423,"70":0.005760709238147292,"71":-0.16453644597772754,"72":0.1713144711203614,"73":0.03489734071312054,"74":0.2209941426300335,"75":-0.07069111011776144,"76":-0.34442470891154287,"77":-0.0433099365298139,"78":-0.14445287430899714,"79":-0.12457604042404734,"80":0.0013944939455459572,"81":0.17190831766304146,"82":-0.05104347413612497,"83":0.14784063751555088,"84":-0.03774539154066061,"85":0.008028574209739925,"86":-0.33241212051908253,"87":-0.17481206666053722,"88":-0.04123801814739837,"89":0.22229029258323454,"90":0.2240770524965623,"91":-0.06848912431605862,"92":0.12859203680917194,"93":0.13091689875186632,"94":-0.1033895690640299,"95":-0.019895060939215482,"96":0.10474459514484208,"97":-0.36129203125620385,"98":0.2220582822230583,"99":-0.083912220585942,"100":0.07614522352079965,"101":-0.049449415722746914,"102":-0.0044896882654261,"103":0.46858811316421234,"104":0.10754526140642963,"105":-0.4211333144611463,"106":0.021277432018663264,"107":-0.27856480209177975,"108":-0.3346492295087546,"109":-0.07588312182861937,"110":0.11992282468032606,"111":0.303088893512206,"112":-0.06942072468344175,"113":0.02382336037362672,"114":-0.11985463052773043,"115":-0.08228871928345731,"116":-0.04539896522138272,"117":0.17117473677078987,"118":-0.17796397803150646,"119":0.05247942532926861,"120":-0.11048460482129761,"121":0.062469378857935784,"122":-0.29141533476953596,"123":0.04980302556675245,"124":-0.1468376303331044,"125":0.005908084521733215,"126":-0.2249784976790801,"127":-0.11743651207471875,"128":-0.24978268658912792,"129":0.35259740242556653,"130":0.036917386149327325,"131":0.005302931515214665,"132":0.06475814612258643,"133":0.12137763009921064,"134":-0.37230270317531916,"135":-0.274465926480286,"136":-0.07820797023075907,"137":0.17653600456840088,"138":0.33454290538205855,"139":-0.07011842815894491,"140":0.16378967586657536,"141":0.4361668289850845,"142":-0.13025616679111976,"143":0.21882975381284347,"144":0.14223940257640227,"145":-0.235726273214911,"146":0.3074862782741174,"147":0.042190750752057596,"148":-0.3552973358503763,"149":-0.108370745265064,"150":0.13963191442224362,"151":0.3630385399745298,"152":0.004929716025380563,"153":-0.08864904004775738,"154":-0.019068455649559078,"155":0.21471230527105015,"156":-0.2274224398832096,"157":-0.019306252988667182,"158":0.14098495961357202,"159":0.21317832340309317,"160":-0.05142108216487255,"161":-0.09304179718349283,"162":-0.20249224288815995,"163":0.1482262123657488,"164":-0.25631061741208233,"165":-0.05908001186067158,"166":-0.05945513570066464,"167":-0.20068121411067488,"168":-0.28001387288984564,"169":0.0727990884262292,"170":-0.17211716833372764,"171":0.010709294723473184,"172":-0.011410439175436363,"173":-0.0015940234999235416,"174":-0.24346590213552172,"175":-0.2442754654533924,"176":-0.014136896879950818,"177":0.23477233166429226,"178":0.1638437363650398,"179":0.1311543196329127,"180":0.260142599674632,"181":0.4311243074360743,"182":-0.15463320482038118,"183":-0.24834604161596274,"184":-0.08875828714696214,"185":-0.2057348021217281,"186":0.24488947914249612,"187":-0.19130094172835638,"188":-0.00010810741920116041,"189":0.3237397943053018,"190":0.04229333986505313,"191":0.12712198231506774,"192":-0.05104209676213562,"193":-0.14162650395966273,"194":0.05147240922154885,"195":-0.21860480281525418,"196":-0.3348566649341436,"197":-0.17913399575180528,"198":0.06796667711192078,"199":0.06111209112573426}},{"sx":5,"sy":5,"depth":8,"w":{"0":0.029603133746353275,"1":0.09562012353971003,"2":0.0074402086868590135,"3":-0.20128678851002574,"4":0.08064800066397182,"5":-0.020853084913309835,"6":0.025044932501018947,"7":0.11803730514285617,"8":0.02626174290777076,"9":0.1370889587632194,"10":0.05475475725977097,"11":-0.2593999668400964,"12":-0.07005586088920494,"13":0.0942730036773507,"14":0.0764110153114064,"15":-0.012103891747087512,"16":-0.006899656499045405,"17":0.30361963391417734,"18":0.06895977693086716,"19":-0.079502217113628,"20":-0.10119446445227492,"21":0.029959187631187253,"22":0.11944066757333269,"23":0.09807914200958902,"24":-0.020261736704753234,"25":0.08084561364737525,"26":0.06297806081976107,"27":-0.17903320402206466,"28":-0.19730324147403738,"29":-0.06272815768400547,"30":-0.02017348180171924,"31":0.030933793164557195,"32":-0.06640761257083216,"33":-0.0028883133056347623,"34":0.12191488023861566,"35":-0.24717492959062937,"36":-0.09020746251047419,"37":0.036357046120155986,"38":0.09639556662188739,"39":0.13562282404058973,"40":-0.003981558963988778,"41":-0.017233060032089166,"42":-0.03322460313377393,"43":-0.12478705276891677,"44":0.13670397147718416,"45":0.15407256575620693,"46":0.060503751811309396,"47":0.004085983657258545,"48":-0.03353216743661165,"49":0.04497229474142262,"50":-0.061499592532276326,"51":-0.28733604004652136,"52":-0.06797384513835676,"53":0.21984256416452605,"54":-0.16283019322995113,"55":0.0015759171707633412,"56":0.04390315057083053,"57":0.04984555025116925,"58":-0.056617676142053916,"59":-0.17312199917574855,"60":-0.16861414985939557,"61":0.014457178414952084,"62":-0.2071643659492053,"63":-0.12480226857559455,"64":0.05535298427133637,"65":0.09831757731255127,"66":-0.037351827355993614,"67":-0.12479364599216317,"68":-0.13945182035789333,"69":0.1665320665487258,"70":-0.4767683909435024,"71":-0.4630203846003999,"72":-0.05644330688276497,"73":0.08402461199989608,"74":0.041819624609144616,"75":-0.17396954129813522,"76":0.15624188402244651,"77":0.05946400996846124,"78":-0.28786580849446236,"79":-0.15069240819670396,"80":0.20106619003461476,"81":0.011971096065045895,"82":0.0969589812766905,"83":-0.11810628052688246,"84":-0.023899434308525806,"85":0.09213464566359553,"86":0.10455595028840509,"87":-0.0796219381263537,"88":-0.023565541826121958,"89":-0.1296062908662693,"90":-0.09369923991999629,"91":0.020581275858123364,"92":-0.27955028304129104,"93":0.008092403445516696,"94":-0.3409974723975053,"95":-0.0008256047735092114,"96":-0.2092938280081991,"97":0.01895797771493649,"98":-0.11546934223144419,"99":-0.10539625927101756,"100":0.19443429979976554,"101":-0.12911360121579007,"102":-0.13067158837607254,"103":-0.07685838338586666,"104":-0.09970208266140691,"105":-0.021090711349071707,"106":0.22008249275616415,"107":-0.12803160539981806,"108":0.19101677083951096,"109":0.1659721727909205,"110":-0.2166926274749648,"111":-0.20221038957304274,"112":0.12980783895105721,"113":0.01968344014025587,"114":0.08737128280740372,"115":-0.0887134527668275,"116":0.2028795261170414,"117":0.057544223628718916,"118":-0.3685276338939059,"119":-0.18132121085265507,"120":0.18163779188626353,"121":-0.0040685269769043676,"122":0.10814309037748525,"123":0.12316216114390892,"124":0.05516003585791433,"125":-0.02107369265167757,"126":0.05120858008523933,"127":0.02912878953919871,"128":-0.07117211028636719,"129":0.040426483705831615,"130":-0.042820310368803544,"131":-0.01861279964821445,"132":-0.0366405716545274,"133":-0.22575808652513407,"134":-0.13622565112410012,"135":-0.0866656665889964,"136":-0.08254622430692984,"137":0.0061673025590660785,"138":-0.07935194902139474,"139":-0.1921438601235816,"140":0.35363473119242567,"141":-0.04938253964879873,"142":-0.15912576338967738,"143":-0.17194923534662934,"144":0.1977756474480743,"145":-0.15310967177463589,"146":0.028616831885806836,"147":-0.26710848783449637,"148":0.2983991367504948,"149":0.17980543042207967,"150":-0.3075065428789244,"151":-0.15793501592371512,"152":0.06285651589212685,"153":-0.046097010906121116,"154":-0.05412274695102263,"155":-0.12452188973682253,"156":0.055961499471733435,"157":0.05189867115355967,"158":-0.43727615596075475,"159":0.23959662789164685,"160":-0.03384156892701613,"161":0.007388279429842545,"162":-0.04701640779535073,"163":0.08847499966066359,"164":0.0343418234043895,"165":0.030416524067948494,"166":0.011330782456780417,"167":0.18924613264156553,"168":-0.04698967258043845,"169":-0.04221793955603223,"170":0.016057030532337504,"171":-0.11096756422238079,"172":0.23784666321640321,"173":-0.0002457085211978795,"174":0.018337709471007158,"175":-0.005914280949317258,"176":0.020147931952198134,"177":-0.24058752409934084,"178":0.13352975948480855,"179":-0.13398001613515323,"180":0.23306757156425895,"181":0.0403233543339029,"182":-0.11631723911845486,"183":0.09751363639107609,"184":0.16214166213393597,"185":-0.07048189604194219,"186":-0.0017055048458258569,"187":-0.2995253116087621,"188":0.10021099469258697,"189":0.03126764621643485,"190":-0.23275362243794206,"191":0.1438740785101963,"192":-0.12098460100715598,"193":-0.19372277701440865,"194":0.046185001297123905,"195":-0.2981977077900011,"196":0.17560060320706652,"197":0.17221327822151286,"198":-0.12312815434531865,"199":0.21060275408158458}},{"sx":5,"sy":5,"depth":8,"w":{"0":-0.18016616735278984,"1":-0.296859535817266,"2":-0.18382303913589904,"3":0.30153239055104675,"4":0.3415585276113871,"5":0.04517147138740886,"6":0.10898712360560457,"7":-0.23054402191781687,"8":0.09471238777997654,"9":-0.38207713720299563,"10":-0.01825946363811716,"11":-0.08824041565623386,"12":0.2301665701251544,"13":-0.11706346415337014,"14":0.15154491879534313,"15":-0.08574897068940585,"16":0.13958836491413434,"17":-0.10240131826934314,"18":-0.015184027575219076,"19":-0.20338494305916086,"20":0.2581428236082599,"21":0.03390509630921983,"22":0.017548278093673493,"23":0.08241114798529586,"24":0.02827700527681757,"25":-0.1078975965750067,"26":0.08216370638841931,"27":-0.037947079686140354,"28":0.053228475308736305,"29":0.015425626150445354,"30":-0.15294853012899687,"31":0.036024186190704126,"32":0.0809154886403813,"33":-0.016368395525374606,"34":0.05213157288221909,"35":0.004690975955872519,"36":0.20793851006962105,"37":0.02992870641424001,"38":-0.2797664964902054,"39":-0.10503141728744683,"40":0.012664109204771734,"41":-0.1064246845665404,"42":-0.15731455281225268,"43":0.19609658393241677,"44":0.32718719874018865,"45":0.15485493349498347,"46":0.016624927656755047,"47":-0.4327030484747798,"48":0.3682838285995924,"49":-0.3145130981727026,"50":0.07564878666015444,"51":0.001202502970197348,"52":0.26618623973805605,"53":0.10617517806484443,"54":-0.06692272497075144,"55":-0.08037261888034172,"56":0.10253385787165913,"57":-0.11334062101060287,"58":-0.059221485829404064,"59":-0.16440394697261412,"60":-0.03773181430661229,"61":-0.061251345047632376,"62":-0.11784202954855737,"63":0.07097372251908322,"64":-0.055929860727447454,"65":0.08571923683988704,"66":-0.12227565266917677,"67":-0.14573839572314762,"68":0.04065679913941906,"69":-0.2375393837947834,"70":-0.2789755855179108,"71":-0.03825179205884202,"72":-0.021937461573590174,"73":0.1769056614950738,"74":0.009046644817217845,"75":-0.048623361177547585,"76":0.12418930224520858,"77":-0.0415645631296316,"78":-0.038399122672828946,"79":-0.11381517321463183,"80":0.16969335932776944,"81":-0.18767715815116393,"82":-0.0245556079297219,"83":0.11459331275229291,"84":0.34216519689108943,"85":0.024840645803422396,"86":-0.12952993146322136,"87":-0.19355451887754366,"88":0.11702255837018054,"89":-0.15037286563048724,"90":0.056227145177424644,"91":-0.18160213226842328,"92":0.17098781920447584,"93":-0.0391301270635077,"94":-0.20895778361759795,"95":0.22737351770440872,"96":-0.07720830373101664,"97":-0.21566152296523056,"98":-0.23398935062827636,"99":-0.23267912350725903,"100":-0.42279749738804356,"101":-0.3237414697357712,"102":0.05349079441718779,"103":0.15619536463127315,"104":-0.38977098004988164,"105":-0.04718689454948862,"106":-0.09515208823628953,"107":-0.14944317094084406,"108":-0.032207097646312,"109":-0.0695935421164926,"110":0.14401270718622342,"111":0.12202258167284534,"112":-0.16349966234092914,"113":0.030217650219791444,"114":0.009515376644483143,"115":0.14256715351263588,"116":0.07109501114438542,"117":0.10757725176286544,"118":0.040620473723581345,"119":-0.04029388132115551,"120":-0.009494153191425806,"121":-0.016477082407227544,"122":-0.023704401288279515,"123":-0.07354310053394052,"124":0.15602132222077722,"125":0.21858485692840607,"126":-0.3961083234265813,"127":-0.01613362001964994,"128":-0.014831894251604517,"129":-0.11603962403021649,"130":0.16436197224769233,"131":-0.14725759504372718,"132":-0.009398728859650329,"133":0.07422658255979894,"134":-0.19114438865744085,"135":0.18057944668226503,"136":-0.09308789517615146,"137":-0.13331265893718725,"138":-0.06142145078404426,"139":-0.19656629411770737,"140":-0.30072522804710894,"141":-0.3366019171879983,"142":0.05016969961636766,"143":0.11981054976254488,"144":-0.13710142983452023,"145":0.009281523464706072,"146":-0.08653302457826362,"147":-0.11129862045248626,"148":-0.006297366830872193,"149":-0.05766626072860904,"150":0.084162874512783,"151":-0.10871952653645987,"152":0.04064516586065238,"153":-0.1259269619785346,"154":-0.07193045960793894,"155":-0.1571613468040549,"156":-0.12579409880160217,"157":0.015230387565585576,"158":-0.0492533736228083,"159":0.0015357968357826784,"160":-0.018004824122178856,"161":-0.09801331583111988,"162":-0.04952395225829658,"163":-0.06757757523909931,"164":0.22793043094615204,"165":0.1245556392946643,"166":-0.4026937288639153,"167":-0.04530940928329872,"168":0.11988604713217674,"169":-0.21109958762221806,"170":-0.10348197991796632,"171":0.0972310256220949,"172":-0.20929702643957646,"173":-0.0683388796870931,"174":-0.02602550192098286,"175":0.23254241170984902,"176":-0.13133707553217178,"177":-0.16982106549761924,"178":-0.0013461630569542903,"179":-0.006177176137725382,"180":-0.11596682813840102,"181":-0.3550611500841829,"182":0.16123003827230858,"183":0.0012078786741689343,"184":-0.16993942873253193,"185":-0.061108312481058774,"186":-0.27947961100054985,"187":-0.021887952376604593,"188":0.1514090600279693,"189":0.09341313982092031,"190":-0.01243964559596622,"191":-0.1632199508042386,"192":-0.026838243340462718,"193":-0.07162944370664757,"194":-0.06718292218577537,"195":-0.041939566060492046,"196":-0.05657985125400096,"197":0.07390497011131031,"198":-0.17121669899554395,"199":-0.07622641202222687}},{"sx":5,"sy":5,"depth":8,"w":{"0":-0.18715074864264164,"1":-0.1630457904845795,"2":0.06353087349001808,"3":-0.29752380693073227,"4":-0.1898315595351472,"5":-0.36513381235787784,"6":0.05341052178593206,"7":0.1759485457888942,"8":-0.0466097228693061,"9":-0.30655123595522454,"10":0.06347938458653538,"11":-0.10222565426968179,"12":0.12110441669500824,"13":-0.0669849242094087,"14":0.07984236839997312,"15":0.05559380689964764,"16":0.03180192012173316,"17":-0.18023117893376264,"18":-0.002018374164847415,"19":-0.3458150193603181,"20":-0.13703641329466623,"21":0.032356873676916045,"22":0.05845225850836291,"23":-0.04698413840804323,"24":0.14704966989535576,"25":-0.2668696717683011,"26":0.08346945083914943,"27":-0.175464090634519,"28":-0.15698603552713544,"29":0.018485912169954783,"30":-0.0037240327239888116,"31":-0.12965770982702957,"32":-0.05649068581029885,"33":-0.2520225161345861,"34":0.07302338798255123,"35":-0.17820115891477922,"36":-0.1414731341366829,"37":0.021060396567969476,"38":-0.05742717475241822,"39":-0.08417847295312098,"40":-0.12790146978738595,"41":0.10306634090168594,"42":0.09952110462900285,"43":-0.034025790000985184,"44":-0.09650054160055008,"45":0.07952642094332373,"46":-0.07038105884165963,"47":0.14111526878344302,"48":0.0349423434265772,"49":-0.057563111211490194,"50":0.11796942396866435,"51":0.04876674723300313,"52":0.032297408113681855,"53":0.19893633375397302,"54":-0.15150714100868287,"55":0.07698981650025376,"56":-0.04140511881498322,"57":-0.11239057349602127,"58":-0.11299110112359778,"59":0.057274593663293225,"60":-0.10537089941826215,"61":0.11221993880074412,"62":0.06609749686455618,"63":0.2526728675452432,"64":0.006101381362143,"65":-0.07634367287684099,"66":-0.006552080588110308,"67":0.0945700088694812,"68":-0.04821695830292663,"69":0.08450481694348323,"70":0.11712189879655045,"71":0.15633348307114253,"72":0.1678604240080601,"73":-0.0895134131799301,"74":0.1863347945902191,"75":-0.11299625428855124,"76":-0.039528972598964755,"77":-0.02351647905827851,"78":0.22606029187065044,"79":0.017084668404895177,"80":-0.12097958972950439,"81":0.11616456934307194,"82":0.13570861912755677,"83":0.07687050396098744,"84":-0.10074512291102397,"85":0.08389913709844295,"86":-0.12998575345664282,"87":-0.10473758283066431,"88":-0.10490910723786465,"89":0.13175604008516206,"90":0.07138106940140908,"91":0.11269924026145901,"92":0.032413679479247615,"93":-0.05532425428021644,"94":-0.07581779847574371,"95":0.0042076972462864164,"96":-0.11954263059729213,"97":0.10407274966227255,"98":0.11655084689237522,"99":-0.11153860795665539,"100":-0.14405043883897206,"101":0.07435178576907701,"102":0.09065064598555118,"103":0.1602139518439027,"104":0.11878902569947192,"105":0.07642328929801405,"106":0.16093908848797245,"107":-0.014549876215610708,"108":-0.027352349365079076,"109":-0.006841311574137714,"110":0.1680347680854975,"111":-0.07553829301645791,"112":0.22296489348768653,"113":0.2798790182344786,"114":0.2549284267272552,"115":-0.003094058115079049,"116":0.02270459308667484,"117":0.06427551878420087,"118":0.11245095130882886,"119":-0.11310011340899194,"120":-0.2722691289957952,"121":-0.0027202534475536415,"122":-0.07405591128824111,"123":-0.0954905051376945,"124":-0.029921526556420216,"125":-0.0007001194498670656,"126":-0.174879707169536,"127":-0.15573234509113565,"128":-0.26440663541848025,"129":0.03679631481830596,"130":-0.28906081493140684,"131":-0.08910978479017588,"132":0.006775127795710743,"133":-0.02357605732920061,"134":-0.2877872567447116,"135":-0.13346181240137076,"136":-0.0924589781602917,"137":-0.038371200356765056,"138":-0.1539102917823353,"139":-0.1765981114405438,"140":-0.24673498972759808,"141":-0.09354776916444134,"142":-0.20934340337169904,"143":-0.26134164200199705,"144":0.06745102472042261,"145":0.10150012748112962,"146":-0.0019038526077637579,"147":0.10220871245447916,"148":-0.06546677191655063,"149":0.017653387246288465,"150":-0.40066468955486984,"151":-0.36830348985401307,"152":0.043961298679695775,"153":0.03261158376574714,"154":-0.14409174572868297,"155":-0.01895390522094702,"156":-0.25011529673615857,"157":-0.015207366281739727,"158":-0.36266885764019735,"159":-0.1573473488608049,"160":-0.2147830447089444,"161":-0.12431895507156017,"162":-0.1794456539301197,"163":0.1597282694338667,"164":-0.24157428659306213,"165":-0.061474309992659786,"166":-0.1469412248001966,"167":-0.15254969777163369,"168":-0.28461366846379776,"169":-0.11327622823964952,"170":-0.08017759371350008,"171":0.1311396687820246,"172":0.0373407443647079,"173":-0.1251898232766871,"174":-0.0023885911269596978,"175":-0.2839026882821183,"176":-0.16383129461288698,"177":-0.046043241987378185,"178":-0.052366044717568005,"179":0.24087734031856556,"180":0.30703389402266057,"181":-0.016306487660192222,"182":0.1262681031253833,"183":-0.09192890141235055,"184":-0.0562063887686565,"185":-0.13422162980834496,"186":0.05994819781131265,"187":0.1567617068642113,"188":0.10329822142539694,"189":-0.011601758465924632,"190":0.24314105097928917,"191":-0.12777926090095598,"192":0.036542491317168406,"193":-0.11002216978957201,"194":-0.038127382195973954,"195":-0.1842422085838532,"196":0.0991742192233355,"197":0.12713880579649872,"198":-0.021981540665496752,"199":0.13281460562581543}},{"sx":5,"sy":5,"depth":8,"w":{"0":-0.24753941554192196,"1":-0.5071739375359378,"2":-0.16482357639055525,"3":-0.2083285095401748,"4":0.11630164909252023,"5":-0.23257070566715926,"6":0.031981396910735496,"7":-0.20229093153407277,"8":-0.04082675294637734,"9":-0.24355538719110154,"10":-0.07297917548581524,"11":-0.2128260266497295,"12":0.14986538597975033,"13":-0.22544603877745453,"14":0.14663625234615946,"15":0.08582733579974894,"16":0.15919589658232883,"17":-0.09464749884240906,"18":0.12088512203301009,"19":0.14281805902228595,"20":0.050984678900268886,"21":0.04800597303284688,"22":-0.13032110070764447,"23":-0.1156945275369218,"24":0.3250375562637308,"25":-0.25229406492283013,"26":-0.06772069989896026,"27":0.06514576465575711,"28":0.21668755355123426,"29":0.09211869600462605,"30":-0.17688813057791844,"31":0.08855860555209366,"32":0.08890705688949115,"33":-0.11705015163317986,"34":-0.019264197869620445,"35":-0.19051580545195249,"36":-0.09343781093680974,"37":-0.15850787476789496,"38":-0.1869832507909114,"39":-0.011696164466954238,"40":-0.03881105094596675,"41":-0.11399093561228588,"42":-0.22843222976710606,"43":-0.08308853637285386,"44":0.24471125799332893,"45":-0.03807324975293831,"46":0.03018858971313735,"47":-0.3448887350539629,"48":0.24182234570418226,"49":0.098003424782933,"50":-0.033438902012881515,"51":-0.03745736655642809,"52":0.1409658310660988,"53":-0.05514761651911487,"54":0.0813263419915409,"55":0.006282365861614357,"56":0.013561715553679365,"57":0.011928714430841416,"58":0.16629436326204908,"59":-0.033180439775189606,"60":-0.030269081716684753,"61":-0.03741052786197825,"62":0.051428842763534724,"63":0.09819951654869785,"64":-0.09212777369086732,"65":-0.023625238385025282,"66":0.12039588363546112,"67":0.07114348420953573,"68":-0.0905950195912601,"69":0.013688801707951377,"70":0.06856888567433429,"71":0.06847458793204485,"72":-0.031309139847495115,"73":-0.08868005027485239,"74":0.16877318892455231,"75":-0.04971734104859461,"76":-0.3886812859414702,"77":0.1038922510321004,"78":0.12696015420262988,"79":0.0686840105354626,"80":0.03232512199685049,"81":-0.10715168355865397,"82":0.007737700917323391,"83":-0.07094388128708655,"84":0.27746873566554137,"85":0.24494317466422938,"86":-0.11090318601359594,"87":-0.18981918184914973,"88":-0.06706564036077538,"89":0.021263255283900453,"90":0.07434397377185717,"91":-0.26007811352616167,"92":-0.0031223293713635684,"93":0.013600379022341368,"94":-0.1423580787513259,"95":0.003231843099609297,"96":0.036132976507753045,"97":0.01703107001547647,"98":0.1500220107427415,"99":-0.009796903243482319,"100":-0.013836239439806408,"101":-0.004945931457686541,"102":-0.23996850496867891,"103":0.0017120067609210738,"104":-0.1508615985682407,"105":0.15572838450299592,"106":-0.08794672296327381,"107":-0.13010866958337364,"108":-0.12323280454197039,"109":0.05229400383584543,"110":-0.023145780146089562,"111":-0.03631780080279989,"112":0.08110338098314684,"113":0.12696785710309627,"114":-0.031657094969914604,"115":0.2567693978000836,"116":-0.22507903973218818,"117":0.0508094507744816,"118":-0.034544386186667914,"119":-0.2840959163354631,"120":0.04863015767587682,"121":-0.035444302553922766,"122":-0.01665585317051151,"123":-0.20905658950145853,"124":0.2865582011941131,"125":0.1962810314740419,"126":-0.10396863594873658,"127":-0.01761313234386632,"128":0.17335316472397772,"129":-0.07549337924085714,"130":0.02794137101716056,"131":-0.09483034513091715,"132":0.06312089016438646,"133":-0.06535293637504405,"134":-0.48798851183978725,"135":-0.1438997100258873,"136":-0.27826155682005704,"137":0.034097228065710826,"138":-0.11199725856761276,"139":0.038488239795099945,"140":-0.21534382080911443,"141":-0.22154703379551907,"142":-0.20234497142635993,"143":0.003938522912157897,"144":-0.31303457184044886,"145":0.06052185518004855,"146":-0.2130856619123537,"147":0.2964302450435343,"148":-0.24611675163956026,"149":0.025020660046464003,"150":-0.14079454427151963,"151":0.011545068802103845,"152":-0.14084350845390997,"153":-0.0047044752957041275,"154":-0.11788571295003929,"155":0.18097741293287953,"156":-0.3413570305291125,"157":0.08155508239398722,"158":0.009172738605516728,"159":-0.1905116486478441,"160":-0.0016259929933306418,"161":-0.04231644784714239,"162":0.00769711367472688,"163":-0.0243076078908622,"164":0.06129082362417759,"165":-0.005452901206063575,"166":-0.19630657047116218,"167":0.12367301800860692,"168":-0.2277042157852921,"169":-0.05032230852537545,"170":0.1076816742717451,"171":0.02764654954792467,"172":-0.03488123902728966,"173":-0.17239250996953415,"174":-0.047633804156112014,"175":0.09990581817343563,"176":-0.2378056876278849,"177":-0.2048387724847858,"178":-0.1363942619018593,"179":-0.030076322937855594,"180":-0.34064616895244804,"181":-0.3453609142752431,"182":0.14669514322842464,"183":0.13242982206156562,"184":-0.18112565605327258,"185":-0.21722826587918243,"186":-0.16532172396250824,"187":0.14498951860039874,"188":-0.2622100358945385,"189":-0.1062031275413199,"190":0.08385391080284489,"191":0.0072466410061352675,"192":-0.20677188612501113,"193":0.0747457626517007,"194":-0.23913918796880496,"195":0.13538619778595384,"196":-0.3427490939131313,"197":-0.2026144797605544,"198":-0.00709187125817449,"199":-0.054076586944083876}},{"sx":5,"sy":5,"depth":8,"w":{"0":0.09028060688742667,"1":0.05266930055548952,"2":0.3641601593725404,"3":-0.15031094063765943,"4":-0.2198196179227448,"5":0.24749539185583905,"6":-0.22224901863534793,"7":0.1503287369247765,"8":-0.14354724490159554,"9":0.04835270803700443,"10":0.16286340041955577,"11":-0.21594960516152722,"12":-0.04030080882166002,"13":-0.08241174822320578,"14":-0.011304131262745718,"15":0.19011326674982892,"16":-0.010622569765926996,"17":-0.023743912147894945,"18":-0.08390449797198937,"19":-0.0764262572558387,"20":0.04352637792537885,"21":-0.059594106469217076,"22":-0.13465138504016513,"23":0.018594182209361338,"24":-0.08848777833355158,"25":-0.023291044894167702,"26":0.06682683685813315,"27":0.012754559774460961,"28":0.010314834946113504,"29":-0.2033639377118313,"30":-0.21488796015669342,"31":-0.14220756893282116,"32":-0.1570362268564376,"33":-0.11741845884476117,"34":0.048116444561513406,"35":-0.05931253551461072,"36":-0.0749590959354476,"37":-0.10249338616320595,"38":-0.2238226102226093,"39":-0.024518195670638485,"40":0.10820579640341288,"41":-0.07895990903578294,"42":0.15263797390814582,"43":-0.17490269521659094,"44":0.053034229850829576,"45":0.12533685671857783,"46":-0.0399170382189638,"47":0.17791644244816307,"48":-0.3580213208382376,"49":0.10093590564136554,"50":0.024089187466035195,"51":-0.22899703496783602,"52":-0.09321309242183692,"53":-0.17091159490439695,"54":-0.01328399125601643,"55":0.17204474958677374,"56":-0.14330790495204798,"57":-0.011020342380011093,"58":-0.09265892676095361,"59":0.003649352320439097,"60":-0.03206140206295578,"61":-0.0581016776076778,"62":-0.05323392253099619,"63":-0.14490007032303265,"64":-0.10579014941760717,"65":-0.11364667563675393,"66":-0.004238219656207497,"67":0.04027686473713846,"68":-0.14339242443814526,"69":-0.12999234215812097,"70":-0.11095864169905434,"71":-0.03313416922244314,"72":-0.18003685507873196,"73":-0.08733629756651043,"74":-0.020098882581747284,"75":0.05545417508700733,"76":0.05448925383619801,"77":-0.22266087952873656,"78":0.1839929477027195,"79":0.07085266789845696,"80":0.16434809041920145,"81":0.19712580275088132,"82":0.21922769678089718,"83":0.0014166772903151034,"84":-0.02463581013982727,"85":-0.10760019960633177,"86":0.0663576607577187,"87":0.21879729509170076,"88":-0.20855323039136825,"89":0.12369210182179854,"90":0.07639826462029223,"91":-0.10602143720521705,"92":0.12906488612582714,"93":-0.17153947832395963,"94":-0.164797457709593,"95":-0.013472933239856369,"96":-0.014871660562866942,"97":-0.007961525167373841,"98":-0.13829340111264354,"99":-0.026640553669581544,"100":0.02810322502369335,"101":-0.0012247274378615217,"102":-0.08763390005558876,"103":-0.11206458830942821,"104":0.054336619254539704,"105":-0.12713976009315686,"106":-0.11405176011399841,"107":-0.011581227756705476,"108":-0.03841720821204909,"109":-0.10548480179069583,"110":-0.10184916442678145,"111":-0.11415946216094322,"112":-0.2072811932920769,"113":-0.3617324829799979,"114":-0.019446091077426193,"115":0.065748597073355,"116":0.26939626019880775,"117":-0.08400804504817641,"118":0.178691790051875,"119":-0.2201618061819384,"120":-0.014317859258245953,"121":0.14175233085788305,"122":-0.018107121688104702,"123":-0.014316070689363256,"124":-0.12233318737386094,"125":-0.12509900062885068,"126":0.018733849406396642,"127":0.18156732878763904,"128":0.07544882080131318,"129":-0.09984816388789723,"130":-0.21194012010122715,"131":0.09433591048332578,"132":-0.011423109208166249,"133":-0.14621325318171557,"134":-0.11094285821869493,"135":-0.052758480788968595,"136":-0.13287509313900703,"137":-0.1295888086926244,"138":-0.06237365413831859,"139":0.07905091012120583,"140":0.18809069181417692,"141":-0.10373059704949979,"142":-0.024945528417379913,"143":-0.10012381616274711,"144":-0.021789340601553433,"145":-0.21136698821392189,"146":-0.14472076818042223,"147":0.06036142012979022,"148":0.07324722991740285,"149":0.0007681847667624708,"150":0.1574067845887949,"151":0.03686968057240799,"152":0.13209407663047415,"153":-0.20363628854893606,"154":0.09327265964721497,"155":-0.10718943577128853,"156":0.3210334363791621,"157":0.07977893077846081,"158":-0.05431373681484838,"159":-0.12194356301256466,"160":-0.18858380132446642,"161":-0.07547472305502499,"162":-0.16453479134462407,"163":0.013957525608385127,"164":-0.050374891356595626,"165":-0.30104646528742274,"166":-0.07953690337479209,"167":0.06608797096297805,"168":-0.2985699021942501,"169":-0.2591530250303885,"170":-0.10628335901074906,"171":0.07286749474503565,"172":0.19289736385514733,"173":-0.20143364108041736,"174":-0.0898216605756405,"175":-0.024078722319866845,"176":-0.08652504849803502,"177":-0.13592159434246198,"178":0.020073902484535312,"179":0.05579854410530104,"180":0.17507977239767766,"181":0.0871364853061024,"182":0.08236229299615422,"183":-0.09607584398858308,"184":0.1278090125901063,"185":-0.1539241202248543,"186":0.04880070937238533,"187":-0.19678126205244192,"188":0.06614765437671206,"189":-0.059177558268950985,"190":0.10466875950337284,"191":-0.07824287650660641,"192":0.10989478783868745,"193":-0.1972953770365762,"194":0.08187780147235926,"195":-0.13645952521847063,"196":0.29276372262676525,"197":0.040809371290060965,"198":-0.04337127961767436,"199":0.029611871460887576}},{"sx":5,"sy":5,"depth":8,"w":{"0":0.15025544888528655,"1":-0.3532001932796034,"2":-0.12078467114638868,"3":0.028513106271079093,"4":0.4097317215139333,"5":-0.012224749398263738,"6":0.2597268668559058,"7":0.016671055862252142,"8":0.26946114339111243,"9":0.11616145385633604,"10":-0.009653756991133817,"11":0.11155338926161847,"12":0.08764841202499432,"13":0.03174171574282102,"14":0.09596414265405268,"15":0.07949109189766318,"16":0.03600139905895259,"17":0.03525466408485612,"18":-0.03510784819624954,"19":0.09653220141535676,"20":0.05134326089659973,"21":-0.055575927653206514,"22":0.015724535754616638,"23":0.1332125358198224,"24":-0.21175007045471067,"25":0.004341993101635113,"26":-0.09266170871526537,"27":-0.15087740946415337,"28":-0.22706810582641632,"29":-0.18091608165245288,"30":-0.22318696557292028,"31":-0.1722432738037122,"32":-0.14513322959062322,"33":-0.11383274445046605,"34":-0.26428665461401124,"35":-0.07888070940304705,"36":0.11635489274047947,"37":-0.276096254452068,"38":-0.22111416194549532,"39":-0.21088708212543364,"40":0.11987573982997364,"41":-0.09694538030839178,"42":-0.04893559408285388,"43":-0.2561500604192924,"44":0.19316743366899097,"45":0.09909836557710362,"46":0.07966755792845583,"47":0.15974333984114053,"48":0.10208961814785071,"49":0.022112428139757147,"50":-0.0969000698790957,"51":-0.12754715603876896,"52":0.23938098469224486,"53":-0.07235093023641548,"54":-0.11425539774841133,"55":0.07317511620742875,"56":-0.12016471098206546,"57":0.07367674934927793,"58":-0.20737978284127756,"59":-0.13626412176563643,"60":-0.004995345457555829,"61":-0.011861631331723665,"62":-0.20996173282268052,"63":-0.1838840153510968,"64":-0.18052606288675704,"65":-0.08524461408088345,"66":-0.1372346637683646,"67":0.13565686279200134,"68":-0.133696027275753,"69":-0.22526323718805907,"70":-0.06426576016250796,"71":-0.1632268453038504,"72":-0.038692051626931956,"73":-0.21052977477400317,"74":-0.044510749376096476,"75":0.10897833167924999,"76":-0.11079836373225961,"77":-0.3085738842882178,"78":-0.07974365279770666,"79":-0.19372667090038767,"80":0.2600781247714296,"81":0.028630275160695252,"82":0.04282230822970543,"83":-0.09720692379688155,"84":0.10385103853121838,"85":-0.0068199784915563815,"86":-0.40672090784945547,"87":0.09013190817018212,"88":0.008641663502145517,"89":0.004419840937376376,"90":-0.03827951067320514,"91":-0.12174008637233535,"92":-0.10426304566310088,"93":-0.2338159684521076,"94":-0.4382320829263212,"95":-0.07304206518028322,"96":-0.1878336754068463,"97":0.0886131092469011,"98":-0.28631565047671975,"99":-0.16887547103981068,"100":-0.05825145236727578,"101":-0.2712413174863639,"102":-0.11905089206214421,"103":-0.15076132356285066,"104":-0.1861700273874324,"105":-0.09177065002312948,"106":-0.19274799444247212,"107":-0.06329757162151307,"108":0.04494173435041494,"109":-0.003366000063706449,"110":-0.15975823873134073,"111":-0.07347023980673598,"112":-0.16833383148073106,"113":0.006120762096421309,"114":-0.08910493009721544,"115":-0.08506615238721978,"116":-0.03099508264100244,"117":-0.17310476313630613,"118":-0.053297871214328635,"119":0.10318372062407748,"120":0.05296959808399222,"121":0.13269737884156665,"122":-0.2610389344393598,"123":-0.160523652335268,"124":-0.11669456846726209,"125":-0.22065635782465162,"126":-0.3796517557492935,"127":-0.019409117771603417,"128":-0.2584116873040932,"129":0.0196841676932937,"130":-0.2543670209654966,"131":-0.006130539345002834,"132":0.07364694677379446,"133":-0.2742351532623905,"134":0.028823489628599493,"135":-0.04722406349246778,"136":-0.14062849925065582,"137":-0.10674220067033062,"138":-0.3042116331431421,"139":0.08093406519516726,"140":0.003549883298539852,"141":-0.20649825008971473,"142":0.08372231329965331,"143":-0.14611565453606193,"144":0.09072311289904635,"145":0.02699347425791757,"146":0.02124422012751689,"147":-0.15647146555389108,"148":0.018564867412868016,"149":-0.13288651751875227,"150":0.14711717809744507,"151":0.11562332594900909,"152":0.026216571961647624,"153":0.24488957511293544,"154":0.23323282644276955,"155":-0.022780343078974582,"156":0.05866799249818439,"157":-0.06821147745885632,"158":0.3360667126620154,"159":0.17179828365681887,"160":-0.18559998741172,"161":-0.5163405374737357,"162":0.060634594961097105,"163":-0.20665524108191974,"164":0.0076033514037922465,"165":-0.06660507157148893,"166":0.4023663097708202,"167":0.11698124826214273,"168":-0.014478991206563648,"169":-0.40258469979154193,"170":-0.03759071078604899,"171":-0.11558544888296853,"172":0.02791836115555422,"173":-0.12063367964266249,"174":0.32006192626404134,"175":0.1232734261865781,"176":0.06849008567345148,"177":-0.06025256616145704,"178":-0.04542338936399982,"179":0.039669695327500754,"180":-0.16579434965202797,"181":-0.06075496961042948,"182":0.10847197774447123,"183":0.14049262039406224,"184":0.10675316531201282,"185":0.33825250367329446,"186":-0.07075266491708314,"187":0.1959728821441626,"188":-0.17374343771920958,"189":-0.0896500883123764,"190":-0.1355373996956507,"191":0.06292712482230357,"192":0.2271883998545084,"193":0.28576843264506485,"194":0.11934884680547268,"195":0.1793956835054639,"196":-0.19655822540383291,"197":-0.08693565843848022,"198":0.06836561203432188,"199":-0.11909414705428611}},{"sx":5,"sy":5,"depth":8,"w":{"0":0.03613635481535658,"1":-0.0710115875551587,"2":-0.02704025755198147,"3":-0.023147255789442666,"4":0.014056365959208108,"5":0.2153896003432417,"6":-0.18505799785392518,"7":0.16944246608658595,"8":0.08526546825130889,"9":-0.023960383089138622,"10":-0.07667603831782593,"11":-0.09973240441764013,"12":-0.02240584620295604,"13":0.14978510929184316,"14":-0.18869147271486716,"15":0.0345849871820451,"16":0.02119482148261886,"17":0.10688103974147384,"18":-0.031070196769221525,"19":-0.0711951282610959,"20":-0.06136858842591211,"21":0.13441385086724666,"22":-0.058374704637682254,"23":-0.07918625014436095,"24":0.10892748562455823,"25":0.09861828088568307,"26":-0.04179951703521653,"27":-0.10770749887966696,"28":0.10612715439530473,"29":-0.002203465808258519,"30":0.027986528702530735,"31":-0.2811502052522662,"32":0.21617426118779373,"33":0.06476599167276988,"34":0.08364848227101132,"35":0.0028362014590845547,"36":0.13659713476466717,"37":-0.035831405319501526,"38":0.16226826322359433,"39":-0.13887542249424092,"40":-0.036902504515675796,"41":0.05803933723226914,"42":0.11940893791737643,"43":0.05598210559625688,"44":-0.1847136513281289,"45":-0.0642138875198085,"46":-0.20313049980521025,"47":-0.08631919532867191,"48":0.12249418188728464,"49":-0.1745451982277253,"50":0.1609608647663823,"51":0.04388837510799782,"52":-0.24505588808627327,"53":-0.1354014289601912,"54":0.06605578297380309,"55":0.2338483928659637,"56":0.19612831302939546,"57":-0.04090868364308723,"58":0.06696701318848408,"59":0.03590139036462499,"60":0.04337352356204229,"61":0.0656526640265291,"62":0.2315045381722239,"63":0.048378925620032716,"64":0.032523701415754204,"65":0.06009686902499293,"66":0.023751614049028515,"67":-0.05071547349858064,"68":0.08461077500031763,"69":0.1878704801629139,"70":0.07637633664041886,"71":0.1266886705733986,"72":0.04119928902240491,"73":0.1897124911752742,"74":0.05496918325241254,"75":-0.0721484356830245,"76":0.01592487600151083,"77":-0.001718119854064525,"78":-0.13532999111488148,"79":-0.08081411526179318,"80":-0.04625439670719474,"81":0.20380521557518375,"82":-0.2924878606946056,"83":-0.0635220150937325,"84":-0.31163688011229124,"85":0.23404003825814013,"86":-0.367455375998417,"87":-0.11339683876602001,"88":-0.19527766282930104,"89":0.3690178845152896,"90":-0.11456188771248779,"91":-0.03945933478243939,"92":-0.1784297591928214,"93":0.24780474107584818,"94":-0.33935506691632766,"95":-0.4738707862756878,"96":-0.012973558816222154,"97":0.1615468223656789,"98":0.00674442415577102,"99":0.13187700597954666,"100":-0.07101781898436027,"101":-0.054307102505311254,"102":-0.2517529517745774,"103":-0.06782707480430054,"104":0.15305270273866525,"105":0.09426738858684655,"106":-0.20833813439559826,"107":0.03224368993473894,"108":-0.18082518145237977,"109":0.012597263784076388,"110":-0.07991841691406448,"111":-0.10652443697259936,"112":0.05036446948486968,"113":0.09450127658576403,"114":-0.191881246870983,"115":0.07509063464957197,"116":-0.2583590989162017,"117":-0.16836215354482917,"118":-0.3566985730937024,"119":-0.172682740880005,"120":-0.1722038913620593,"121":-0.22990842440313922,"122":-0.04795456276985115,"123":-0.11116285431212582,"124":-0.1590220687443511,"125":-0.17176812207231604,"126":0.25623548263801854,"127":0.1665941055330312,"128":-0.05025735603298642,"129":-0.10874541068805227,"130":-0.08147418413364449,"131":0.059768394645664635,"132":-0.08182977766627607,"133":0.3048798106855198,"134":0.05311967781207235,"135":-0.04139371687234994,"136":-0.11120076271269919,"137":0.022518999756755684,"138":-0.13854499057416012,"139":0.2412563124830699,"140":-0.16267835073663248,"141":0.0518590304805772,"142":-0.0653436122880878,"143":-0.016157627607718578,"144":-0.26292831149067347,"145":-0.005160098840975661,"146":-0.2513086015791211,"147":0.16187648942170155,"148":-0.06221878559904345,"149":-0.13620981236457275,"150":-0.03476872058756789,"151":0.04400238110478396,"152":-0.3437305149154852,"153":-0.23843383221727021,"154":0.009133935440127791,"155":-0.06258625180836036,"156":-0.011099750057628378,"157":-0.12599202041276322,"158":0.161617947538569,"159":-0.07858158618812805,"160":0.15033346568915748,"161":-0.002126662388079021,"162":0.11195149300411347,"163":0.009501399016607348,"164":0.1236730273361432,"165":0.04472474507004083,"166":0.06491190537207199,"167":0.10975335396284197,"168":-0.01923665624114702,"169":-0.17593475998703284,"170":0.07888366830354213,"171":0.014738040460884295,"172":0.10112968710240261,"173":-0.03375413284074276,"174":0.04899404748226282,"175":0.14778397226506132,"176":-0.1374620393310315,"177":-0.07922381595050298,"178":-0.12505581306443547,"179":-0.11696926244740864,"180":0.020134779364543005,"181":0.06296621392370276,"182":0.08103766664333768,"183":0.15193813811940252,"184":0.0659430372783081,"185":-0.048039257321746145,"186":-0.07483191777928384,"187":-0.09570354729204315,"188":0.18159123907727656,"189":-0.18831122232192352,"190":0.23800518806738902,"191":0.13050054532563501,"192":0.20345495111285128,"193":-0.057744918353883866,"194":-0.008715005132827172,"195":-0.2746909220307751,"196":0.07753663421639566,"197":-0.02516499628407207,"198":0.16269477827630388,"199":-0.03285532663516137}},{"sx":5,"sy":5,"depth":8,"w":{"0":-0.327917179604371,"1":-0.13634085969298568,"2":0.06018726919961515,"3":-0.007710360005599144,"4":-0.31814269756707814,"5":-0.18805659699041496,"6":0.26680786898616965,"7":0.11180875637184653,"8":-0.25643789851894294,"9":-0.40433621919286095,"10":-0.14284586298143756,"11":-0.11929198698944055,"12":-0.2048318971299285,"13":-0.06179726584824443,"14":-0.03531156745444827,"15":0.022777009368815136,"16":-0.11807110674010111,"17":0.02275746855490157,"18":0.006605370110297817,"19":-0.004527621646482826,"20":0.21394072052460855,"21":0.006626014672654478,"22":-0.13515094235099415,"23":-0.14739314671742532,"24":0.1990789756097282,"25":-0.022040915267373232,"26":0.02082134742834698,"27":-0.019006269964884855,"28":0.1562828152126342,"29":0.20485520201584806,"30":-0.2518740555323559,"31":-0.2135190424807048,"32":0.21082332808530616,"33":-0.41629388532749967,"34":0.11132520581608872,"35":-0.056894489814859214,"36":0.3136366500693543,"37":0.05199810058157193,"38":-0.008565338294673498,"39":-0.10890551464638602,"40":-0.19568069265130783,"41":-0.279814339301393,"42":-0.08091200215435047,"43":-0.05677035650172961,"44":-0.3799777813302617,"45":0.003903756638046195,"46":0.11169993638374234,"47":0.22250239093976956,"48":-0.3062232108086334,"49":-0.4456473645376542,"50":-0.03663204271016958,"51":-0.11605089965725046,"52":-0.12297200824817132,"53":-0.018892457741759947,"54":-0.2154337479048517,"55":-0.023981021133155457,"56":-0.19373644338140622,"57":0.07440210826651594,"58":-0.27724940289216177,"59":0.013808257155526305,"60":0.0615338013994664,"61":-0.038794997945028435,"62":-0.1857782021032447,"63":-0.10673792979467996,"64":0.05479301754445459,"65":0.056982709839971286,"66":0.210961000239845,"67":0.08232662895234356,"68":0.15620431987349398,"69":0.07298711977850147,"70":-0.35166379575633233,"71":-0.21927676264137486,"72":-0.03814520293769366,"73":-0.4741322632708928,"74":0.04832466005037752,"75":-0.13497389706992857,"76":0.04538591503511143,"77":0.2617505348036511,"78":-0.3258406709926079,"79":0.1614923065249228,"80":0.13805026152177594,"81":-0.1588915503193247,"82":0.08181328258799167,"83":-0.11649725468383218,"84":-0.23719831398040211,"85":-0.12331492659352938,"86":0.06701828262562945,"87":0.13526330508488194,"88":-0.09573317360540545,"89":-0.18154878983800404,"90":0.03691983716452272,"91":-0.06930231045592025,"92":-0.04960722284851895,"93":-0.03498994918751794,"94":0.12595965416862057,"95":0.050801825263468776,"96":-0.14543819413466239,"97":0.09729762902445764,"98":-0.14256660702388677,"99":-0.135862565164559,"100":-0.10851433805366408,"101":-0.0619660579238255,"102":-0.2621441259063049,"103":-0.02667377068556953,"104":-0.21422533957314155,"105":0.17158498158393423,"106":0.08017232059366639,"107":-0.06619010747547309,"108":0.12998175203472187,"109":0.029019850934388244,"110":-0.3201829047338409,"111":-0.20680557257609852,"112":-0.03828870382838573,"113":-0.057664477458720935,"114":0.2362949092570321,"115":0.048629005978661724,"116":-0.0003967310892375917,"117":0.16298115773867428,"118":-0.10559260529930284,"119":0.17778176940619475,"120":-0.12439379209637083,"121":-0.17288250772724226,"122":-0.02901774405756921,"123":-0.03824485034408744,"124":-0.04414336549633988,"125":0.012182421527160186,"126":0.13710978534112184,"127":0.09826830691932971,"128":-0.21406010531181352,"129":-0.09354549409106301,"130":0.010948342513764633,"131":-0.06674047787846678,"132":-0.06306809732179594,"133":-0.17047924506418938,"134":0.10520262692563688,"135":0.18847421171633152,"136":-0.045644290553834434,"137":-0.13073677119968694,"138":-0.10180093481980254,"139":-0.1342956509186752,"140":-0.031637108209195415,"141":-0.13644445569211028,"142":0.02378472147220174,"143":0.08462014650484613,"144":-0.14503471338270604,"145":0.06232931494369937,"146":-0.040864285569173917,"147":-0.04462213497040705,"148":0.06116712327573375,"149":0.0070653938891062015,"150":-0.0316533753765046,"151":-0.14743431876202923,"152":-0.08276534730705516,"153":0.18622665747992126,"154":0.16553195958077224,"155":-0.005568557872871294,"156":0.02256318418139787,"157":0.06047693009256764,"158":-0.22489554930902456,"159":-0.24477282611219903,"160":-0.12021536670528328,"161":0.10085821330740599,"162":0.0535121385246664,"163":-0.017888257083990246,"164":-0.06873494989138465,"165":0.062381580901124535,"166":-0.01503482931386485,"167":0.013307843081015467,"168":-0.10844782100629523,"169":0.027012843615346154,"170":0.04222100171048237,"171":-0.07656485708970119,"172":-0.12003403583015823,"173":-0.10430533231731984,"174":0.1820685955089108,"175":0.13198434876196583,"176":-0.04844413028224442,"177":-0.06848522053508045,"178":0.04267935725816485,"179":-0.2197521936703613,"180":0.06448682413156263,"181":-0.18902922937249161,"182":0.009862130752293356,"183":-0.013734590762837626,"184":0.18361140246437518,"185":0.05509255095217029,"186":-0.12790044271516096,"187":-0.0028463288971235946,"188":-0.19208948008486232,"189":-0.03566458714816746,"190":0.15594744561172677,"191":-0.15672349455804963,"192":0.018333497036365227,"193":0.16791110291096542,"194":-0.11210075133258572,"195":0.1363098080324989,"196":-0.12829096786247993,"197":0.0903939173725963,"198":-0.09955534055618613,"199":-0.3440092151721985}},{"sx":5,"sy":5,"depth":8,"w":{"0":-0.056147409138359604,"1":-0.2696113737964456,"2":-0.035736191668314064,"3":0.07310308765039988,"4":0.15208587271242321,"5":0.029909378413989548,"6":0.05533776354333918,"7":0.022244318961605378,"8":0.005063982224334939,"9":-0.2646769785086673,"10":0.08835937432758711,"11":0.022450492703801582,"12":0.2231711415058027,"13":-0.1073777807921984,"14":0.2145307195272433,"15":-0.11808171827485711,"16":0.276818120989556,"17":-0.2151162122910008,"18":0.2863059164875101,"19":-0.12388607680774476,"20":0.2607065080814888,"21":0.07766490019520161,"22":0.20762067604169637,"23":-0.05191273727891795,"24":0.22599869758241445,"25":0.013572327476135975,"26":0.14231075430437673,"27":-0.19143152602374686,"28":0.20802543658151915,"29":0.04078301331861289,"30":0.10166018300306397,"31":0.04913977199226874,"32":0.07723875453094017,"33":-0.081803183509824,"34":-0.014825749442795971,"35":-0.3105082795872906,"36":-0.10048960730205338,"37":0.04988486435563719,"38":-0.0935985596251303,"39":-0.0851543667453708,"40":-0.06670948161202216,"41":0.09179973872746602,"42":0.08186334349587569,"43":-0.05322214534637703,"44":0.02352476393993719,"45":0.11868170003897378,"46":0.18731009482304198,"47":-0.032976813868145965,"48":0.13999101599909766,"49":-0.13882459924869966,"50":0.09059582042269158,"51":-0.22428580946695204,"52":0.1538526001566318,"53":0.03549432814602309,"54":0.08344910491942165,"55":-0.2524633019191198,"56":0.1990123740575375,"57":-0.1376362127915779,"58":0.09896154100643406,"59":-0.3068427420351226,"60":0.057733269522316694,"61":0.09972302109842716,"62":-0.11491714340631463,"63":-0.2535091696670546,"64":0.07441252494709258,"65":-0.09972969253242638,"66":0.10655935661247234,"67":-0.252226296097163,"68":-0.01798955939204097,"69":0.19671621958963845,"70":-0.25046032141941404,"71":-0.047112646193344314,"72":-0.1926534581668625,"73":0.23043422535500008,"74":-0.07240912020380538,"75":0.057915297751121315,"76":-0.01656052151155555,"77":-0.08089881945350762,"78":-0.30216763836713834,"79":0.06384431373316334,"80":0.09750285430655252,"81":0.19056264847730506,"82":-0.005659764528918833,"83":0.15957096485370695,"84":0.027796129442763485,"85":-0.05508817161449561,"86":-0.05878616076612861,"87":-0.3744680458412058,"88":0.2673473677800956,"89":0.02783371616382541,"90":0.055698747543143884,"91":0.1613701026617865,"92":0.23062766473538215,"93":0.12424756791504812,"94":-0.18264592602927918,"95":-0.4468242203019259,"96":0.1862212666929174,"97":0.07138494658892224,"98":0.17013657744337535,"99":0.06471465800519415,"100":0.08741782228423521,"101":0.06854310065904037,"102":-0.4393173825937691,"103":-0.24498364741075948,"104":-0.09961049897404635,"105":0.004556227896534055,"106":-0.02818279362879575,"107":-0.15674872553870486,"108":-0.13354409699661765,"109":-0.203517943885333,"110":-0.5278714517552768,"111":0.04380737702610617,"112":-0.2809081946510737,"113":0.08171694243214019,"114":-0.2148047909252066,"115":-0.237329349550236,"116":0.1358533866267338,"117":-0.2610420776814402,"118":-0.058583997080839105,"119":-0.22631005737180407,"120":-0.04978918682832555,"121":-0.11020730144765263,"122":-0.15279834622398675,"123":-0.039327831058766506,"124":0.20437460161634893,"125":0.09908298284546763,"126":-0.0013149019516087,"127":-0.287119789691058,"128":0.0149968242586912,"129":-0.030437309538971526,"130":-0.1347844435240866,"131":0.08190557657112547,"132":0.17547585963973358,"133":0.3697487035879543,"134":-0.2795659831316813,"135":-0.287250423235072,"136":0.05913292118295418,"137":-0.13608747784048497,"138":-0.08800194961437167,"139":0.07991129095287652,"140":-0.007692633786658196,"141":-0.035059715905996894,"142":-0.27038700930361526,"143":-0.14852846168041708,"144":-0.25941797404860184,"145":-0.04007765118754015,"146":-0.22776112145655747,"147":-0.14184692588554465,"148":0.0338925532060784,"149":-0.39548831100165455,"150":-0.1886616072685241,"151":-0.12189786017424176,"152":-0.04770266316654629,"153":-0.21750523410106995,"154":-0.1668230140029079,"155":-0.1286114958564984,"156":0.09262653933032536,"157":-0.04909977589324454,"158":-0.24480066314996776,"159":-0.11970436510651379,"160":-0.0029677244361594438,"161":-0.23537528198702232,"162":-0.0564906488726254,"163":-0.11687621841352813,"164":0.1384577662182964,"165":0.08726927158953719,"166":-0.12098940312896789,"167":-0.04571840477736935,"168":0.0015535719340386263,"169":-0.019373812856645516,"170":-0.1291078776203628,"171":0.0970247869351988,"172":0.06004185149439034,"173":-0.09554373933204151,"174":-0.3177164324407873,"175":-0.19826740120692873,"176":0.005086214327960986,"177":-0.0941480345844472,"178":-0.10658079291766599,"179":0.05965221932609366,"180":0.09297063107109091,"181":-0.28675464272626844,"182":-0.29797000512604926,"183":-0.16422947531539353,"184":-0.028589375037612136,"185":-0.116848643555479,"186":-0.06920414806065715,"187":-0.045703521618913015,"188":0.06565080351317329,"189":-0.19236715369538698,"190":-0.18914950206971587,"191":-0.20273634586640532,"192":-0.0887892287346562,"193":-0.08764066345967358,"194":-0.09850834048283269,"195":0.07634642400490627,"196":-0.10225766731515853,"197":0.030255546318401768,"198":-0.051665939756646614,"199":-0.18537968268330549}},{"sx":5,"sy":5,"depth":8,"w":{"0":0.23346104534025827,"1":0.17313738327425504,"2":0.2045678086093323,"3":0.3086166382083911,"4":0.03910467850547223,"5":0.05617845882374867,"6":0.0814331637857994,"7":0.034797240774504606,"8":0.25637222017508887,"9":0.16903399416952639,"10":0.08236304179849377,"11":0.13477483366693332,"12":-0.046047031863912784,"13":0.07942640983830065,"14":0.10253886803086312,"15":0.11497628318728854,"16":0.09250007784167545,"17":0.01466064477845577,"18":0.020928447232560134,"19":0.28119190290266755,"20":-0.03177059421453151,"21":0.001876292456815192,"22":-0.025454127655253646,"23":0.006812800675990437,"24":0.07499069889681895,"25":0.009132958126721167,"26":-0.0916095332357686,"27":0.21466538975537164,"28":-0.001884101816831213,"29":-0.016642868835506388,"30":-0.09229827096224007,"31":-0.16745233390725248,"32":0.025414181935784198,"33":0.07673687845955734,"34":-0.2025678215718555,"35":0.23873466145798014,"36":0.10247329626184362,"37":-0.0787343140540652,"38":-0.0845483168706317,"39":-0.021392999152815034,"40":-0.10907554325249119,"41":0.1023723324040869,"42":-0.13160925895190265,"43":0.2610173116687525,"44":0.019885012793342555,"45":0.1258122445411058,"46":-0.49657257420861267,"47":-0.30857988466656877,"48":-0.002069859071586564,"49":0.3179462815624021,"50":-0.05957938771145256,"51":0.26137399965047525,"52":-0.1600393300811888,"53":0.006045905908923361,"54":-0.22957110977372727,"55":-0.2511863486491158,"56":-0.06518921345841282,"57":0.10129125251264914,"58":-0.17813511882559283,"59":0.12826242555779072,"60":-0.23295772729418815,"61":-0.21397829432087206,"62":-0.21486130037769519,"63":-0.1505955353532595,"64":-0.11293955866395625,"65":-0.07861536877371345,"66":-0.0676348899855508,"67":-0.01665492058998815,"68":0.022237760541339826,"69":-0.08923243415713675,"70":-0.021694205097430974,"71":-0.11181043654520531,"72":0.08201985744745238,"73":-0.14123605938466402,"74":-0.08385241574988539,"75":0.06860678206177277,"76":0.24951955433096576,"77":-0.0879247088700511,"78":0.09528645335705505,"79":0.016822510783985386,"80":-0.19217401154007185,"81":-0.15327588395915928,"82":-0.17047963688588466,"83":-0.05591979013882361,"84":-0.29197333369290096,"85":-0.1635282840556774,"86":0.12726153768375048,"87":0.03366981868670958,"88":-0.17399324034013297,"89":0.04650970189196482,"90":-0.36123688114460895,"91":-0.10817056204880306,"92":-0.28192783567449686,"93":-0.07058249262156649,"94":-0.06763902709752102,"95":-0.26715090507811334,"96":-0.2786852428292744,"97":-0.24162371519102815,"98":-0.1518836736270157,"99":-0.1455425374816692,"100":-0.09515183948438731,"101":-0.058318476367700704,"102":-0.08493543835701581,"103":-0.07628647493446045,"104":-0.1727889120400778,"105":-0.056119048238858604,"106":-0.20798465690980586,"107":-0.1601545175838104,"108":-0.15061434300414092,"109":-0.059364379933560994,"110":-0.07310567933374568,"111":-0.17243579675929588,"112":0.07617555413226836,"113":-0.14324967824450294,"114":-0.19199804180711538,"115":0.00936985484923633,"116":-0.022244437195293527,"117":0.010768297136647216,"118":-0.18768721563563212,"119":0.06625772968719948,"120":0.1876038557037379,"121":-0.141921276251156,"122":0.10995874987145725,"123":-0.05257733561769949,"124":-0.045676069492554754,"125":-0.1905098097943974,"126":0.12239425713868386,"127":0.1267101674735027,"128":0.2758236693840687,"129":-0.17339062372277997,"130":-0.07658455388117745,"131":-0.06528329570282948,"132":-0.18831872004361375,"133":-0.09863632852324562,"134":0.12845627696276118,"135":0.15137300575566426,"136":-0.09146375169787355,"137":-0.24646804778334067,"138":-0.21931911785407732,"139":-0.035089867280487054,"140":-0.09327702460848955,"141":-0.12360117957384247,"142":-0.08021334813745323,"143":0.13833035948174496,"144":-0.122196240666443,"145":0.07845775587694079,"146":-0.18252206208555016,"147":-0.01973031480292936,"148":-0.11063357163668239,"149":-0.01564975127999814,"150":-0.13999492063198343,"151":-0.11283739003976605,"152":-0.12047993849577512,"153":0.09018676601981399,"154":-0.07338973994101726,"155":0.000566029659716362,"156":-0.1747413693214609,"157":0.09220417922952799,"158":-0.11790780031285057,"159":-0.17657905227553158,"160":-0.039405186224224245,"161":0.09733805068482898,"162":0.17035167682775085,"163":-0.18758783018694317,"164":-0.03791150429525964,"165":0.13428397932971792,"166":0.12742680958166366,"167":0.010953390610652845,"168":0.1067851774463234,"169":-0.030691389107580264,"170":0.13486200021612443,"171":-0.08156480042681546,"172":-0.005158244079694989,"173":-0.04023951412545549,"174":0.1432840951482551,"175":0.17747800071358785,"176":-0.14751200906913803,"177":-0.21268846713604703,"178":0.10961277156937585,"179":-0.19152388749723737,"180":-0.06543904781068811,"181":-0.05986913323332248,"182":0.3001006726597097,"183":0.29597912848497465,"184":-0.12007679518922175,"185":-0.09163850505946763,"186":0.1593344906373373,"187":-0.18228863814945906,"188":-0.07126424649405233,"189":-0.04122947929068132,"190":0.2411681723481429,"191":0.22149520439905734,"192":-0.1715747042281002,"193":-0.10215893974400565,"194":0.05159614233579748,"195":-0.2744513857027607,"196":-0.03831581511172481,"197":0.041880564758380916,"198":0.14879587034623576,"199":0.27918769806576643}},{"sx":5,"sy":5,"depth":8,"w":{"0":-0.05952379053032805,"1":-0.17795801129200498,"2":-0.13008967087135742,"3":0.026527974618664355,"4":0.0852755106510954,"5":-0.026405293582387558,"6":-0.11348435984040527,"7":-0.026375558791572926,"8":-0.06742114264543994,"9":-0.24337655591272642,"10":-0.07842471213027231,"11":-0.09266590482608277,"12":-0.027114950498615478,"13":-0.16601163530428173,"14":-0.02061810393454308,"15":-0.17169219604314295,"16":-0.0931113515917171,"17":-0.25194172670408216,"18":-0.15967861098919828,"19":-0.11512914241598177,"20":-0.23552501078030214,"21":-0.20744569409307195,"22":0.08113703679302053,"23":-0.0015986459405377194,"24":-0.060726917103235876,"25":-0.057844966537531795,"26":-0.12086777434269422,"27":-0.09735739226043874,"28":-0.10393034556379153,"29":-0.16133596868567207,"30":-0.07718490811062367,"31":-0.08295178289226478,"32":-0.019009436592610472,"33":-0.07183299483897274,"34":-0.10361351716011713,"35":-0.11945995830715747,"36":-0.1987284124614444,"37":-0.07521917754243976,"38":-0.060017406005181205,"39":-0.16117608725914445,"40":0.012395395126134186,"41":0.11106870759753781,"42":0.04751339520326004,"43":-0.02898048369528862,"44":0.06861458607714516,"45":-0.020883213968004355,"46":0.06670694106257788,"47":0.0532748888059101,"48":0.11210936939880677,"49":0.03640699640602965,"50":0.10446440339823726,"51":-0.05035191496461561,"52":0.07038964663170491,"53":0.0651919999731054,"54":0.21529750568430708,"55":0.09973154499338285,"56":-0.007001325425544432,"57":-0.21499427564463408,"58":-0.050246240857442274,"59":-0.1821159326614564,"60":0.13862057706160388,"61":-0.30423595591893415,"62":0.27701245103293765,"63":0.11849545734880061,"64":0.052283826868618655,"65":-0.25783113687389214,"66":0.05090479534654225,"67":0.006029646686204739,"68":0.18761847220881936,"69":0.090335865550104,"70":0.2513508212526539,"71":-0.015071652515933984,"72":0.1646294697340115,"73":-0.27674143128969597,"74":0.02657319205307969,"75":-0.16105888444783686,"76":0.15891419568396198,"77":-0.05450146509663923,"78":0.27384366251233927,"79":0.18215401551713847,"80":0.0415794719653155,"81":0.06047562184193832,"82":-0.02220707556916267,"83":-0.0923198144125675,"84":-0.0073727649215987075,"85":0.09643504624075386,"86":0.010529796751175186,"87":0.028960150180341378,"88":-0.036270548650272905,"89":0.27754311552536065,"90":0.1402969472522853,"91":0.03400376712909071,"92":0.18514299829237518,"93":-0.00552035969783821,"94":0.01803722308826265,"95":-0.09442642320559225,"96":0.06741335080609077,"97":0.11056779670193202,"98":0.0278496922963831,"99":-0.13245688207643427,"100":0.1807024067523995,"101":-0.12265492848440657,"102":0.00603936198029109,"103":0.0741368648355085,"104":0.13247980628938216,"105":0.11265661921182203,"106":0.06531297224660894,"107":0.17086139064539674,"108":0.2561084789209203,"109":0.05352676390407852,"110":0.14911993318987382,"111":-0.15692521650017144,"112":0.09895195926748915,"113":0.20748818171751873,"114":0.16440833362444388,"115":-0.08190253157115446,"116":0.007984505088597521,"117":0.060198696879159214,"118":0.11322680096493301,"119":-0.04827989696214158,"120":-0.06004173212313701,"121":-0.11759727113144565,"122":-0.06801704884518862,"123":-0.2809124876251282,"124":-0.21611366720800707,"125":-0.09772972226808765,"126":-0.15550906885628252,"127":0.06881954094699927,"128":-0.327632747924604,"129":0.09692316501968395,"130":-0.17225113420694427,"131":-0.18700801125232702,"132":-0.14561809071364906,"133":0.017945456713153254,"134":-0.12638903862793155,"135":0.04378282704000216,"136":-0.12570693921660134,"137":0.10780788434064181,"138":-0.17338961826027324,"139":0.004436089663347311,"140":-0.07420098247074369,"141":0.20416116343436216,"142":-0.15983445141819072,"143":-0.04570640703237826,"144":0.08527484317526692,"145":0.06825667239773354,"146":-0.34152658851447926,"147":0.09989576721115853,"148":-0.3017950707278685,"149":0.014280583663536734,"150":-0.4132290666330489,"151":-0.3086937630076336,"152":0.02333433409673015,"153":0.14578082533491524,"154":0.09881759367568402,"155":0.32088408363899235,"156":-0.23113278352812414,"157":-0.0923242606635032,"158":-0.30540705111915384,"159":-0.4426717844915791,"160":-0.15670652958839149,"161":-0.0812303189527825,"162":0.03874303283170245,"163":-0.029682916058956534,"164":-0.0726896875605907,"165":-0.01671827966504174,"166":-0.11819257077170865,"167":0.006366898914733485,"168":-0.31437302487636876,"169":-0.07008700732721818,"170":-0.194155180176702,"171":0.0778090355609387,"172":-0.06508485780265787,"173":0.023481486320118167,"174":-0.03964898142588414,"175":0.011888760188428424,"176":-0.28683542756157016,"177":-0.03627711390634221,"178":-0.27202787113376337,"179":0.2520679873343842,"180":-0.04297179889371583,"181":0.013850444767066743,"182":-0.06992401772367289,"183":-0.06065179525710054,"184":-0.2847368690660264,"185":-0.06927167776546948,"186":-0.21451797239081583,"187":0.22239799199158372,"188":0.20253367916126555,"189":-0.00401191556611822,"190":0.0007502415824270456,"191":-0.2102327063722973,"192":0.03511958255412101,"193":-0.21603190810816483,"194":-0.0791828488670505,"195":-0.15940818653141264,"196":0.22189296368345804,"197":0.002220007359247323,"198":0.007813771358983628,"199":-0.3029845011500512}},{"sx":5,"sy":5,"depth":8,"w":{"0":-0.11224397448102368,"1":-0.08621596582687699,"2":-0.08596910116407186,"3":-0.057537479221515024,"4":0.07348386309891725,"5":-0.0402799866754039,"6":-0.10733234976163845,"7":-0.06496058313211557,"8":-0.1530686339396768,"9":-0.149176441841188,"10":-0.23673844796582547,"11":-0.08297759052572964,"12":-0.09216841875696967,"13":-0.04402390164329705,"14":-0.2957021117723688,"15":-0.10557910774906852,"16":-0.05018999359037116,"17":-0.19292186425334795,"18":-0.19600499343657146,"19":0.023792045961917602,"20":-0.1538271529075811,"21":-0.036763470025410694,"22":-0.2484341265824386,"23":-0.03252709084544404,"24":-0.2538610250401702,"25":0.1159687392679581,"26":-0.04637166858946852,"27":0.0491624644368603,"28":0.10857954020514564,"29":0.011484365754657366,"30":-0.09046560340142949,"31":0.040330693038928,"32":-0.063647347265446,"33":0.009564232166269828,"34":-0.19405060306686067,"35":0.09503816368314393,"36":0.19129995427589536,"37":0.04672723300234876,"38":-0.25792047903399,"39":-0.1560053830797921,"40":-0.012491347099295197,"41":-0.14647409726359928,"42":-0.17101124704105072,"43":-0.07818511224312245,"44":0.1451995340996707,"45":-0.15454045592751917,"46":-0.12872228888530762,"47":-0.244385766320145,"48":-0.16117315938272622,"49":-0.30112646830757606,"50":-0.08675259532088674,"51":-0.09245921769870302,"52":-0.16032728734937957,"53":-0.08740982651087383,"54":-0.0074393167714648396,"55":-0.09530413970670608,"56":-0.22132750076315957,"57":-0.14180803246321239,"58":-0.18995860117263622,"59":-0.14210288441208704,"60":-0.17378990737133462,"61":-0.36137743611197454,"62":-0.12688317980322944,"63":-0.06381929730510345,"64":-0.008784133824319989,"65":0.15184313514013306,"66":-0.1341170324426463,"67":-0.06216369879382518,"68":-0.25244544961096715,"69":-0.027959685704592934,"70":-0.11537955473666862,"71":-0.039164151967791896,"72":-0.2512145787066529,"73":0.16437996424063972,"74":-0.0965383563594686,"75":0.01670956617235938,"76":-0.23208518718089383,"77":0.12955888564575346,"78":-0.1536661238303464,"79":-0.30025837290470336,"80":0.006758835190430123,"81":-0.4532373974565309,"82":0.022999423903978487,"83":-0.36736243134358926,"84":0.21641086072734186,"85":-0.06953978601801021,"86":0.11160439986470577,"87":0.05637815442695846,"88":0.0951731858026221,"89":-0.2511395541140483,"90":-0.09214945987951194,"91":-0.02568895711762521,"92":0.0592129142430276,"93":-0.0612555428968583,"94":0.26584768301571404,"95":0.02910322775417682,"96":0.10053220551122276,"97":-0.1929519674765345,"98":0.10958817322369814,"99":-0.23746224132069696,"100":0.06163447288937364,"101":-0.2158380928051462,"102":0.2210686175743513,"103":0.06550919376003478,"104":0.06707163254837487,"105":-0.05647402451978372,"106":0.1787380988524904,"107":0.003753858429196659,"108":-0.058176665133971746,"109":-0.191971083068427,"110":0.3342569074475475,"111":0.1888640299036188,"112":-0.07312664332022153,"113":-0.07023889571727719,"114":0.08532756920833577,"115":0.020179896295694503,"116":-0.04456582380786135,"117":-0.046199560916777765,"118":0.22229997701389972,"119":0.32905863513732736,"120":0.13753850133723028,"121":-0.0814632315540745,"122":0.08673302114979586,"123":-0.08921838027229133,"124":-0.18342736109580013,"125":-0.11585186112897677,"126":0.017565727752998785,"127":0.12030748439261585,"128":0.07720387826345969,"129":-0.07943691473014039,"130":0.06786539722666934,"131":0.0063838412705258425,"132":-0.18695469436389153,"133":-0.10100707519281234,"134":-0.05365409274412626,"135":-0.08665425225147601,"136":0.14756571094274654,"137":0.06257165233150505,"138":-0.03845259240230951,"139":-0.09800149682701595,"140":-0.1945986952707774,"141":-0.1233652537569518,"142":-0.06681475965428092,"143":0.06300600139415653,"144":0.05779850992483737,"145":0.03700197331159439,"146":0.07923642579938611,"147":0.000038345893761350695,"148":-0.06228333816131522,"149":0.017990382614165235,"150":-0.013887620919645804,"151":0.001540725954814264,"152":0.1303499032460149,"153":-0.1071836514592297,"154":0.1432621043686277,"155":-0.17859733346294857,"156":0.019669481689846797,"157":0.10810328769179163,"158":0.2544477983156205,"159":0.16104599799884603,"160":0.08921586500229586,"161":0.14133182130811822,"162":0.031555575184389256,"163":-0.1666849337779998,"164":-0.10715103113359506,"165":-0.09098354600260727,"166":-0.1468110184282135,"167":-0.09004319294786403,"168":0.03957357390165921,"169":0.08691494253188342,"170":0.19054214016536533,"171":-0.12309964407288582,"172":-0.29386298931643834,"173":-0.0008444525912319355,"174":-0.21160368551026137,"175":-0.1003370312787159,"176":0.03218581041467038,"177":0.019037329448175558,"178":0.1408469058725152,"179":-0.09330867914915149,"180":-0.20417581132011792,"181":-0.049492998161984235,"182":-0.11497276521776723,"183":0.040861174370030236,"184":-0.11139845564859994,"185":0.10026301957630701,"186":0.04593476790235645,"187":-0.1820750452384958,"188":-0.13076842171229958,"189":0.14032533714288092,"190":-0.06084870923526,"191":-0.0067788975837954684,"192":0.08880181321769004,"193":0.1394629262972186,"194":0.25047334562989804,"195":-0.047886627537049246,"196":-0.0514708520047564,"197":0.2849757947171102,"198":-0.05230717439336551,"199":0.02908713503867012}},{"sx":5,"sy":5,"depth":8,"w":{"0":0.05253896427561554,"1":0.2363055532759806,"2":-0.08667753621041972,"3":0.11287045884035962,"4":0.27923164019721486,"5":0.22365788679633475,"6":0.18409918262935404,"7":0.07303591822013486,"8":0.06355432919125323,"9":0.14505363124004134,"10":0.05102223532542023,"11":-0.13917883954870797,"12":-0.16458494159761564,"13":0.13296063422401166,"14":0.10133835480675468,"15":0.03938832739997496,"16":0.23471885955790828,"17":0.043859990173635344,"18":-0.04346516277803462,"19":-0.052486192197658335,"20":-0.16743956317421282,"21":-0.030951387342989748,"22":-0.02673756195183925,"23":-0.032301130791554465,"24":-0.16562762874000134,"25":-0.07430502360998763,"26":-0.07289332456933922,"27":-0.07719346250358573,"28":-0.06366564367264703,"29":-0.11736888955362852,"30":0.07448760589523908,"31":-0.027165017663377516,"32":0.13848687874228208,"33":-0.10546646491342011,"34":-0.17896476288104043,"35":-0.07199395327642748,"36":-0.2705272122001051,"37":0.009794637290807519,"38":-0.06308296521905075,"39":-0.05905657695522393,"40":0.24765169963678785,"41":-0.13341165760944002,"42":-0.07931682161829125,"43":-0.07204335345304828,"44":-0.047282967815474086,"45":-0.10240084668935978,"46":-0.18010608950675205,"47":-0.11822011954836537,"48":0.29457331671288445,"49":0.016257791115453196,"50":-0.07104844817041894,"51":0.08710556379164526,"52":-0.061180261499742296,"53":-0.21436404671519094,"54":-0.06796706848320841,"55":-0.01954876561675014,"56":-0.14502311291397885,"57":-0.14554094670947118,"58":-0.047848978651233755,"59":0.06253109871626243,"60":0.05102426160953703,"61":-0.060728388442441626,"62":-0.11314599731065153,"63":-0.16055821384005384,"64":0.07148527088993722,"65":-0.2083951255884997,"66":-0.06143067056629578,"67":-0.12216835580867005,"68":0.013323562938344474,"69":0.09715819737830216,"70":-0.18254556783606735,"71":-0.06201765586374375,"72":-0.16655956537652192,"73":-0.25297088889620756,"74":-0.10363324915948927,"75":-0.033559614210938574,"76":-0.2328320113328638,"77":0.11063624722455276,"78":-0.046392904401787886,"79":-0.012961366562110275,"80":0.07070937668360566,"81":-0.17450458051758802,"82":-0.04752980039302704,"83":0.03995665019988392,"84":-0.14931031106580855,"85":-0.12043155173717544,"86":0.19070941794420831,"87":0.1957017492742425,"88":-0.12547520661081016,"89":-0.1964634011999048,"90":-0.1571213498269698,"91":-0.022649151218840008,"92":0.28612864306724595,"93":0.3006192929750011,"94":0.15900090335628506,"95":-0.023441064479121785,"96":0.25236094123948016,"97":-0.24156303337650906,"98":-0.0539189285339345,"99":-0.026647533980004356,"100":-0.06353903394176566,"101":0.19119123325543133,"102":-0.035697277514978705,"103":-0.06999760346156528,"104":0.0005514574139997541,"105":0.06601144601888054,"106":0.05891923992629557,"107":0.07696196073691323,"108":-0.06906523755637026,"109":-0.10813731698777017,"110":-0.11431023436809117,"111":0.005565819723543929,"112":-0.04175128746256205,"113":0.057207042842157094,"114":-0.023340415972868615,"115":0.12381195957664812,"116":-0.2945976053275608,"117":0.05409465342351933,"118":-0.11574838762787942,"119":-0.0034801115762958077,"120":0.1579668884708813,"121":0.2593821841473705,"122":0.16849657365049123,"123":0.02439932922920637,"124":-0.038492924362521094,"125":-0.08080712874870102,"126":0.20385201224105634,"127":0.0513523941916628,"128":0.27709396895639393,"129":0.1360383713816646,"130":0.18970192221363613,"131":0.3187454156816155,"132":-0.15200808990285272,"133":0.024305359121178677,"134":0.06337760531132479,"135":-0.03651396856474376,"136":0.31593733509209493,"137":0.15501242372212892,"138":-0.08239189994451315,"139":0.22723323870376952,"140":-0.18623232830493106,"141":-0.0008139893160058347,"142":-0.2005094355216416,"143":-0.14150650635724712,"144":-0.07978201298211587,"145":0.09059803643327982,"146":-0.04225551233084993,"147":-0.07954097528568586,"148":-0.0883443590932339,"149":-0.016809028557218882,"150":-0.13432780464558491,"151":-0.1111209824508734,"152":-0.15852683353171051,"153":-0.24671482727431834,"154":0.009664817605081448,"155":-0.14033495355763645,"156":0.00881926637461893,"157":-0.07583995862393994,"158":0.005629726972793609,"159":-0.058174162895982325,"160":0.1912535524381372,"161":0.316689849008077,"162":-0.3095924669240354,"163":0.19561773636866275,"164":0.039166832552956145,"165":0.1670772463640416,"166":-0.11834331164192796,"167":-0.254030759239628,"168":0.15440020150538153,"169":0.29834347845697895,"170":-0.0983973216090793,"171":0.22207583873362008,"172":-0.036506959135574286,"173":0.055038861840738675,"174":0.014926218405030812,"175":-0.33344294906789124,"176":0.07239123280013283,"177":0.08771145714532338,"178":-0.20067158343561034,"179":0.03482366973147741,"180":0.12313149600682086,"181":-0.1554129568320927,"182":-0.05381704316047084,"183":-0.1587860077562574,"184":-0.09393267405316223,"185":-0.1633993100543039,"186":-0.04019125155410661,"187":-0.18714337031735143,"188":0.24064159676372598,"189":0.06833101179566947,"190":0.19303881912630833,"191":-0.193278493499119,"192":-0.05190828219852022,"193":-0.3419978871019424,"194":0.16726440472041193,"195":-0.17201865382093137,"196":-0.06308584883175865,"197":0.06717284664268439,"198":0.025848289382176808,"199":-0.10457616546065727}}],"biases":{"sx":1,"sy":1,"depth":16,"w":{"0":-0.02161489582591851,"1":-0.007064507625161011,"2":-0.08082622295747599,"3":0.0045433989175325375,"4":-0.035298939395877006,"5":-0.002558266978040391,"6":0.06923699961409913,"7":0.06483020497112067,"8":-0.015356717602288333,"9":-0.08700505526719125,"10":0.05705701146467917,"11":0.035645143283339314,"12":-0.1263789921177979,"13":-0.06095587162549545,"14":0.04715386761710827,"15":0.06552929902608569}}},{"out_depth":16,"out_sx":12,"out_sy":12,"layer_type":"relu"},{"sx":3,"sy":3,"stride":3,"in_depth":16,"out_depth":16,"out_sx":4,"out_sy":4,"layer_type":"pool","pad":0},{"out_depth":10,"out_sx":1,"out_sy":1,"layer_type":"fc","num_inputs":256,"l1_decay_mul":0,"l2_decay_mul":1,"filters":[{"sx":1,"sy":1,"depth":256,"w":{"0":-0.011350760429836883,"1":-0.10881349979652699,"2":-0.04597868607485067,"3":-0.12363946136808537,"4":-0.06876939582049864,"5":-0.24608588792699782,"6":-0.01930164803582332,"7":-0.08142256083466783,"8":-0.03070609131270807,"9":0.03358505578092944,"10":-0.20259010519406176,"11":-0.07293454951368156,"12":0.06262874579086974,"13":-0.206305375072389,"14":-0.1431011889867116,"15":0.12400045366357254,"16":0.02480937031851477,"17":-0.016734729199400968,"18":-0.12743901550338912,"19":0.08124315792002329,"20":-0.1998225154278821,"21":-0.07684837564255126,"22":-0.05609314712151282,"23":0.07339878216843661,"24":-0.016058868046398844,"25":-0.030692824510158763,"26":-0.08835898548182379,"27":-0.03733881139167339,"28":-0.08813365657614121,"29":-0.12646636696079178,"30":0.011795408199512396,"31":-0.018614624515491587,"32":-0.048269039596008374,"33":0.024840166616430057,"34":-0.13326351703151224,"35":-0.10936497592452925,"36":-0.13125888574326997,"37":-0.009421138611107615,"38":-0.1546228422673389,"39":0.022345640394983254,"40":-0.09804927702052513,"41":-0.065902199991846,"42":-0.10105223080969446,"43":-0.15276435494579055,"44":0.11848797086982106,"45":-0.06521531850344292,"46":-0.017918539179045886,"47":-0.14761906728591787,"48":-0.11524938462373097,"49":-0.05211133676778774,"50":0.08021444189872495,"51":-0.1309906921959381,"52":0.07515580911580663,"53":0.045010870362244375,"54":-0.06123245464710157,"55":-0.2230529981063574,"56":-0.09327703391233592,"57":-0.1069260315693638,"58":0.15524780464009105,"59":-0.05545609419301498,"60":0.03236661663798646,"61":-0.005092445209181055,"62":0.011297873935030253,"63":-0.3442660780120644,"64":0.15625407425583646,"65":-0.03955387902830832,"66":0.05981503725524835,"67":-0.01754012900391113,"68":-0.02300197913370871,"69":-0.22135808021445674,"70":0.0779376671306476,"71":0.09586281937800073,"72":-0.11099416553313754,"73":-0.15032084974757126,"74":-0.28791378784817373,"75":-0.022718635717131133,"76":-0.4039218958951983,"77":-0.18579019270258246,"78":-0.11393695114708986,"79":0.07583871024304686,"80":0.026650376278478077,"81":-0.040434456318524964,"82":-0.011279473093244254,"83":-0.08728423015409129,"84":0.03563375235929194,"85":-0.11659400254563587,"86":0.1843699979501868,"87":-0.014367499988013122,"88":-0.006914249959066732,"89":-0.14629142758708227,"90":-0.2588947053488686,"91":0.026555314872504978,"92":-0.02719223189637259,"93":-0.19707231867406538,"94":-0.07554416003594223,"95":-0.061265139977897544,"96":-0.06590429532595159,"97":0.13926663034793252,"98":-0.05717647824089595,"99":0.12805684244310053,"100":-0.03708263590989115,"101":0.025810290173879105,"102":-0.0536571823667612,"103":0.0006366894110967681,"104":-0.203232749398421,"105":-0.11180575024077477,"106":-0.011348536496560178,"107":-0.0003276897508797798,"108":-0.256521033531424,"109":-0.017017263944986483,"110":-0.05488775222117614,"111":-0.37863336647428064,"112":0.017817582572638463,"113":-0.21499503163406095,"114":0.18669947929657915,"115":0.0477965617047505,"116":-0.07440968355078989,"117":0.1389715449257122,"118":-0.23633668974621563,"119":-0.23550675330852902,"120":-0.42541202239207143,"121":-0.2135102071065041,"122":-0.04233484488069519,"123":-0.2039206537516329,"124":-0.35212943237058586,"125":-0.03954856458644157,"126":-0.05923606950871813,"127":-0.21946753958374185,"128":-0.10985251965888643,"129":-0.021350757009861294,"130":0.05045459462050697,"131":0.0666342682104126,"132":0.20460249035237987,"133":-0.04992164656701443,"134":0.10013307831055594,"135":-0.13929396374343075,"136":-0.30088588039309117,"137":-0.3226196696716207,"138":0.017191779132811256,"139":-0.043182859848424224,"140":-0.2008152767812096,"141":-0.24257597420305116,"142":-0.2598842898876491,"143":0.0305423686967033,"144":-0.10163902729892696,"145":0.036673374884380196,"146":0.02113643051313855,"147":-0.11656456867288452,"148":0.12609572896335244,"149":-0.15364166941787777,"150":0.02075922336893282,"151":-0.058720734311731526,"152":0.057898939032583356,"153":-0.2422625929223097,"154":-0.03271863704812663,"155":0.0676708841042648,"156":-0.1272000025056409,"157":-0.2081530115162202,"158":-0.18170071921446787,"159":0.010108294171028058,"160":-0.20026390514394007,"161":-0.09951706563043045,"162":-0.32369116190396485,"163":0.09599170799325672,"164":-0.022129255686184873,"165":-0.0662604571428476,"166":-0.0908482714539358,"167":-0.22145618456263177,"168":-0.02261586640091389,"169":0.031110417140199718,"170":0.1723566162469432,"171":0.002879109626218999,"172":-0.11662699161286628,"173":-0.12407435547937297,"174":-0.06619027328339126,"175":-0.1678601589056768,"176":-0.19289965258692152,"177":-0.16778485044920727,"178":-0.07615097473120849,"179":0.014870043355143176,"180":-0.10238850799929579,"181":-0.02338119028357619,"182":0.11758973186236787,"183":-0.06967871626010527,"184":-0.14883963474180206,"185":-0.13895937314524393,"186":-0.07272006238009739,"187":0.025357372989388324,"188":-0.2961396970949004,"189":-0.044830559578207155,"190":-0.1495075775351712,"191":0.09076439778080805,"192":-0.06529407070788806,"193":0.03460368237042123,"194":0.09789020277155375,"195":0.13552754777468107,"196":-0.009569976931421826,"197":-0.07113463351308373,"198":-0.07247620269363031,"199":-0.2488383789436195,"200":0.002968570740686999,"201":0.1466509735627889,"202":-0.05433356360187067,"203":-0.1650468991474652,"204":0.0612698833558108,"205":-0.1680047483517166,"206":-0.2429392770531236,"207":0.0005201374508364848,"208":0.02959167835794705,"209":0.13180818989381926,"210":-0.03352190448572407,"211":-0.25795905979170974,"212":-0.06965708019435744,"213":0.01008634541980644,"214":-0.3507157054840325,"215":-0.11544988624933147,"216":-0.13301371243967244,"217":0.061718512593946076,"218":0.06137219740741799,"219":-0.001441937731731352,"220":-0.07393765652771406,"221":0.04206692433110351,"222":0.004427802147251909,"223":0.005041289212417511,"224":-0.1180436679522074,"225":-0.048835216113270456,"226":-0.2961173149427692,"227":-0.22782488480018254,"228":-0.2147260992193436,"229":0.10037951703584612,"230":-0.07335475667205506,"231":-0.419829229918304,"232":0.12253014749062138,"233":0.10340774013705333,"234":0.02612517401983406,"235":0.044758420082611404,"236":0.20170411577889807,"237":-0.009368348733503165,"238":-0.004156281337980742,"239":-0.04686953899921562,"240":-0.012429688344434614,"241":-0.192460864748275,"242":-0.2001803749131767,"243":0.01312519164578106,"244":-0.07491434387715451,"245":-0.22868257446457077,"246":0.083192517024451,"247":-0.03168246222974485,"248":0.1681214519115904,"249":0.10910010182833067,"250":-0.18894014876518148,"251":0.10737838278670848,"252":0.11229880448173124,"253":-0.02787056878355159,"254":0.06891682948601947,"255":0.01715597255956113}},{"sx":1,"sy":1,"depth":256,"w":{"0":-0.12745216136987925,"1":-0.009421449402266868,"2":-0.1010157095936674,"3":-0.024543207931326215,"4":0.03640214079918187,"5":-0.06984613050887642,"6":-0.04219855054194547,"7":-0.03011935485072048,"8":0.01063422668854676,"9":-0.07746533332089323,"10":0.14663977212844992,"11":-0.11660826553345631,"12":-0.10581850035996418,"13":-0.05046070081015836,"14":-0.12758355951172584,"15":0.17549875886039262,"16":-0.10249120507748673,"17":-0.1296072418097531,"18":0.17978566189298098,"19":0.07321466483182189,"20":0.04957286328047528,"21":0.08608197236475335,"22":0.031582238617194,"23":0.19118344235864593,"24":-0.1348786894831068,"25":-0.10070104677043812,"26":0.015312888802469882,"27":-0.08161432581166185,"28":-0.056020017535024495,"29":-0.055179681342794364,"30":-0.13329122304971738,"31":-0.21817691049756466,"32":-0.0007528480742736729,"33":-0.07858395815721171,"34":-0.043319972820998115,"35":0.155515540854726,"36":0.1258414079620588,"37":-0.14243580880920956,"38":0.23311158324774925,"39":0.31434961640301895,"40":-0.10219428843511179,"41":-0.05531673521313393,"42":0.12625902043753165,"43":0.007479870619635142,"44":-0.0354440666151526,"45":-0.32276077825116833,"46":-0.22340404982596457,"47":-0.17632345534704863,"48":-0.03527836658914402,"49":-0.2065232952252048,"50":-0.025943818562351246,"51":-0.058541767973318254,"52":0.07840666506331698,"53":-0.04602728881670907,"54":0.07052893092516341,"55":0.026683928391372607,"56":0.1334313780080012,"57":-0.15823024646402356,"58":-0.11385951949467767,"59":-0.059743195074989104,"60":-0.036977208387541094,"61":-0.08285921387147624,"62":-0.18758081229170523,"63":-0.08790687688655592,"64":-0.01334747951364714,"65":-0.013155543975771056,"66":-0.1855107835660295,"67":-0.26845217608697314,"68":-0.0249717483579834,"69":-0.1747995738390317,"70":-0.23384636248034402,"71":-0.2820659387373899,"72":-0.17739153639952537,"73":-0.18818031602441937,"74":-0.11027033953178934,"75":-0.1469013936434059,"76":-0.07571074384052807,"77":-0.047745734767117215,"78":-0.21751942515030476,"79":0.04962345280606878,"80":-0.18053286101548613,"81":-0.08627982374839596,"82":-0.13073130562783422,"83":0.2124571124678685,"84":-0.26763209520980835,"85":-0.2281928108821656,"86":0.012284917759110225,"87":0.019917750463171374,"88":-0.07531246717391579,"89":-0.23120200278878317,"90":0.0011060824902574455,"91":-0.07070794708423488,"92":-0.0939972687562048,"93":-0.0993236507067207,"94":-0.1315281205332801,"95":0.06716116192491164,"96":0.06648324822881588,"97":-0.07784289918180537,"98":-0.07227351008151478,"99":0.047500566873092294,"100":0.08468663372119477,"101":-0.19183863082717656,"102":0.09096527604371776,"103":0.33121223106660647,"104":-0.15695045443001188,"105":-0.517408490656361,"106":0.24901575910562118,