{"layers":[{"out_depth":1,"out_sx":24,"out_sy":24,"layer_type":"input"},{"sx":5,"sy":5,"stride":1,"in_depth":1,"out_depth":4,"out_sx":24,"out_sy":24,"layer_type":"conv","l1_decay_mul":0,"l2_decay_mul":1,"pad":2,"filters":[{"sx":5,"sy":5,"depth":1,"w":{"0":0.049426976970166486,"1":0.10612005529504964,"2":-0.3362674954700161,"3":0.39782552626014134,"4":0.13125696155952338,"5":-0.3725562906168836,"6":0.05815585760399108,"7":0.32688293421271714,"8":0.548321975489359,"9":0.4302691636179393,"10":-0.019811604943288784,"11":-0.03950564733517507,"12":0.4334571296338703,"13":0.7210916672549829,"14":-0.09387279746951646,"15":-0.4161421472666813,"16":-0.3926867997068284,"17":0.519858380066158,"18":-0.013024288365387023,"19":0.09448832841410887,"20":-0.293415923589578,"21":-0.10806186010016382,"22":0.16567867056578459,"23":-0.1015230677407241,"24":-0.0588907974049706}},{"sx":5,"sy":5,"depth":1,"w":{"0":-0.28802139889726625,"1":-0.4845624390235237,"2":-0.5728958372368009,"3":-0.39595981206630904,"4":-0.25901998957790423,"5":-0.24734832685850164,"6":-0.521016367605324,"7":-0.39095897235217175,"8":-0.5198240461454985,"9":0.16858798019861193,"10":-0.5342076312214548,"11":-0.15272552517692523,"12":0.01300769746712991,"13":0.09167130993535194,"14":0.263567305826045,"15":-0.2817278845156831,"16":-0.007046406056530351,"17":0.23565819561488746,"18":0.1337651337405505,"19":0.4028590062314865,"20":0.6634680924497733,"21":0.36264964958493245,"22":0.37484435492316437,"23":0.3403638719949724,"24":0.30951678965868124}},{"sx":5,"sy":5,"depth":1,"w":{"0":0.1471850511863131,"1":0.011157336083315511,"2":0.0994127731487987,"3":0.45213330517545264,"4":0.782988280917324,"5":0.42266694653543607,"6":-0.06317126418103576,"7":0.001691855374652754,"8":0.45525304519831117,"9":0.2005281113666836,"10":-0.326830420467681,"11":0.08011939796249118,"12":0.20376321060240146,"13":-0.08014332099239209,"14":-0.06225407146089735,"15":-0.8654903743322635,"16":-0.548044324823071,"17":-0.41996288113698765,"18":-0.5212979286164171,"19":-0.7440472485097446,"20":-0.44028146396807977,"21":-0.7868996579189649,"22":-0.9870844951151589,"23":-0.720894103629999,"24":-0.3208622760084019}},{"sx":5,"sy":5,"depth":1,"w":{"0":0.14193519140647295,"1":0.4757767975178673,"2":0.47456594816011377,"3":0.3871661019548374,"4":-0.21874706914644043,"5":0.34890395520316436,"6":0.28573156497698854,"7":0.4069602544700129,"8":0.435638272950913,"9":0.5359006444193374,"10":0.41206279022556946,"11":0.12908970543100304,"12":-0.08804715814164421,"13":-0.0185114162757042,"14":0.26990231308420504,"15":-0.25268118117479244,"16":-0.42556049777838934,"17":-0.27173300881543405,"18":-0.15213828869171087,"19":-0.20071656616919079,"20":-0.3654955946508454,"21":-0.7051125135440743,"22":-0.24017527681443965,"23":-0.40959448311634333,"24":-0.3771938909022149}}],"biases":{"sx":1,"sy":1,"depth":4,"w":{"0":-0.006437603753837462,"1":0.013660157161232324,"2":0.175882168694799,"3":-0.009264028863593683}}},{"out_depth":4,"out_sx":24,"out_sy":24,"layer_type":"relu"},{"sx":2,"sy":2,"stride":2,"in_depth":4,"out_depth":4,"out_sx":12,"out_sy":12,"layer_type":"pool","pad":0},{"sx":5,"sy":5,"stride":1,"in_depth":4,"out_depth":16,"out_sx":12,"out_sy":12,"layer_type":"conv","l1_decay_mul":0,"l2_decay_mul":1,"pad":2,"filters":[{"sx":5,"sy":5,"depth":4,"w":{"0":-0.022750184687957968,"1":0.5217387109738595,"2":-0.3647803227026248,"3":-0.430535376403262,"4":0.0595294991665334,"5":0.030909281079048435,"6":-0.31088757056803035,"7":-0.35241012904297125,"8":-0.2086989031300055,"9":-0.12351351224891263,"10":-0.017616261721217934,"11":-0.008081011745649196,"12":-0.5583472661757586,"13":0.24317046962415162,"14":0.23900758295587377,"15":-0.08726341086924863,"16":-0.12781342889042177,"17":0.1837123853617959,"18":-0.09525583109706871,"19":-0.14573779693356265,"20":0.2339661863036901,"21":-0.13492764878224656,"22":-0.2811721972444178,"23":-0.03195166742792235,"24":0.14999292190968,"25":-0.06886810011786572,"26":-0.09653529011187748,"27":-0.0383180819649276,"28":-0.16924613802369695,"29":-0.03387258778353427,"30":0.142842239913909,"31":0.0015266412706294382,"32":-0.15490932147012726,"33":0.07578393028359558,"34":0.052617836124604474,"35":-0.1832243185341734,"36":-0.10524989798890469,"37":0.22863984902997525,"38":-0.3516546241672237,"39":-0.14959477275769478,"40":0.1817732320443552,"41":-0.1903626120938879,"42":-0.6460562828436939,"43":-0.03509535374896151,"44":0.00967798039859354,"45":-0.30711925860780664,"46":0.07659805516508729,"47":0.2555576313550796,"48":0.13470143753337854,"49":-0.29690664494821084,"50":0.16509592629662936,"51":0.011120324828188166,"52":0.05227503030858713,"53":-0.25728310926162007,"54":-0.025788730104910604,"55":-0.08656572606585064,"56":-0.08187027749477108,"57":0.11725861015410137,"58":-0.061944930517796086,"59":0.21040604515387268,"60":0.1734385948567425,"61":-0.20233344702188982,"62":-0.10558410423586198,"63":0.0814347457493266,"64":-0.17120062593615287,"65":0.18712348380830662,"66":0.1307958773168269,"67":0.17020948996123597,"68":0.2196630910181071,"69":0.004293843271254784,"70":-0.3125462210163385,"71":-0.013434569953112506,"72":0.16366686697282318,"73":-0.4043575303831451,"74":-0.2048974722739215,"75":-0.04297824670934932,"76":-0.02658623543775278,"77":-0.1585514664370627,"78":-0.03855539237558117,"79":0.23085322320277066,"80":-0.12360534888201155,"81":-0.1687012540064831,"82":-0.4463711918094488,"83":-0.18463312290940767,"84":-0.03351601835378444,"85":0.14551395033533734,"86":-0.2596971707658897,"87":-0.1510855834843521,"88":-0.012552225876271392,"89":-0.05492915596999864,"90":-0.18646793781926757,"91":0.16386653887585736,"92":-0.13448305323800247,"93":0.06852467881373074,"94":0.039208895937966184,"95":0.215202878415431,"96":-0.04346843058839282,"97":0.11799629710800534,"98":0.05453551454097469,"99":-0.37305016610543495}},{"sx":5,"sy":5,"depth":4,"w":{"0":0.025539984015108173,"1":0.2618509476140532,"2":0.29003070643325796,"3":0.09558226646667548,"4":0.293706478570596,"5":0.0559673426636647,"6":-0.24468029167975927,"7":0.05049112437653228,"8":0.1863162312680102,"9":0.07371344385126843,"10":-0.415832557136674,"11":-0.1138628689239056,"12":-0.009607424619911696,"13":0.17713257194725582,"14":-0.2602783528323501,"15":0.14704779441095775,"16":-0.13047407094714822,"17":0.04533661873713435,"18":-0.0505058599064182,"19":0.23208426726439838,"20":0.05291829099526535,"21":-0.012618401369276956,"22":0.2981018139032163,"23":0.003375284952497214,"24":0.2156003464620264,"25":-0.009065054855191105,"26":-0.33927388989887736,"27":-0.2526400191242216,"28":0.27048306369200165,"29":0.11220627106319248,"30":-0.47304176075433235,"31":0.025107577971262725,"32":0.07410202998674255,"33":0.2163400239582694,"34":-0.08010535924149206,"35":0.17511434657279476,"36":0.01490371517752404,"37":0.3315611039740999,"38":0.03877052930041722,"39":0.37571715542144585,"40":-0.17949721559912402,"41":-0.05393465203322162,"42":-0.15431942059450102,"43":0.02443636765245462,"44":0.046909737590502765,"45":-0.19631688522091587,"46":-0.2239104942856752,"47":-0.2873671914216653,"48":0.1533419298565543,"49":-0.23288731429408077,"50":-0.7154571256290515,"51":-0.5815121106688204,"52":0.10864908526075936,"53":-0.12163494724393892,"54":-0.4365207160672651,"55":-0.5356025353753688,"56":0.14647762255028812,"57":-0.003428493080658617,"58":-0.2505111307630864,"59":0.06421462892628088,"60":-0.31548537898125,"61":-0.28927881228885627,"62":-0.005879622136445121,"63":-0.08909508602764997,"64":0.10344455329701598,"65":-0.36649248840208837,"66":0.2992717763730383,"67":0.19198190436512316,"68":0.11469390645952686,"69":-0.39122105356972736,"70":-0.13763002624997997,"71":-0.2629563000088815,"72":-0.0351510573471776,"73":-0.35182787889692113,"74":0.06201856328026328,"75":-0.5849791799677682,"76":-0.02157134225870725,"77":-0.05131108576409544,"78":-0.22156583630209203,"79":-0.3354641598853192,"80":-0.4714767588340896,"81":0.004356525560102841,"82":-0.03256529707772445,"83":-0.3836901625416044,"84":-0.1031859528413572,"85":0.026103975485884195,"86":0.1954231840178038,"87":-0.12690850597171846,"88":0.0398070293073269,"89":-0.2896066373803922,"90":0.3015955068418148,"91":0.23206424404294773,"92":0.3725520489906098,"93":-0.4528096538531367,"94":-0.045656791787732943,"95":0.13849596807198183,"96":0.1470752900461073,"97":-0.16878521588343068,"98":0.08870190619176024,"99":0.12297648323361664}},{"sx":5,"sy":5,"depth":4,"w":{"0":-0.0864167187869492,"1":-0.12201777351969598,"2":-0.07877615025252829,"3":0.23766301137072,"4":0.09601819616798943,"5":-0.012689638607909903,"6":-0.1498878932832156,"7":-0.14985245781623907,"8":0.03334843630675817,"9":0.2312435734066675,"10":0.3009491144288359,"11":0.07865528673691466,"12":0.04898309713772453,"13":0.0379472758851727,"14":0.12318748008690118,"15":0.15136480674813704,"16":-0.06822174172897752,"17":-0.0675726869947246,"18":-0.3181196043887815,"19":-0.21907106478144148,"20":0.19060422686332723,"21":-0.19478850996869507,"22":0.21388982047933175,"23":0.049662679531524874,"24":0.25364195902902037,"25":-0.21961153415816095,"26":0.08782535095696409,"27":-0.009410992868022147,"28":0.24082821993422512,"29":-0.10758858654545099,"30":-0.11839264195024567,"31":0.1560280147560812,"32":0.22369928483317644,"33":-0.26837799949035923,"34":-0.025711184711521902,"35":0.053188519381817775,"36":0.16631238825451844,"37":-0.4373360181697607,"38":-0.33022177975634237,"39":-0.15207490429458062,"40":-0.037312190461328665,"41":-0.15206175288296772,"42":0.23782710489516729,"43":0.08855497981517334,"44":-0.07481296336217937,"45":-0.28562207151930863,"46":-0.08195013179313443,"47":0.2005948260237105,"48":0.030795359903757646,"49":-0.11720551138276392,"50":-0.3234724231702191,"51":-0.09612818658810955,"52":0.07210197081720061,"53":-0.12104744105223698,"54":-0.1353723330261748,"55":-0.11902897030533223,"56":0.21331630633559584,"57":-0.21807947783872034,"58":-0.3112735265501656,"59":-0.05518165363885503,"60":0.04774161344047455,"61":0.14964860832098884,"62":0.14885855365751588,"63":-0.364022645923356,"64":-0.121452655462162,"65":0.09286091104008665,"66":-0.08303017902284023,"67":-0.01888354347997351,"68":-0.10559883743541607,"69":-0.07402626793717625,"70":-0.1499075483306776,"71":-0.2301516089754805,"72":0.09180950108983171,"73":-0.07977228077423007,"74":0.0699969543360614,"75":-0.057428940065887495,"76":0.12125993574111855,"77":-0.25142257767273174,"78":-0.2984526972199511,"79":-0.1323711042785008,"80":0.11466237947151722,"81":0.27626024098797064,"82":0.14384726407250034,"83":-0.09034831991765102,"84":-0.1583467813235403,"85":0.2646679906467154,"86":-0.1686268199655843,"87":0.0927679169885237,"88":-0.27249966749296484,"89":-0.02666724573928925,"90":-0.026231537337594046,"91":0.09453051339592312,"92":-0.20317501946326302,"93":-0.033405658260527535,"94":0.036506326343203895,"95":0.023923917607652348,"96":-0.06518150024767332,"97":-0.06187560331447859,"98":-0.2682326065600297,"99":-0.019778812024567924}},{"sx":5,"sy":5,"depth":4,"w":{"0":0.038773292742531086,"1":-0.340201495862545,"2":-0.023608734417593997,"3":-0.02227284003391486,"4":0.02311351360133447,"5":0.05815415512836839,"6":-0.012135020597481458,"7":0.1045146410545578,"8":0.19828797725400898,"9":-0.12177141444687285,"10":-0.03318254011234075,"11":-0.13362067783164897,"12":0.28499149496947873,"13":-0.151943484946175,"14":-0.27306629178740893,"15":0.07619765074883446,"16":-0.16257005054742352,"17":-0.3205090100025292,"18":-0.10479438493112966,"19":-0.034792354835283236,"20":-0.41906658489474574,"21":-0.03517194045714569,"22":0.22019688499008722,"23":0.16444485533910716,"24":-0.17538868965661186,"25":0.1304039552689301,"26":-0.1605222034749921,"27":-0.07915478693594033,"28":0.33077990586181705,"29":0.15298598577943362,"30":-0.6335097363893102,"31":-0.17752551954689308,"32":0.039144332746522376,"33":0.13135786891553772,"34":0.07736018164738061,"35":-0.2721114692510223,"36":-0.3903213405188924,"37":-0.29773697273096095,"38":-0.20106238657742226,"39":-0.34143421590932055,"40":-0.6336771766596572,"41":-0.18138680015317582,"42":0.030897734845966304,"43":-0.0010149910745715124,"44":0.09098203610322297,"45":0.10483205625913172,"46":-0.14159454005665892,"47":-0.28128967603477006,"48":0.1835732365987252,"49":0.2614749372582179,"50":0.0361384525615445,"51":0.026596967146209235,"52":0.11690160592398406,"53":0.10538575899024505,"54":-0.036898540861967664,"55":0.1518387851153599,"56":-0.5225198825184777,"57":-0.2318239459723328,"58":-0.294345089148021,"59":-0.223107232013681,"60":-0.5437020211252307,"61":-0.234702621480051,"62":0.0003626537395128669,"63":-0.1663178356635421,"64":0.12769935545919278,"65":0.14232885933984926,"66":0.4337708682077755,"67":0.08234559043485452,"68":0.223201749980184,"69":0.16860495675384835,"70":0.2184138055472059,"71":0.16425036711688654,"72":0.25297953934087236,"73":-0.14631763353823637,"74":-0.03723816670029711,"75":-0.20712882209430428,"76":-0.454608652716936,"77":-0.2689386550122925,"78":-0.16336336338968843,"79":-0.18702118268828483,"80":-0.3421653936592917,"81":-0.028960047794745588,"82":0.29141097642769076,"83":-0.27351728810766396,"84":-0.15223025745028418,"85":0.12309944945156603,"86":-0.011856437077255873,"87":-0.004642638595430175,"88":0.3533284434475096,"89":0.13752330575287774,"90":0.06516621116244566,"91":-0.23560809064577537,"92":-0.0011386917664924702,"93":-0.4144788462979787,"94":-0.05603487938209256,"95":-0.12641244214373415,"96":-0.07784186776174998,"97":0.16831323525694103,"98":-0.40050789940675563,"99":-0.3700009032166128}},{"sx":5,"sy":5,"depth":4,"w":{"0":0.0375741892663265,"1":-0.2664498288502817,"2":0.1533555878886669,"3":-0.0005673910861764307,"4":0.08052738951993908,"5":-0.3583049546872777,"6":0.0026047785627914743,"7":0.03857948766711643,"8":-0.16066278847442997,"9":-0.1774061106931487,"10":0.035769443024048206,"11":0.2024645821986805,"12":0.05869806424109132,"13":-0.02561215666367832,"14":0.045566435848497705,"15":0.20552079838796283,"16":0.20011474674548774,"17":0.03231283297623526,"18":0.06060811039172782,"19":-0.0010025301169790683,"20":-0.006223562860033848,"21":0.11761675053903287,"22":0.07738171401940568,"23":-0.22503391207420806,"24":-0.28981609971183475,"25":-0.1905208174287968,"26":0.08881580002644708,"27":-0.15956022538733752,"28":-0.3346963040869049,"29":-0.31487709558330595,"30":-0.057658620002705475,"31":-0.14328788812818344,"32":-0.12519740938997806,"33":-0.34550997117775695,"34":-0.02246098125546637,"35":0.15926634631580638,"36":0.1793382969603141,"37":-0.34792697021030566,"38":0.42505465688469485,"39":0.26967805748422186,"40":-0.2336399708659807,"41":-0.03190875902038091,"42":-0.18191207481637836,"43":-0.2576326534909271,"44":-0.24105507747075886,"45":0.09821677172303407,"46":0.11293271924566743,"47":-0.21928323924597576,"48":-0.35944338597107117,"49":0.1978026338408606,"50":0.08849777778153611,"51":-0.15480735224061018,"52":-0.2593555917006627,"53":-0.09440736252494722,"54":0.04107216314558823,"55":0.06187808464031028,"56":-0.34130540331213505,"57":-0.35948176851198527,"58":-0.026894366130429528,"59":0.06469685702490348,"60":-0.11940494801340877,"61":0.2996414971736851,"62":-0.4201240924456562,"63":-0.3693709440696687,"64":-0.16982509876107188,"65":0.12567778417625383,"66":-0.07647188375367255,"67":0.12009941903669982,"68":0.1037999639476962,"69":0.3134226162123256,"70":0.07802091104485079,"71":0.04530979565187114,"72":-0.07873042093770832,"73":0.32163647667132783,"74":-0.21227923265117987,"75":-0.2560345350216581,"76":-0.1899306809081932,"77":0.15869798504884117,"78":-0.07390504969339201,"79":-0.41266177831238404,"80":0.10506592712514211,"81":-0.06242934416379277,"82":-0.3476734621515593,"83":-0.020778149268395517,"84":0.11061663249217661,"85":0.010747811197433482,"86":-0.17349566342450518,"87":0.1636304884293892,"88":0.1557392140595538,"89":-0.15282795254565992,"90":-0.15009952791581674,"91":0.2545020081202908,"92":0.26439016573470164,"93":-0.10311795615545553,"94":-0.18255613295609283,"95":0.22314072105840696,"96":0.1750287578630737,"97":0.07431435577004553,"98":-0.22450099267911539,"99":-0.09512333043678116}},{"sx":5,"sy":5,"depth":4,"w":{"0":0.010041708355985024,"1":-0.17248531921537716,"2":-0.04863726322052766,"3":0.17522900475369602,"4":-0.11750312553812789,"5":0.010456153018821992,"6":-0.04493298559003453,"7":-0.08796587125761407,"8":0.0760035649057726,"9":-0.07795526522362797,"10":0.08342697297385011,"11":-0.14527602098918185,"12":0.2830660893591743,"13":-0.0658861946394619,"14":-0.24055032727223655,"15":-0.13346509297132592,"16":0.23589251452841153,"17":-0.08783134498775155,"18":-0.34365739049542676,"19":0.06214432639603887,"20":0.181429720439159,"21":0.10910547498450343,"22":-0.2829808582456208,"23":-0.019683235473291576,"24":-0.08993828692523728,"25":-0.18996424433026943,"26":0.25791246813514423,"27":0.13296403558540962,"28":-0.08807606700161763,"29":-0.28647510787499164,"30":-0.16042372407893216,"31":0.021792439866625442,"32":0.28890511877725406,"33":0.06656986087485496,"34":-0.2548892024684993,"35":-0.023553763092356315,"36":-0.09870747073783036,"37":-0.13740958416917076,"38":-0.2938115650547276,"39":-0.0993726072476214,"40":0.08597662290024487,"41":0.09318382151898294,"42":-0.12365267029971376,"43":0.231518718079037,"44":-0.21975434535446545,"45":-0.34952025124925845,"46":0.19033061225112385,"47":0.04072574383457312,"48":-0.013233056348358318,"49":0.1490539863763305,"50":-0.4142301997554758,"51":-0.2550270366947125,"52":0.46483925656447206,"53":-0.019521307287104016,"54":-0.3837548898368179,"55":-0.1992152606237903,"56":0.0823202720867721,"57":-0.05722265655034148,"58":-0.18860035112440887,"59":-0.0007513875843237208,"60":0.005020437562303589,"61":0.05604099704778756,"62":0.00450681197175552,"63":0.20977687221641095,"64":-0.4782730972499519,"65":-0.031564154898937054,"66":-0.08136246686199308,"67":-0.17811673359253266,"68":0.1414550451082299,"69":0.09221372500999707,"70":-0.38287683233030995,"71":-0.32011675044602034,"72":0.3579762359806683,"73":0.17091057298224846,"74":-0.501483076908691,"75":-0.4296485161754818,"76":-0.18337569362627984,"77":-0.5017512045389334,"78":0.052941296118794966,"79":0.168406731910607,"80":0.017101814651666627,"81":-0.07190333101996023,"82":-0.04102418390347441,"83":0.17610620658208934,"84":-0.17385318295438199,"85":-0.17079195998543265,"86":-0.060619500075354424,"87":-0.10523357946142813,"88":0.12618804147439897,"89":0.17627125549374062,"90":-0.02265591367235324,"91":-0.06488797824872518,"92":0.2182032823506296,"93":-0.2538558362901525,"94":-0.33329346986457703,"95":-0.3022626530565084,"96":-0.11683131780780774,"97":0.19532726300571177,"98":-0.5417549155841933,"99":-0.656990032667228}},{"sx":5,"sy":5,"depth":4,"w":{"0":0.15519734440443883,"1":-0.11272737262361898,"2":-0.2402073157440705,"3":-0.2658970590963165,"4":0.019845315070170125,"5":-0.12343042585504141,"6":-0.2887760958490452,"7":-0.3168955631837613,"8":0.10565040407583157,"9":0.2577223683635919,"10":0.17179150084636055,"11":0.28823286589329045,"12":0.15437246942243651,"13":-0.23068280513525716,"14":0.06529435256714058,"15":0.348306669613837,"16":-0.06043329825463631,"17":-0.21443795189919604,"18":0.188589288748152,"19":0.1912801161039475,"20":0.29411925183796256,"21":-0.061167227573122034,"22":-0.395251934483081,"23":0.08452086787614649,"24":-0.13585572146225533,"25":-0.3783765616835002,"26":-0.5008936916314417,"27":-0.267666882552166,"28":-0.0064881838368268515,"29":0.1871222147699657,"30":-0.20503548573944505,"31":-0.0765786269247822,"32":-0.16758415701489482,"33":0.011808313991738604,"34":0.19488477110234814,"35":0.19607692568682925,"36":-0.27852010447879594,"37":-0.0554582113076717,"38":-0.2292015726550716,"39":0.030275157987007136,"40":0.17992892008956693,"41":-0.2268409024519173,"42":0.09138092228202185,"43":0.15670078689434613,"44":0.25574029054647973,"45":-0.5659133380012453,"46":-0.714583763596365,"47":-0.2715443796282117,"48":-0.25915810249417176,"49":-0.2751620939384744,"50":-0.3261370944329345,"51":-0.389881657606768,"52":-0.26922718289996844,"53":-0.08191262863585487,"54":-0.20701827533812453,"55":-0.3692230556228188,"56":-0.24247511749528705,"57":-0.297127631531679,"58":-0.05231155077408272,"59":-0.121446969029292,"60":0.35319968178876754,"61":0.059822558760988985,"62":0.26324379701764533,"63":0.06989734014926349,"64":0.21269542547361558,"65":-0.2163283985215529,"66":0.033140082318757536,"67":0.07204870079083632,"68":-0.052798623019446614,"69":-0.21560653763577642,"70":-0.11845723686226718,"71":-0.12487981624087773,"72":-0.2993641608352163,"73":-0.15470726454814168,"74":-0.10108465073374688,"75":-0.32643529297976764,"76":-0.21167781181925496,"77":-0.18828635360612328,"78":-0.06958784466612361,"79":-0.1708138760144225,"80":0.06701836656420289,"81":0.25260691706278166,"82":-0.10955624772992019,"83":-0.07259980392963308,"84":0.1676132310064476,"85":0.0799881181129833,"86":-0.10766499412594087,"87":-0.003859907841478167,"88":-0.07601941673842598,"89":-0.2678025262589593,"90":-0.14614592383782984,"91":0.08598779537815468,"92":-0.03411396006766838,"93":-0.14186507001591872,"94":-0.22576034188708669,"95":-0.12902045395999062,"96":-0.0743265481058329,"97":-0.13399612102799272,"98":-0.25177075603040544,"99":-0.0655322695712527}},{"sx":5,"sy":5,"depth":4,"w":{"0":-0.15081821795063768,"1":-0.02116855638290249,"2":0.0999935979735649,"3":-0.27765327746600843,"4":-0.0008128637121194121,"5":-0.08049228594301937,"6":0.018628390892158397,"7":-0.21012322737922715,"8":-0.18208727090420687,"9":-0.23123289801841482,"10":-0.06691851391659856,"11":-0.39987118711059266,"12":-0.039734491053180526,"13":-0.2597542648169157,"14":-0.33932193119813203,"15":-0.21029127034370496,"16":0.08667619045912257,"17":-0.04449026453895638,"18":-0.2411161212244529,"19":-0.24104653114535626,"20":-0.01881696515818501,"21":0.032230632700966926,"22":-0.13887395621898654,"23":-0.24880570322377585,"24":0.19072984799419074,"25":-0.21747074956103318,"26":-0.23740520310405694,"27":-0.23480903403423312,"28":-0.09675183067346876,"29":-0.1780848108863757,"30":0.042856146049918845,"31":-0.2445926946924615,"32":-0.2970299043261558,"33":0.09184275561115555,"34":-0.3459825203497404,"35":-0.3150440034742268,"36":-0.09864370251927673,"37":-0.022958913704433495,"38":-0.052452810683565616,"39":-0.0852394033112548,"40":0.17151434372174215,"41":-0.037510611820793995,"42":-0.052792630060775225,"43":-0.16068243485411463,"44":0.06676038338228756,"45":-0.013749353951475005,"46":-0.102362370721196,"47":0.06657762764924155,"48":-0.16273498129425554,"49":-0.18787900234609717,"50":-0.11425696231868328,"51":-0.35836185028186296,"52":0.08135578028991873,"53":0.04504077255386792,"54":-0.1460670269365237,"55":-0.4619877322977145,"56":0.15111510272308346,"57":0.08879787837196906,"58":0.12596019876881145,"59":0.027948194806851276,"60":0.21169782650837338,"61":0.0280310565919195,"62":-0.2132590185849043,"63":-0.029125879831702454,"64":0.1630962772733446,"65":-0.3287353204436551,"66":0.1209549259751968,"67":0.09723827688687554,"68":-0.19651150913355028,"69":-0.1298545216542424,"70":-0.030824227315606443,"71":-0.219649769330364,"72":0.12266680858652908,"73":0.2575712156951183,"74":-0.09686101531862057,"75":-0.09129080165145433,"76":-0.07552091264943758,"77":0.019033584222372897,"78":0.032652174213845704,"79":-0.17378953037695372,"80":0.07001199951298234,"81":0.18179526268037366,"82":-0.0024071595543264496,"83":-0.06598552923585263,"84":-0.047539055518787,"85":-0.5144104325978134,"86":0.17095651055064826,"87":0.27571590231695653,"88":0.07298163991418452,"89":-0.04932659681892757,"90":0.06505551468448376,"91":0.21307884092665827,"92":0.03951209264183853,"93":-0.06632081323333698,"94":-0.10234248909845751,"95":0.2884444171017983,"96":0.03290947569200629,"97":-0.6161413139042469,"98":-0.12303718647535784,"99":0.17418431046184754}},{"sx":5,"sy":5,"depth":4,"w":{"0":0.029344248099078443,"1":-0.09980806009357804,"2":-0.49692385660457794,"3":-0.05700445767827427,"4":0.17723336680401802,"5":-0.032550282802479506,"6":-0.1785648221261289,"7":-0.15422948152275898,"8":-0.035403891517631327,"9":-0.017016629869515562,"10":0.20228078716430975,"11":0.000123015887301322,"12":-0.07053917772043636,"13":-0.07891886588778438,"14":0.05154905885029855,"15":0.07973553295119136,"16":-0.15895116649943294,"17":-0.4146949278784265,"18":0.13481781687142383,"19":-0.0804764681635971,"20":0.03613635924281973,"21":0.08828361013733328,"22":0.11053318981937887,"23":-0.09947861414376347,"24":-0.20716453545112037,"25":-0.088983427537756,"26":-0.08674145376860597,"27":0.06690349070703304,"28":-0.06145345360821232,"29":-0.21009656221335066,"30":-0.10595889606410097,"31":-0.008460857525999704,"32":0.05663670269195136,"33":0.08540248242105254,"34":-0.23715035180265803,"35":-0.44682007485774455,"36":-0.05494972194332946,"37":0.10297772920845215,"38":-0.09423456577861757,"39":-0.41290277872305065,"40":0.10211359631958826,"41":0.06068098214534952,"42":0.003228321059912773,"43":-0.14656679997864244,"44":0.03690334232846453,"45":-0.04557809140081116,"46":-0.04277213017526784,"47":-0.1374309974236248,"48":0.1485107190400897,"49":-0.021135227476674623,"50":-0.14933416371970618,"51":-0.1813764324958572,"52":-0.001929263421805428,"53":0.1719301215802069,"54":-0.0776609014086532,"55":0.043454474478021955,"56":0.2700733821315476,"57":0.264965381772762,"58":-0.09993028204415437,"59":0.040877267493073056,"60":0.07258075208573972,"61":-0.1348444303866748,"62":0.05093605615687099,"63":0.26265833790661486,"64":-0.09135955025696105,"65":-0.2294268904912088,"66":0.24833748532558705,"67":0.37875681709563264,"68":0.07387365819727619,"69":-0.16595778497514935,"70":0.2594170080258231,"71":0.41872055099542693,"72":-0.021076463607437073,"73":-0.28679358813227435,"74":0.31642509869053453,"75":0.08532883401822648,"76":0.167358830673406,"77":-0.319232299639612,"78":0.16766614643120256,"79":0.17758292878113072,"80":-0.11656820561777874,"81":-0.08290320407290053,"82":-0.3473586478495038,"83":-0.3655874511005375,"84":-0.5204434146669182,"85":0.07447883138032652,"86":0.04783879731512133,"87":-0.24527961414666677,"88":-0.44215941357060906,"89":-0.21023224740053686,"90":0.04519448025667826,"91":0.050659315882254544,"92":-0.20136725194586413,"93":0.36108776850907814,"94":-0.032338930851277835,"95":-0.026809665902625113,"96":-0.24386524610951313,"97":0.40456627840551956,"98":0.018531816585170075,"99":-0.14504256751760192}},{"sx":5,"sy":5,"depth":4,"w":{"0":-0.032026111856522314,"1":-0.37382436924323,"2":-0.06617711448072018,"3":-0.13672911127144433,"4":0.055287637222795796,"5":-0.24847137976718475,"6":-0.03865135417559073,"7":-0.3887313748642875,"8":0.3338821354053149,"9":-0.14367945066083745,"10":-0.3780384442241254,"11":-0.5656454274133704,"12":0.4260017805820265,"13":-0.3741188495462813,"14":-0.17441119257487903,"15":-0.11079903882065309,"16":0.03637178822194319,"17":-0.5414770917760929,"18":-0.08507068994792918,"19":0.2313889456700205,"20":0.04902172300955202,"21":0.1792280889127833,"22":-0.27340334570978914,"23":-0.27346597547229035,"24":0.01446525479172604,"25":0.1603809929970789,"26":-0.15707757345825463,"27":-0.052372757504043535,"28":0.2536325490674789,"29":-0.032309491554123076,"30":0.056940111826713685,"31":0.18243401614294819,"32":0.33094213097354064,"33":-0.16629078304954853,"34":0.2741770831921617,"35":0.304315455199877,"36":-0.4584636466477841,"37":-0.20718670011724544,"38":-0.04687240465808546,"39":0.0421203588138177,"40":0.3003408525808735,"41":-0.06257711140164778,"42":-0.10415643408791418,"43":0.3032491903506066,"44":0.017498103546636903,"45":0.07321734141537263,"46":0.3039780257342803,"47":0.2816884988269086,"48":0.052585831277246,"49":-0.03316439348229885,"50":0.2019700271825157,"51":0.14970978516062258,"52":-0.42326406156043744,"53":0.18198008531668394,"54":0.013131592529979232,"55":0.14542986733009983,"56":-0.29026512738387444,"57":-0.009584736693186047,"58":-0.2686376318444598,"59":-0.29524077619702205,"60":-0.3329260758465802,"61":-0.27454346354933773,"62":0.0531791204345241,"63":0.263147383046819,"64":-0.08899640652215864,"65":-0.10856439674680618,"66":0.21794796893529667,"67":-0.08199819815752954,"68":-0.3827286565551123,"69":0.016256936769482505,"70":-0.01294802769805138,"71":-0.21640649086197294,"72":-0.27248279031538664,"73":0.16455787425011004,"74":0.11242309231346807,"75":-0.16590548670333272,"76":-0.12413188987736674,"77":-0.008341809163365245,"78":-0.008355107644776384,"79":-0.2922162096837415,"80":-0.06036395429384217,"81":0.19408512870132244,"82":-0.2712733981482843,"83":-0.44056934933758923,"84":0.021296884853905792,"85":-0.07046624106469063,"86":-0.10464205905882411,"87":-0.23056825929957794,"88":-0.09694338431413299,"89":0.06977705290549509,"90":-0.010352853469428517,"91":-0.15523842618469386,"92":-0.12661887813836192,"93":-0.021249675906446695,"94":0.12152662080846642,"95":-0.030920118852751588,"96":-0.04002353144055875,"97":-0.019183860716136675,"98":0.1997033955519353,"99":0.035877914305454076}},{"sx":5,"sy":5,"depth":4,"w":{"0":-0.01990329075380086,"1":0.3016045198873841,"2":0.1421897362725638,"3":0.015761031177945497,"4":-0.12111719090854026,"5":0.3202187187423813,"6":-0.2570609140215738,"7":-0.09102859214026342,"8":-0.16731902290646697,"9":0.1850541287670555,"10":-0.1993520383551288,"11":-0.08144632618853646,"12":0.12164737469942719,"13":0.2786587990175444,"14":-0.38501526002164027,"15":-0.13622090834553469,"16":-0.22068003395883778,"17":0.11521668345859315,"18":-0.2313535392820798,"19":-0.1775626037580501,"20":-0.02657966368929395,"21":0.014128387285532196,"22":-0.14924198246125767,"23":0.26783337864764767,"24":0.014652121328271733,"25":0.04654439928161379,"26":-0.502008224175827,"27":-0.10480408366364515,"28":0.0769447680222046,"29":0.1257634545559714,"30":-0.2154961253876846,"31":-0.13837146457853014,"32":-0.030279781436739883,"33":-0.13949142156992048,"34":-0.09339113813873584,"35":0.06644659943442906,"36":-0.09999426222697505,"37":-0.018590873326956754,"38":-0.17329711542271795,"39":-0.08663076566943198,"40":-0.11287523013725986,"41":-0.16430174665142802,"42":-0.5270285148263909,"43":-0.05578217509007598,"44":0.2867939917056015,"45":-0.24304076470982355,"46":-0.35737634318343986,"47":-0.3532779719972885,"48":0.046663314310948084,"49":-0.3455116282809198,"50":-0.05977625217067855,"51":-0.22672755494938543,"52":-0.16146833333084548,"53":-0.16477924255465423,"54":-0.2368542001953383,"55":-0.27553292851165306,"56":0.13281940140901263,"57":0.14785803630576633,"58":-0.24916890591838797,"59":-0.18337836071015037,"60":0.03545617356572706,"61":-0.019446725282111627,"62":-0.3317180081493194,"63":-0.2813170563839517,"64":0.05308845418733783,"65":-0.4730893234826463,"66":-0.13766439082604195,"67":0.0586171819287713,"68":0.054170374067265,"69":-0.3281348814441022,"70":0.11260997445511044,"71":-0.2761489690854797,"72":0.08998563752115615,"73":0.36102028955126414,"74":0.010434751514507346,"75":-0.11587939969767327,"76":-0.1305389318785416,"77":0.2329148381422284,"78":0.009866395506794147,"79":0.13011497614559714,"80":-0.08245214835450046,"81":-0.24986632331068828,"82":0.10374458945797255,"83":0.28325748566192854,"84":0.0017774772240533741,"85":-0.6894474353962604,"86":-0.0030986912192586705,"87":0.2726744261540942,"88":0.3413554403419923,"89":-0.7983275087261418,"90":0.06621676560496285,"91":0.08578840940314703,"92":0.13853389525290935,"93":-0.25978245670464056,"94":-0.0709809694529005,"95":0.00768346981047752,"96":0.19876789721814364,"97":0.1915958254912526,"98":-0.12279333804657641,"99":0.24656170824580229}},{"sx":5,"sy":5,"depth":4,"w":{"0":-0.01915142354601964,"1":0.3223435762639233,"2":0.13325392729125982,"3":-0.4238209549509656,"4":0.27340661078940687,"5":0.21978329608438832,"6":-0.011497887125437334,"7":0.02441606657096015,"8":0.06492573046710999,"9":-0.4343756642965689,"10":0.08872610175831046,"11":0.19581097314714035,"12":-0.10261816590845436,"13":-0.12943441748429568,"14":0.008830884140873522,"15":-0.16018780910314395,"16":-0.3121274897415231,"17":0.01753778119137392,"18":0.04511512647739606,"19":-0.11771384052556884,"20":0.128944567065946,"21":0.2678984638831472,"22":0.0086563853732359,"23":-0.2759959705257184,"24":0.14997022662232753,"25":0.23142973981387335,"26":-0.007837203803530654,"27":0.141621484800308,"28":-0.020054625056145005,"29":-0.031998467452517325,"30":-0.09610956823179893,"31":0.07850099467907562,"32":-0.3359374266746494,"33":-0.297274624117926,"34":-0.024126547185430166,"35":-0.10532525390985312,"36":-0.3633099446380937,"37":-0.36554374852824517,"38":-0.013066541846785056,"39":-0.28035675335586296,"40":0.024949521329848835,"41":0.06732363319906375,"42":-0.07367734638750606,"43":0.06747683845280274,"44":0.04944540790319784,"45":-0.008586859151111889,"46":0.1345592719582271,"47":0.22483352509299073,"48":-0.4894223280464324,"49":-0.17680836148311524,"50":-0.07882720193881636,"51":-0.034303120260248975,"52":-0.5790358204873322,"53":-0.2877310522333987,"54":-0.24495166189623074,"55":-0.32786308151110083,"56":-0.48202020921944316,"57":-0.22917331807662586,"58":-0.06272315595494908,"59":-0.2745581060418978,"60":-0.25917562725026017,"61":-0.011553760753559602,"62":0.12319454177595208,"63":0.040320188837386486,"64":-0.4185309740051971,"65":-0.044687908758558464,"66":-0.03193003395636263,"67":-0.08161273363146782,"68":-0.4770814296378624,"69":0.01993159346902022,"70":-0.015695934541829392,"71":-0.12419077538882375,"72":-0.25996952211211194,"73":-0.08033082546532008,"74":-0.1203125505510628,"75":-0.1659747349220025,"76":-0.2724137004551004,"77":-0.23399265198482158,"78":0.04769279944055462,"79":-0.13743457855315075,"80":-0.03961304242160965,"81":0.07246797971746592,"82":0.22529710783850165,"83":-0.180906100932414,"84":-0.1177478596574089,"85":0.08987308352668795,"86":-0.07716771331888451,"87":-0.18462007701038538,"88":-0.22216426079999024,"89":0.10253675881579363,"90":-0.16674189874420628,"91":-0.4811779934216612,"92":-0.2644746436962745,"93":0.356586841460443,"94":-0.025624424129670892,"95":-0.26646375556784363,"96":-0.17687514432394205,"97":0.19481779594321436,"98":0.011488077255754528,"99":-0.06766810317783677}},{"sx":5,"sy":5,"depth":4,"w":{"0":0.06467837770248801,"1":0.4649709150322121,"2":-0.1760132256347652,"3":-0.6136151021974692,"4":-0.017026643536923985,"5":0.01518430208033524,"6":-0.1136110007971773,"7":0.11510106986867419,"8":-0.4376214953319351,"9":-0.11387056272662678,"10":-0.10117528355874875,"11":-0.016503914152167176,"12":-0.36814299427695385,"13":-0.0013641106627358208,"14":-0.032628871929160565,"15":-0.33809581202127914,"16":-0.06592782259099539,"17":-0.23933327464249318,"18":-0.06524056212070341,"19":-0.3204871479642921,"20":0.1540818989362047,"21":-0.3214806578990255,"22":-0.2832755502310593,"23":-0.017700498321870824,"24":-0.2782186903575143,"25":-0.000015884820624820822,"26":-0.05255490720429613,"27":-0.027299093560779163,"28":-0.14300800689289436,"29":-0.018504010181260053,"30":-0.0635442260266475,"31":-0.016079727743044957,"32":-0.2516546994812887,"33":-0.16994705076713446,"34":0.023038179345001946,"35":-0.09479891309286852,"36":-0.20857893913163808,"37":-0.10323980924422904,"38":0.06015011731343101,"39":-0.22327658633881237,"40":0.16630831011384611,"41":-0.22092885291418693,"42":-0.21921470082082997,"43":-0.027442352209827277,"44":-0.43072019402910144,"45":0.09053404257405243,"46":-0.020079244783689925,"47":0.1156255038613942,"48":-0.2380054504485189,"49":0.09666227088372883,"50":0.10527538956387168,"51":-0.11481619515523743,"52":-0.13647731486561865,"53":0.1727961297897626,"54":0.04936062315534212,"55":0.19023801907692522,"56":-0.2164080560500029,"57":0.36827212010680965,"58":0.0950333025104128,"59":0.11520958707697679,"60":-0.151021005957786,"61":-0.3260375611264807,"62":0.04459295976017241,"63":0.16270803637854933,"64":-0.13607903083516706,"65":-0.04406305693776955,"66":0.2672464765315911,"67":0.09370730281330462,"68":-0.06321768964497954,"69":-0.13856800147552842,"70":-0.044131304065046444,"71":0.07115908599752711,"72":-0.14888057854809952,"73":0.07139005234434857,"74":0.1427049225690112,"75":0.002160882919640111,"76":0.007104521551672111,"77":0.05524283929660289,"78":0.22964329433044123,"79":0.27797791753341633,"80":-0.22378928457499164,"81":-0.020173865037659826,"82":0.19733336581385805,"83":0.019347005895937547,"84":-0.3127758166111969,"85":-0.030230087824615354,"86":-0.04187344523382079,"87":-0.22087976010476318,"88":0.07702066051149443,"89":-0.07930614208755049,"90":0.09101198370975523,"91":-0.16180675076962237,"92":-0.02642767296177739,"93":-0.31688532366568994,"94":0.12503108225200446,"95":-0.10024005631559821,"96":0.026581551351370965,"97":0.0018491933118410457,"98":0.1611275998973393,"99":0.25748728902020146}},{"sx":5,"sy":5,"depth":4,"w":{"0":0.004753748395095425,"1":-0.2234044073338732,"2":0.4311968834800914,"3":0.07286647954794846,"4":-0.05633315746142544,"5":-0.44540992609460833,"6":0.06575321195695043,"7":0.2656892777225926,"8":0.2757346925951295,"9":-0.07725339256272573,"10":0.06224827774383805,"11":0.1371231367374928,"12":0.0999978574745154,"13":-0.02606567805484552,"14":0.07168970913776716,"15":0.16512559854022632,"16":0.21027100330655285,"17":0.04749829596121418,"18":0.20746409847382755,"19":0.21111376262289208,"20":-0.1928809693640143,"21":-0.1370779259121572,"22":0.08927878552360159,"23":-0.19105741210137706,"24":-0.17540652140801452,"25":-0.11484693561062943,"26":0.10432779244552504,"27":-0.00046631219917129277,"28":-0.20674189221098419,"29":-0.29571914050254067,"30":0.07825408207861265,"31":0.0966074747399394,"32":0.0075534729910550465,"33":-0.31973620784467244,"34":0.27166283106243516,"35":-0.09124167978047053,"36":-0.15185339241256898,"37":-0.3408888159378425,"38":-0.12017425869053194,"39":-0.11823346934737104,"40":-0.15553207167068353,"41":0.012411734617576047,"42":-0.16215625940354944,"43":-0.051238444194032076,"44":-0.044028123771704994,"45":-0.022426795338024,"46":0.2266553637223155,"47":-0.2318417416937756,"48":-0.2087078392882361,"49":0.08765238635730732,"50":0.19405257733606532,"51":0.014605060880180584,"52":-0.18674845310399793,"53":-0.015021960578240604,"54":-0.13632166027560216,"55":-0.13345907068804033,"56":-0.09847840846841519,"57":0.052794682836731395,"58":-0.4103788430904834,"59":-0.6115042248001648,"60":-0.24065686708724707,"61":-0.032604184283009686,"62":0.02036356535238395,"63":-0.04061750957381498,"64":-0.38158759261908326,"65":-0.1925632828143429,"66":0.04359177091260333,"67":0.11525811078164468,"68":0.35902707515098287,"69":-0.010595509857124319,"70":-0.3260693991706904,"71":-0.1861852137913396,"72":0.2721917821368376,"73":0.0812621650293114,"74":0.17173809805214266,"75":-0.11281127704834122,"76":-0.225354754416815,"77":0.06346168369683099,"78":0.21912253872696918,"79":-0.1582821667686273,"80":0.14339280175530714,"81":0.0026162891650523064,"82":-0.29140693069555956,"83":0.12099035376185419,"84":-0.18574061014110665,"85":0.03990872523879708,"86":-0.07464162563573819,"87":-0.18877374195001062,"88":0.05985741797708269,"89":-0.048132700340769254,"90":0.03522456632466252,"91":-0.25273664838352006,"92":0.2703494743725337,"93":-0.19937315843970113,"94":-0.03513245171978392,"95":-0.07661959620668908,"96":-0.08968578969751502,"97":0.029093478208296143,"98":-0.05607923520487049,"99":-0.2183861313665237}},{"sx":5,"sy":5,"depth":4,"w":{"0":0.17804765247344773,"1":0.10219290308930462,"2":0.1382062100111976,"3":0.0002358542060485919,"4":0.10748746992039847,"5":0.12074329355218062,"6":-0.08114431523683772,"7":-0.1684117184521341,"8":0.1097001592008196,"9":0.14236426666205465,"10":-0.4151389594174561,"11":-0.008374438367630275,"12":0.10378135065547817,"13":0.044960433027004774,"14":-0.20607896437901432,"15":0.0699294545902932,"16":0.02163854464915899,"17":0.17773796641399428,"18":-0.04143625322172151,"19":0.10612901842687288,"20":0.0026291282298612686,"21":0.0915674515861795,"22":0.3507081634035435,"23":0.026824050398878672,"24":0.22334405218813905,"25":-0.05671112419173523,"26":-0.0986550499949929,"27":-0.06082865259306647,"28":0.2286400225295936,"29":-0.02430323874317909,"30":-0.47433945414381806,"31":-0.08557012863736795,"32":-0.06600894740344586,"33":0.13377209460658057,"34":-0.41750441784109726,"35":0.1345344120065741,"36":-0.2695526049826615,"37":-0.5111508180988579,"38":0.230737145682501,"39":0.26473377805568227,"40":-0.04214488752933117,"41":0.05031127652236163,"42":-0.2598352483316265,"43":-0.3124776304677932,"44":0.39538984637164853,"45":0.21040478137948493,"46":-0.43326641062047944,"47":-0.519992417629577,"48":0.23055950517674637,"49":-0.00526735650959086,"50":-0.6009143405282705,"51":-0.20270088232254993,"52":-0.33050357037033407,"53":-0.34120807383490415,"54":-0.24954119912031097,"55":0.2167840998087662,"56":-0.287056773299593,"57":-0.19508639618606383,"58":-0.06903322736881033,"59":-0.06641824607600369,"60":0.09666161905099656,"61":0.22503972889484244,"62":-0.15372184086239465,"63":-0.08525621613266918,"64":0.25074400787530354,"65":0.07242139976523647,"66":-0.05497833423743171,"67":0.036512713335966694,"68":-0.08424835147879414,"69":-0.23112428488017497,"70":-0.1375587429046556,"71":0.18114141072115308,"72":-0.2967663133435001,"73":-0.1358323483111988,"74":-0.11368927652994708,"75":-0.18097557862768415,"76":-0.4488400641927259,"77":-0.04708568299956045,"78":-0.253191776395093,"79":-0.16578168402222657,"80":-0.10656416443176234,"81":-0.08325770180768378,"82":-0.300714493117603,"83":0.0166707042796149,"84":0.04033905209424526,"85":0.03974421174527145,"86":-0.2849487612868263,"87":0.030365399810212464,"88":0.09852101455451502,"89":-0.1417185701092246,"90":-0.15209804350469974,"91":-0.008787361900935974,"92":-0.13326344410443433,"93":-0.09764441918575222,"94":-0.13712571520477188,"95":-0.0725822145390792,"96":-0.23066116094718755,"97":-0.02178601408813129,"98":0.19315214314356444,"99":-0.11728349624038811}},{"sx":5,"sy":5,"depth":4,"w":{"0":0.12510953334276434,"1":0.19225658692233624,"2":0.0799421654720855,"3":-0.08205398563202082,"4":-0.2841124934012032,"5":-0.25832702748194497,"6":-0.11283003073803019,"7":-0.10114991611340068,"8":-0.5845331984020946,"9":-0.08603531885856114,"10":-0.05746212684113399,"11":-0.2499150962060895,"12":-0.0704710839437456,"13":0.37187366940334754,"14":-0.21355334984109461,"15":-0.2618079593230671,"16":0.4023351119764679,"17":0.12119950200262405,"18":-0.3017741421263504,"19":-0.43055349099209045,"20":0.018700050498899657,"21":0.10793378685175986,"22":-0.035103993750700245,"23":0.04884495167181618,"24":-0.647612428596964,"25":-0.20353095860431294,"26":-0.10264589310730196,"27":0.03351928607551887,"28":-0.2989999759534157,"29":0.3211167485332234,"30":-0.17657374139307538,"31":-0.1621156026960254,"32":0.20160000936611333,"33":0.1700709548693666,"34":-0.05791507068885036,"35":-0.7034646696921592,"36":0.1502353149908778,"37":-0.04793373008751894,"38":-0.33397915286142627,"39":-0.35656121637868404,"40":-0.2696226232452324,"41":-0.1583545501060035,"42":-0.2525844562565583,"43":0.1712286678837623,"44":-0.7380681583385644,"45":0.10075625410760851,"46":-0.19291982673297836,"47":0.029831355426131304,"48":-0.05653926337233797,"49":-0.0056865504539654645,"50":-0.24686644507853803,"51":-0.554426405574115,"52":0.022519710867230532,"53":0.07827244570848883,"54":-0.052053707343204234,"55":-0.18430602670121488,"56":-0.08709540529283466,"57":-0.07599373551339152,"58":-0.12833463359331926,"59":0.08518714238503541,"60":-0.3552878810624999,"61":0.02797967168005292,"62":-0.25768509105846443,"63":0.10883755237221478,"64":-0.07404214131098766,"65":0.09259831850073609,"66":-0.14995911905032566,"67":-0.3335583516518941,"68":0.11930447340444642,"69":0.3392941215015057,"70":-0.2483996553839123,"71":-0.18848437966424697,"72":-0.0013412657038806971,"73":-0.0673613729973942,"74":-0.1612409245318835,"75":0.15846083941424438,"76":-0.23121071803286217,"77":-0.3571985966395573,"78":0.06992631797811405,"79":0.16415277002336454,"80":0.0003492798437009652,"81":0.295821413224804,"82":-0.18058674329373606,"83":-0.20413801541698529,"84":-0.09615710949587428,"85":0.2670358028781395,"86":-0.30219589479264364,"87":-0.15244184479560663,"88":-0.019192168959832563,"89":-0.0693403779944045,"90":-0.1775222084111272,"91":0.18961740872624105,"92":-0.05905404569222271,"93":-0.49542465577671196,"94":0.2046523771614398,"95":0.15973115259321452,"96":-0.06987182587685224,"97":-0.37942298695526605,"98":0.06656700805255243,"99":-0.0139142625252686}}],"biases":{"sx":1,"sy":1,"depth":16,"w":{"0":-0.15637643839035492,"1":-0.0010653008842371884,"2":-0.1042105483026306,"3":-0.004789426580909226,"4":-0.18672534114369607,"5":0.1215740658903226,"6":0.07185967305749737,"7":-0.05474312430468573,"8":-0.022792955280865983,"9":0.010673962691333133,"10":0.0023474749618591344,"11":-0.10778280061314661,"12":-0.03838040631477778,"13":-0.20327125052781642,"14":-0.03365333779311394,"15":0.15760306896065818}}},{"out_depth":16,"out_sx":12,"out_sy":12,"layer_type":"relu"},{"sx":3,"sy":3,"stride":3,"in_depth":16,"out_depth":16,"out_sx":4,"out_sy":4,"layer_type":"pool","pad":0},{"out_depth":10,"out_sx":1,"out_sy":1,"layer_type":"fc","num_inputs":256,"l1_decay_mul":0,"l2_decay_mul":1,"filters":[{"sx":1,"sy":1,"depth":256,"w":{"0":-0.10505730868363594,"1":-0.12720015341979038,"2":-0.05205480451890432,"3":-0.0807594588576326,"4":-0.048305001502662835,"5":-0.11500079262331628,"6":-0.12434743500634995,"7":-0.17200413016017904,"8":-0.17645286903755172,"9":0.04820406844270817,"10":-0.208174096214232,"11":0.05668545385475146,"12":-0.1953967997448624,"13":-0.2030820918129024,"14":-0.15796157672491595,"15":0.022516720300929872,"16":-0.20620138478712227,"17":-0.2261223961894002,"18":-0.170059898065715,"19":-0.18520316314372434,"20":0.045213207274098784,"21":-0.2643996138170433,"22":-0.12130670793237484,"23":-0.10974655443602273,"24":-0.14798861933524463,"25":-0.10197199014426256,"26":-0.22016553558466012,"27":0.0035240825190152587,"28":-0.2626716664712515,"29":-0.14631177226658623,"30":-0.08018939579547571,"31":-0.09651947618932331,"32":-0.04618735712149889,"33":0.08651855795605934,"34":-0.11524712727418193,"35":-0.2495632071504694,"36":0.0182032669561995,"37":-0.23822276912430618,"38":-0.2416504016211184,"39":-0.14321624966274046,"40":-0.04717151539073468,"41":-0.2924512972532344,"42":0.07533796485700484,"43":-0.23541399274664845,"44":-0.10519098089198975,"45":-0.13111449614965234,"46":-0.1874284133839362,"47":-0.12230116307654748,"48":-0.12394108144428118,"49":0.15366294315391768,"50":-0.2151757265074924,"51":-0.03532330682061832,"52":0.019656939557721156,"53":-0.20234894472152684,"54":-0.08516479777221407,"55":0.04131354107492067,"56":-0.30964668931559763,"57":-0.15582995992759754,"58":0.06223170672267407,"59":-0.3366490290158891,"60":-0.23045182282575882,"61":-0.06708894741445855,"62":-0.13396342963242897,"63":-0.10901761844733171,"64":0.02426987281344696,"65":-0.0585613695151112,"66":-0.0309095815971383,"67":0.06269714214600859,"68":-0.21158257300979275,"69":-0.04836418098724866,"70":-0.0003301910511537181,"71":-0.07683125599577938,"72":-0.3012581281511633,"73":-0.22013085980546493,"74":-0.056290049235210075,"75":-0.15197870186843657,"76":-0.018594411402257413,"77":-0.17147692695783415,"78":-0.017116630029114028,"79":0.04509713469549083,"80":-0.0570941260314435,"81":-0.20029935471250662,"82":-0.05166968188720596,"83":-0.16478554818470625,"84":-0.241705345661351,"85":0.03628588053494102,"86":0.14647359022232248,"87":0.010951931964540227,"88":-0.2060209049680866,"89":-0.0788806545854574,"90":-0.24589936505369128,"91":0.09899581230069499,"92":-0.13033671268484903,"93":-0.15945371405461164,"94":0.04500082603453375,"95":0.13426353166904148,"96":-0.01092379575216706,"97":-0.09612603115986762,"98":-0.002862740136753844,"99":-0.027605900855206613,"100":-0.24910845707191706,"101":-0.11209638546617864,"102":-0.09476855717408153,"103":0.002520298848439767,"104":-0.1831204540896629,"105":-0.22315918247121336,"106":-0.01114778354626669,"107":-0.329246291038341,"108":-0.062661102746497,"109":0.21662300941549958,"110":-0.2812822007927874,"111":-0.1453927344991784,"112":0.14595970072975398,"113":0.17290951421821327,"114":-0.23158414642395608,"115":0.08074154845118188,"116":-0.06020721710383338,"117":-0.04288770953600925,"118":0.1386749144879646,"119":0.000326851121054194,"120":-0.18880750641608043,"121":-0.3347417371716936,"122":-0.04541782302169087,"123":-0.6024474638577515,"124":-0.3737905465234334,"125":0.26539508221447655,"126":-0.1637899185555473,"127":-0.39923037224735775,"128":0.00973640481284379,"129":0.07894983590569819,"130":0.11738679719003789,"131":0.10978662819365465,"132":-0.6155504970342838,"133":0.12355546141368058,"134":0.0020453103554278736,"135":-0.2541529449670483,"136":-0.19031359030410017,"137":-0.3145546959597895,"138":0.016745182979369673,"139":-0.16831874558206206,"140":-0.2043431570253497,"141":-0.3517536907216508,"142":0.17714811153409696,"143":0.00030022112535994366,"144":-0.08788427217462667,"145":-0.02106319158842358,"146":-0.0998901859413756,"147":0.18329941779877407,"148":-0.18368368136913527,"149":-0.026063070938961003,"150":0.01817096172406727,"151":-0.1025558876574715,"152":-0.24411073187111595,"153":-0.20785645847164005,"154":0.1513423949719714,"155":0.1060393741633458,"156":0.011220220530862628,"157":-0.1781902362576214,"158":-0.09469860803428197,"159":-0.020638218096592192,"160":-0.21905742720559415,"161":-0.3211309678682435,"162":-0.35721647170672577,"163":-0.14778486734526328,"164":-0.1344661512964735,"165":-0.035164186428737434,"166":-0.3224127505321666,"167":-0.009445523242159005,"168":-0.24292797659127763,"169":-0.10190373866907917,"170":-0.5185920091675208,"171":-0.03097733076083058,"172":0.01508437860652676,"173":0.04866649897709981,"174":-0.10840931903254525,"175":0.051866076392118356,"176":-0.19036570147715648,"177":-0.1034555520821046,"178":-0.06015606564893206,"179":0.2182429238669785,"180":-0.08260253436569888,"181":0.04975856481521723,"182":-0.0955638339084413,"183":-0.16316529588533907,"184":-0.0315836602352505,"185":0.04614313202859016,"186":-0.41180955238664607,"187":0.1307584392878365,"188":0.13583287072015018,"189":0.01633333044677093,"190":0.013735810532137056,"191":0.12233396360686005,"192":0.033521785935401026,"193":0.04789708439020021,"194":0.038714616629643414,"195":-0.04661066824772464,"196":-0.252907493710474,"197":-0.046296669764746765,"198":-0.09877028946381974,"199":-0.08898011421701553,"200":-0.13044855766045177,"201":-0.10464475714052798,"202":-0.11439838795874209,"203":-0.02244282923283513,"204":-0.2565581999976641,"205":0.03564648311790308,"206":-0.23525090753014385,"207":-0.2360709462137727,"208":-0.1167319072252049,"209":-0.0035276410983812647,"210":-0.07084293724579896,"211":-0.3994745359812792,"212":0.08059622198423166,"213":-0.2602883731704765,"214":-0.14611538775163446,"215":0.23976473469261492,"216":-0.04811743950163545,"217":-0.019023565911456677,"218":0.1934064684543753,"219":-0.17484383849452867,"220":0.027839601170236056,"221":-0.13385188412756513,"222":-0.4977122158353436,"223":-0.25180658582708404,"224":-0.1526220227358419,"225":-0.5895460841012999,"226":0.01798997245178921,"227":-0.39944882696104694,"228":0.1413950958305565,"229":-0.3974471835608581,"230":-0.6522712827788163,"231":0.11313959216076747,"232":-0.06197732864607907,"233":0.10441560626749509,"234":-0.29141742182782093,"235":0.12231866926599066,"236":-0.025363669028781916,"237":0.0021558624830231507,"238":-0.27618372392458956,"239":-0.02397885754694414,"240":-0.26267603431618125,"241":-0.3097202269617031,"242":-0.01672926813469625,"243":-0.05962646549183043,"244":0.07896558872084053,"245":-0.09409462673657025,"246":-0.4103665914063213,"247":-0.23967885666035835,"248":-0.17983475857484962,"249":0.03643142240724773,"250":-0.3990882942993365,"251":0.09835674549817632,"252":-0.15748535980463613,"253":0.08026824248693809,"254":-0.047464643161266015,"255":-0.08514314547207029}},{"sx":1,"sy":1,"depth":256,"w":{"0":-0.11947465206951313,"1":0.03193646867945599,"2":0.005464322770772268,"3":-0.10154486677961176,"4":-0.15591113164397113,"5":-0.13169547404728113,"6":0.0379005379629052,"7":-0.18212904002587768,"8":-0.0955458920670205,"9":0.0570795343070208,"10":-0.1343142878053459,"11":0.03919733215784022,"12":-0.15303668830172598,"13":-0.12932583586050525,"14":0.03392397373584983,"15":-0.1356975123045675,"16":-0.12203696585262898,"17":-0.0033440275997682085,"18":0.11550064516424598,"19":0.4203645537379455,"20":-0.20228703801607964,"21":-0.02444059664051374,"22":0.0015614364660481328,"23":-0.05440548879222199,"24":-0.10476422054619687,"25":-0.02791687569643373,"26":0.15556416743495982,"27":-0.1435046404423217,"28":-0.29823557158185354,"29":-0.03684999551666153,"30":0.33562466336787294,"31":0.006747252041263138,"32":-0.2860205598011687,"33":0.07879481067848848,"34":-0.2119150218762264,"35":0.3941271944280041,"36":-0.22738770176232992,"37":0.1332648407027575,"38":-0.004089385012544393,"39":-0.11371060722180622,"40":-0.21001287927572265,"41":-0.049056250755250004,"42":0.24008399376613984,"43":0.13809912212242076,"44":-0.026320851914772365,"45":0.2538976265796482,"46":0.11924049469233616,"47":0.15139717208979722,"48":-0.09510542934554977,"49":-0.03194354089251624,"50":-0.2629187636353086,"51":0.16887119518158888,"52":-0.12459359298978145,"53":-0.1013948277791724,"54":-0.22425516866849363,"55":-0.17461523628909387,"56":-0.1598019013595349,"57":-0.12686123764933233,"58":-0.06605151514157365,"59":-0.11847866828509247,"60":-0.008964236469431536,"61":0.07195014925872205,"62":0.15555635092261727,"63":-0.012134555689712587,"64":-0.1566401244290099,"65":-0.3796259474241179,"66":-0.03529037463580804,"67":-0.30367569426026625,"68":-0.1862179805133987,"69":-0.4164756808854166,"70":-0.10258952457637638,"71":-0.4174372164533495,"72":-0.14258560911216353,"73":-0.23116834107728448,"74":-0.1550768267592972,"75":-0.01019330611199037,"76":-0.2129220080093864,"77":-0.2755836039723405,"78":-0.19040844008197452,"79":-0.42713898878950485,"80":-0.11206067370486085,"81":-0.40657556906197906,"82":0.184706133973894,"83":-0.07974151537526462,"84":-0.3003286342036185,"85":-0.08319231993791569,"86":0.021938070644532157,"87":-0.16200514449923797,"88":-0.08264540825036897,"89":-0.06283293609956322,"90":-0.2950783817911929,"91":0.021062525794215758,"92":-0.08224953302765503,"93":0.017612233727358945,"94":0.09011616255173976,"95":-0.1224814184047503,"96":-0.34940271774601317,"97":0.03641313285342242,"98":-0.46968850885530594,"99":0.14273291702408394,"100":-0.35079200955408174,"101":0.08869834368315888,"102":0.17906682818375214,"103":-0.19224327823012902,"104":-0.28362321524276274,"105":-0.12933914976190694,"106":-0.18809884907318064,"107":-0.03855512562969351,"108":0.15614732220634325,"109":-0.13471820166475768,"110":0.02946608195367215,"111":0.25950051750266256,"112":-0.09795383504593394,"113":-0.23313609165128038,"114":-0.3947723033076972,"115":-0.06947038874906064,"116":-0.35113946539982965,"117":-0.1931394377687781,"118":-0.28587092930155655,"119":-0.22433781069856862,"120":-0.26717617670821925,"121":-0.3920371718727283,"122":-0.28287275944450346,"123":-0.14465904734709653,"124":-0.07792563410769372,"125":-0.13934021745545763,"126":0.09402973044294351,"127":-0.09664371771383405,"128":-0.11973656667653824,"129":-0.39552805945088704,"130":-0.3929513980385582,"131":-0.20637438912577766,"132":-0.09081243308424568,"133":-0.21709305521578875,"134":-0.07922820324832014,"135":-0.01755594758628299,"136":-0.05077059519435551,"137":-0.11064267039348481,"138":-0.06332636782456445,"139":0.1901981015084437,"140":-0.11261314755574856,"141":-0.3775900065950026,"142":-0.15674054674846669,"143":-0.14950698467571183,"144":-0.20519298794664562,"145":-0.34560970199218766,"146":0.13009083402148786,"147":-0.04683548167844416,"148":-0.2551341180862077,"149":0.012155823979608642,"150":0.018829023850398297,"151":-0.2106691682094151,"152":-0.20589933775629238,"153":-0.15572449654108242,"154":-0.36530835960098584,"155":0.12542876177637216,"156":0.07171264224671117,"157":-0.06184948686310835,"158":0.0036117786978618555,"159":0.028118915496230884,"160":-0.3341465630614146,"161":0.09360099642398301,"162":-0.44773392039674803,"163":0.2320688961456573,"164":-0.01868313801503674,"165":0.02612860667016078,"166":-0.02155186714247026,"167":0.21592468007845783,"168":-0.1450016954706131,"169":-0.15037114319527373,"170":-0.017409349011587978,"171":0.039905397960511735,"172":0.01733113721082938,"173":-0.08482306344233922,"174":-0.16073916215306086,"175":0.15581837452213532,"176":-0.17251244645285482,"177":-0.22955842464869475,"178":-0.354974384234458,"179":-0.09725302918476196,"180":0.09215089806899424,"181":-0.2417050576687444,"182":-0.19547307720665055,"183":-0.011629314951988797,"184":-0.09538770180527736,"185":-0.35957647911839175,"186":-0.30327710529987095,"187":-0.1321274644091986,"188":-0.2738230189407044,"189":-0.3258359291991463,"190":-0.3906509691431773,"191":0.13128102986163404,"192":-0.04272290133621704,"193":-0.068559094903768,"194":-0.10939687015806086,"195":0.1152064008210925,"196":-0.10857591833395679,"197":-0.02991832825485947,"198":-0.07321188103830288,"199":0.042597507526009784,"200":-0.054170306140095936,"201":0.06448418064441036,"202":-0.01717051040295069,"203":0.045517576569097905,"204":-0.06085691435934998,"205":-0.2425271768910289,"206":0.008266318609759645,"207":-0.18351522033736137,"208":-0.002497150129711184,"209":-0.10847808135870564,"210":0.10874737267504415,"211":0.020886128940018806,"212":-0.13684077489121924,"213":-0.0037374244098882284,"214":0.2337857905596905,"215":-0.029893096861950044,"216":-0.056806430907826215,"217":-0.019629117048257358,"218":-0.2229207657079457,"219":0.1498292416338819,"220":0.009045504247349158,"221":-0.056417071747919954,"222":0.09562925704055826,"223":-0.04629300702984234,"224":0.20301763186831065,"225":0.1527931626575861,"226":-0.13359249390615446,"227":-0.18202017811070684,"228":-0.016645014042401617,"229":-0.10871414757666394,"230":0.2996120811728987,"231":0.13719522166214887,"232":0.15981130401205348,"233":-0.1717982967178718,"234":-0.03654163817402786,"235":-0.14337421498631978,"236":-0.06747630773972718,"237":-0.011502886484999092,"238":-0.24468365869055167,"239":-0.20000363529655008,"240":-0.2592828442952824,"241":-0.09494581966627559,"242":-0.10232170883500603,"243":-0.4463394335586411,"244":0.013478791914162642,"245":-0.24377111861340697,"246":-0.1893314024333527,"247":-0.02681313780370388,"248":0.2060854962782794,"249":-0.02130302554104692,"250":-0.12237913011787227,"251":-0.1625103808546979,"252":-0.1105770027385726,"253":-0.10197123764862336,"254":-0.12809739748162324,"255":0.027441566627620657}},{"sx":1,"sy":1,"depth":256,"w":{"0":0.08395882454669673,"1":-0.1884820606535834,"2":-0.18724505135334288,"3":-0.2831810205946177,"4":-0.11565016781955034,"5":-0.13182129578202006,"6":-0.14404672379558736,"7":-0.0529886475889685,"8":0.06405797472224267,"9":-0.15655073807407607,"10":0.030410902126668835,"11":-0.12256875170924876,"12":0.042783915855740685,"13":-0.05599939465617877,"14":0.01473391904725296,"15":-0.1441823579404259,"16":0.01900437663103708,"17":-0.05608175914317912,"18":0.08053510823169038,"19":-0.24667148790782925,"20":-0.014858352706876887,"21":-0.17490019081575206,"22":0.010516074279334308,"23":0.07332862009487628,"24":-0.02063692654726214,"25":0.03536255740273134,"26":-0.12203428183439254,"27":-0.14529591312634144,"28":0.3415454167700892,"29":-0.15451914286551238,"30":-0.12328682787978805,"31":-0.16815672509375604,"32":-0.1240515265165204,"33":0.029553561025257774,"34":0.10432085651400502,"35":-0.15327853874067918,"36":-0.18543803855456806,"37":-0.25741065370159233,"38":0.15897053533778258,"39":-0.12250087667151591,"40":-0.17973821084174652,"41":-0.17172507011755495,"42":-0.33833675418302656,"43":-0.37527511718761575,"44":-0.1058368352617528,"45":-0.2448249545073361,"46":-0.2376968832611329,"47":-0.2282520977457423,"48":-0.02370927428341567,"49":-0.05778037337291327,"50":-0.28361639636609454,"51":-0.1327160685024225,"52":-0.2498038898255734,"53":-0.19035128047060057,"54":0.1592956342182345,"55":-0.17465568412844362,"56":-0.4889905763402708,"57":-0.33061875186859113,"58":-0.0859594902791769,"59":-0.30948129237118716,"60":-0.12941924238725586,"61":-0.17726160399950988,"62":-0.31888565805998614,"63":-0.29892544130350684,"64":-0.21447079981431513,"65":-0.4014169955856653,"66":-0.08507296958515397,"67":-0.36725593182791955,"68":0.08900169067782837,"69":-0.3672981502095871,"70":0.0473213584362717,"71":-0.08333602440580457,"72":0.10972836076598365,"73":0.16459474132567706,"74":-0.09410100909442604,"75":0.18054182853157807,"76":0.061236176924244205,"77":0.105453956216235,"78":-0.26686261730064836,"79":-0.25945417844232865,"80":-0.0769262351594574,"81":-0.513326735561265,"82":0.014043654021622602,"83":-0.10874819995790935,"84":0.19911319946078165,"85":-0.26008963894265974,"86":-0.18100611017293222,"87":-0.05410896016357261,"88":-0.10002013672096424,"89":0.11247836370624613,"90":-0.3120440184251953,"91":0.15590628317955915,"92":0.039346008530232846,"93":-0.05159107187480766,"94":-0.22657747599158898,"95":-0.1678074983343978,"96":-0.08425989091276183,"97":-0.2353708667397715,"98":0.14561552009659487,"99":0.11832226631132746,"100":0.04207252755968563,"101":-0.00044980437491580396,"102":-0.043403279775917104,"103":-0.09889567636900008,"104":-0.11756375759763547,"105":-0.16543843713938225,"106":-0.14411008143238901,"107":-0.09096895506021564,"108":-0.031107985047206646,"109":0.22701133488325947,"110":-0.1979038928943758,"111":-0.2281865717289374,"112":-0.24132278445972322,"113":-0.11552960453608785,"114":-0.18192924941696398,"115":0.09974537164570696,"116":0.051270586246327354,"117":0.03631771477506742,"118":0.017694806454700913,"119":0.09709037454213541,"120":-0.29440969437718933,"121":-0.1478948973194634,"122":0.01553440680946349,"123":-0.19378483641806338,"124":-0.1685840585069015,"125":-0.261218713540927,"126":0.03626846159133247,"127":-0.052948672451922356,"128":0.04491167471833126,"129":0.07766218201215817,"130":-0.272057467504052,"131":-0.5120723769094598,"132":-0.15213113436903175,"133":-0.05888568129188539,"134":-0.10731579284428987,"135":0.007099764857342176,"136":-0.2040908004583776,"137":0.06442197458641566,"138":-0.12493596006415264,"139":-0.08299757032360526,"140":-0.01872363153127194,"141":-0.0031037264741198014,"142":-0.19771908369668825,"143":-0.06898568968263909,"144":-0.22229145326522134,"145":0.06262572325077585,"146":-0.3147496101231087,"147":-0.09445865635140328,"148":-0.054514680456523495,"149":-0.09757285057489842,"150":-0.4380792659528374,"151":-0.17700024124577876,"152":-0.2242506096773174,"153":0.14836103868423006,"154":0.059408313003330805,"155":0.029439791930704885,"156":-0.3652748548432461,"157":-0.051579942126458285,"158":-0.2935245797364394,"159":-0.1486050491935277,"160":0.028025615001208135,"161":-0.04158582470092517,"162":-0.1857914697630071,"163":-0.13645982601056472,"164":-0.04051122492262582,"165":-0.024813047698850486,"166":-0.3340769968335965,"167":0.016630502273759472,"168":-0.06950516994909824,"169":-0.13236450328543867,"170":0.058157194164546754,"171":0.1092030133558145,"172":0.02835027342989812,"173":-0.1724937380249728,"174":0.06361648526821245,"175":0.05793222553779074,"176":-0.011005394693391535,"177":-0.017983152876812836,"178":-0.047195381695175995,"179":-0.1129678213985063,"180":0.16591183553293046,"181":-0.20887856796419482,"182":-0.34646114815678763,"183":0.08051369208642677,"184":0.19260045006314352,"185":0.020243201222610824,"186":-0.062299757259097505,"187":0.03169453060331773,"188":-0.1457596217172977,"189":-0.21615677321479182,"190":-0.1310347035089712,"191":0.3753367028145713,"192":-0.12295407140790156,"193":0.08919596695473547,"194":0.10912876508544812,"195":-0.17452331974732938,"196":-0.22419203961740858,"197":0.11032028669890016,"198":0.1250442406027403,"199":-0.061214278677353955,"200":-0.15385174429730558,"201":0.11738849267394753,"202":-0.10125160170509616,"203":0.2246605681957922,"204":0.0012215835568542073,"205":-0.05288943390251448,"206":0.04011047677466183,"207":0.2841102547658571,"208":-0.03426902338243388,"209":-0.04464151140246371,"210":-0.1521008059149249,"211":-0.2111324791979228,"212":-0.17922703175284774,"213":-0.2562068123016116,"214":-0.1934726819567511,"215":-0.02596255189155387,"216":-0.07874125293470735,"217":0.15903528917174764,"218":0.3353265769781812,"219":-0.21354659372043255,"220":-0.20719867125675917,"221":-0.07419780849441567,"222":-0.4058283274793748,"223":0.05280537649956873,"224":-0.022115164244289248,"225":-0.06997184983939878,"226":-0.03320469065511615,"227":-0.17198766314810354,"228":0.03655504366646173,"229":-0.6211883186295608,"230":-0.3149501566953713,"231":-0.003963102968078693,"232":0.05217297055958232,"233":-0.23342670150684675,"234":0.18542935208090264,"235":-0.3601154539584271,"236":-0.004458515861677422,"237":-0.07745775219104425,"238":-0.32781756582182797,"239":-0.35049803756994735,"240":0.07010435527220625,"241":-0.1229756600848536,"242":0.21046155330227234,"243":-0.4046689739702482,"244":0.1799398863751227,"245":0.015286355729390246,"246":0.06402957865716312,"247":0.0651382079383107,"248":0.240155964791679,"249":-0.2282265692666272,"250":-0.17953547765152383,"251":-0.2419649072484905,"252":0.16058587039246205,"253":0.24599470690769018,"254":-0.4844684865783913,"255":-0.024829357664597516}},{"sx":1,"sy":1,"depth":256,"w":{"0":-0.05860054996508863,"1":-0.16970798013790125,"2":-0.07301599575472982,"3":-0.2739958329395783,"4":-0.031529238748404756,"5":-0.44264341253775,"6":0.022481619720583056,"7":-0.07772854595574438,"8":0.19828762740235303,"9":-0.0976630972634378,"10":0.09141642944965796,"11":-0.16852453267489276,"12":0.0018719935618247332,"13":-0.19598078072092642,"14":0.05412377620029034,"15":-0.30153765494653756,"16":-0.06545943413511018,"17":-0.21948866756908128,"18":0.013794536003052615,"19":-0.32806630715744123,"20":0.08590262882053762,"21":-0.494831064696428,"22":0.0201347436467382,"23":0.004036937171857538,"24":0.1633567114987197,"25":-0.1467699140049384,"26":-0.07213560862644709,"27":-0.08830025706354545,"28":0.3331382585949691,"29":-0.19565845265463924,"30":-0.3513548557190288,"31":-0.22440384360113622,"32":0.010086641044786184,"33":-0.15175477417502897,"34":0.21266677808316742,"35":-0.22028122537285386,"36":-0.10883807787474073,"37":-0.24021716553841635,"38":-0.06828137674993498,"39":-0.03791231016152543,"40":-0.09691646555204989,"41":-0.10231596902468641,"42":0.02588245209970344,"43":-0.2606734089750405,"44":-0.016370625911874232,"45":-0.1743925503834523,"46":0.007567268268178693,"47":-0.33117839609558164,"48":0.19180759292555957,"49":0.1592838826442075,"50":-0.3084752195092338,"51":-0.38591922011955737,"52":-0.17675833073219802,"53":-0.12570509617651426,"54":-0.060214953773821356,"55":-0.03947062272788006,"56":-0.3744198468523615,"57":-0.3171141288352156,"58":0.05335359509558105,"59":-0.3165951840847882,"60":-0.04774059986980227,"61":-0.09079156553448471,"62":-0.1332711504324347,"63":-0.2565021656998728,"64":-0.15383117583273778,"65":-0.5260292181509633,"66":-0.10596415138848492,"67":-0.19778066314458972,"68":-0.20044159151566368,"69":-0.4311035856473692,"70":-0.14235895389763434,"71":-0.14395560773249583,"72":0.2384518941241614,"73":0.0670097834885398,"74":-0.17376531986573987,"75":-0.15554379001643182,"76":-0.037540490470759434,"77":0.051581830771065575,"78":-0.35401517291871143,"79":-0.42702339345041335,"80":-0.1807694400472085,"81":-0.23238172610084928,"82":0.04890738971618184,"83":-0.03516498136631973,"84":-0.10552065776524684,"85":-0.20857658627801628,"86":-0.3982104311146366,"87":-0.42699266493749166,"88":0.10218134091515246,"89":-0.06420387386720997,"90":-0.3909463636281385,"91":-0.2674635159264567,"92":-0.06547129718961057,"93":0.15619250274258786,"94":-0.3148186191623735,"95":-0.3235454185987189,"96":0.020816041341226416,"97":-0.11270643955836947,"98":-0.028212899698731114,"99":-0.3232146816831996,"100":-0.17057733082143708,"101":-0.08262480291196041,"102":-0.05941453920987028,"103":-0.0840243109919266,"104":-0.0926315223555725,"105":-0.01313130954397116,"106":0.21900067954447952,"107":-0.06690131965270808,"108":-0.09130923734221724,"109":-0.29252926945652763,"110":-0.006183021951601564,"111":-0.4703768609932178,"112":0.09174233758537671,"113":-0.1855262976194065,"114":-0.15021528981060148,"115":-0.2651976108701534,"116":-0.34033035052110183,"117":0.103568515555665,"118":-0.23192571641094925,"119":-0.012135846792350479,"120":-0.3289575517874301,"121":0.05987624493821391,"122":0.11520612188502229,"123":-0.11054717417698375,"124":0.1542031210612126,"125":-0.19873412589034972,"126":-0.11751453273475754,"127":-0.010455120656976657,"128":-0.2542807255331956,"129":-0.1241933857346317,"130":-0.4103444755346626,"131":-0.04924384026373821,"132":0.07488077501889587,"133":-0.5545911716013368,"134":-0.01705160486294147,"135":-0.050677639434234985,"136":0.08274476284520524,"137":0.09469250348724054,"138":-0.07764308537677499,"139":-0.012790883681889883,"140":-0.1307863330161674,"141":0.01917022060072949,"142":-0.4249222795606337,"143":-0.43812333582700547,"144":-0.35461948215921274,"145":-0.10724628072429489,"146":-0.048337319567375386,"147":-0.07815051584453274,"148":0.11186396600908302,"149":-0.47336335353592457,"150":-0.21395671395411334,"151":0.013529261571240491,"152":-0.02387962208609019,"153":-0.03422123426476225,"154":-0.36946276735538186,"155":-0.19109769596323664,"156":-0.16604627786955936,"157":-0.09577792897494118,"158":-0.3392471436386135,"159":-0.3391231815447908,"160":0.1679785497988235,"161":0.006206226402362159,"162":0.07669319619000135,"163":-0.30506563090325,"164":-0.1750530415728591,"165":-0.27817657294279735,"166":0.12733726005733703,"167":-0.25668443276057296,"168":-0.04529583920572021,"169":0.01715252962814209,"170":-0.29404543610724615,"171":-0.08383245269437575,"172":-0.166042230304981,"173":-0.305764437289855,"174":-0.15538018479675123,"175":-0.38306378149317727,"176":-0.057027160165058745,"177":-0.1587117732869588,"178":-0.16302911110950746,"179":-0.17529918779201648,"180":-0.24707682581159998,"181":0.14661852711850726,"182":0.08522535724536638,"183":-0.1750013102712358,"184":-0.5279443604286569,"185":-0.14463168847875765,"186":0.08100041010796785,"187":-0.2709026987450085,"188":-0.07979977928964399,"189":-0.18620252608007393,"190":-0.19475920014639223,"191":-0.33683255335815243,"192":0.05117175777509259,"193":0.0688470736412904,"194":-0.04684835300862061,"195":-0.21551565129886632,"196":0.1906141306571994,"197":-0.3081417584157087,"198":-0.36026707961272136,"199":-0.00968916789332628,"200":0.08453038991165937,"201":-0.3908271149389855,"202":0.061516359976661404,"203":-0.3189467564277421,"204":0.011818839692151428,"205":-0.1480488221881483,"206":-0.22810103299156273,"207":-0.5382650900760667,"208":-0.06400314199985709,"209":-0.1832707637954431,"210":-0.010069512060814743,"211":-0.23251721299386158,"212":0.12345602074760956,"213":-0.3118092745907751,"214":-0.11027928171819072,"215":0.007521918517142931,"216":-0.050626491515706605,"217":-0.0814911900051083,"218":-0.2423275880779736,"219":-0.18530079898083834,"220":-0.09023963270270881,"221":0.0316822884481276,"222":-0.2720405253369863,"223":-0.5284930050190748,"224":-0.06756336294960553,"225":-0.44080994649049615,"226":0.04342760214919987,"227":-0.022072751922747144,"228":-0.07685121463028956,"229":-0.048163947237459113,"230":-0.17798430562106018,"231":-0.2513943193662883,"232":0.012193258555082954,"233":0.13877163232198667,"234":-0.18218031489187253,"235":0.13200245356660156,"236":-0.08228503739834113,"237":-0.12567894186000675,"238":0.02049426289973755,"239":0.005892744014422634,"240":0.02768110683068235,"241":-0.05803603000086571,"242":-0.14932986273087206,"243":0.09224169628149148,"244":-0.21397925615354427,"245":0.023276782659907534,"246":-0.1200519699021236,"247":-0.0013713148996352957,"248":-0.18469283428383557,"249":0.11116490010664228,"250":0.11065574034499676,"251":0.008223551531363319,"252":-0.08381438820902916,"253":-0.35422024213085096,"254":0.08653438653719327,"255":0.046049388585507556}},{"sx":1,"sy":1,"depth":256,"w":{"0":-0.010454643522016215,"1":-0.1192724372623967,"2":-0.18069550550638927,"3":0.32665495674176576,"4":-0.00436561372603693,"5":-0.0017297089030672294,"6":-0.0640223177327012,"7":-0.17225380783721328,"8":-0.04212432144978534,"9":-0.05494074965227035,"10":-0.17309043064197038,"11":-0.21608616602054367,"12":-0.27871510954065526,"13":0.03181579606569234,"14":0.09012988382621658,"15":-0.03673118016299731,"16":-0.1597084507947456,"17":-0.08462246790538078,"18":-0.09377937926722249,"19":0.3554217416746076,"20":-0.3044088472465317,"21":0.01723175974613508,"22":0.022478165981528367,"23":-0.22509243933068618,"24":-0.6059008673006935,"25":-0.2915099498854547,"26":-0.1776391937290497,"27":-0.36948199291728145,"28":-0.5874995302611732,"29":0.24668299969039206,"30":-0.06318174667077767,"31":-0.0768718305675349,"32":-0.3570516991271705,"33":-0.05682959406027598,"34":-0.32262769395772567,"35":0.18043446351921633,"36":-0.3358021803458846,"37":0.19899588014004221,"38":-0.22310256724076596,"39":0.0815782215419768,"40":-0.661842651858069,"41":-0.39641233574539475,"42":-0.30019213906330666,"43":-0.41078948060842757,"44":-0.49936751930472295,"45":0.2628136459361701,"46":0.019733812776772306,"47":-0.018127103486327435,"48":-0.21453037945017936,"49":0.005456634201920585,"50":-0.25493787613080476,"51":0.011356047347675322,"52":-0.10409950091166098,"53":0.09812234476635452,"54":-0.21604584183570832,"55":-0.22946806512300796,"56":-0.19281995785159875,"57":-0.1628737215675702,"58":-0.3301387848441283,"59":-0.13099875003682543,"60":-0.35377868685958996,"61":0.09990438727151749,"62":0.08607212249959412,"63":0.099737167692516,"64":-0.14171282031405,"65":-0.028349349448196677,"66":-0.12767165710208622,"67":0.12371715809417415,"68":-0.07208487953213877,"69":-0.06525547824495728,"70":-0.046687302086279595,"71":0.03081663217200732,"72":-0.06974697662834298,"73":-0.002589785390170135,"74":0.18284726262819354,"75":-0.1528663005804491,"76":0.051387751255991085,"77":-0.252919467609354,"78":0.00634317823676955,"79":0.002483578935385288,"80":-0.07405813067709449,"81":0.08977754336230358,"82":-0.577225712135124,"83":0.016174641841741177,"84":-0.06056347111252728,"85":0.017077783946485663,"86":-0.28745274166945356,"87":0.14588132213342075,"88":-0.15670130784472647,"89":-0.2957691682568226,"90":0.19897086749177945,"91":-0.07825961870398425,"92":-0.12291793733488825,"93":-0.4993439145786571,"94":-0.2641591334086287,"95":-0.09056277142321906,"96":-0.03940476568570182,"97":-0.06254727395901388,"98":-0.41250881978436854,"99":-0.11563203773063313,"100":-0.3058066410458829,"101":0.2715387951398193,"102":-0.12567958592688364,"103":0.14890597222190005,"104":-0.2446733322146614,"105":-0.08875639488480908,"106":-0.07772870347737136,"107":-0.23993779126646714,"108":-0.11011218853590231,"109":-0.2981441972131685,"110":0.06621718861885978,"111":0.10313557312585118,"112":-0.17354696248802215,"113":0.045720030171296944,"114":-0.30992644361851596,"115":-0.020066299731208295,"116":-0.17509814796254314,"117":-0.015355076692685933,"118":0.04990990138999841,"119":-0.20857701875403525,"120":0.06883944208748341,"121":-0.05052399614700631,"122":-0.2516630319079942,"123":0.02446990409407249,"124":-0.2350883529739909,"125":-0.11951591731929856,"126":0.16691106489060642,"127":0.38743430511204163,"128":0.01834250244310006,"129":-0.18978463556474615,"130":0.052036997223886494,"131":0.029591776840564105,"132":-0.07756014780817842,"133":-0.09986209132476347,"134":0.0071510939712795115,"135":0.029451694746465595,"136":0.07385892906873177,"137":0.07224169050327696,"138":-0.1168195093160747,"139":-0.022374205794753344,"140":0.05239159118293541,"141":0.05946982444994462,"142":0.03960561814425918,"143":0.16399775217513624,"144":0.27936503603583107,"145":-0.14335952500931448,"146":0.12844652910152954,"147":-0.3122186725521362,"148":0.022695953473995324,"149":-0.19866211614101972,"150":-0.15084089409092655,"151":0.1293592059993682,"152":0.059090930236085595,"153":-0.2863991011537813,"154":0.1300328686482181,"155":-0.11200159694829248,"156":0.10407985119624097,"157":0.008184030944316256,"158":-0.16985731504344567,"159":-0.3015679476982485,"160":0.008974936358730092,"161":-0.04035988484436416,"162":0.09376803371143487,"163":-0.08556948367414528,"164":0.07391373055908429,"165":0.1091423290023639,"166":-0.19118797899731318,"167":-0.021770677945174947,"168":0.16618540049342928,"169":-0.21409597044161505,"170":-0.0538429305216352,"171":-0.27188147344098657,"172":-0.08332532636061823,"173":-0.03408071792510402,"174":-0.12331859985925754,"175":-0.19624732066713876,"176":0.0507233380568445,"177":-0.005774389347861881,"178":0.08416526089963684,"179":-0.06899715041321049,"180":0.03321873125524959,"181":-0.1801143276794714,"182":-0.08678914152353295,"183":-0.006565430162810635,"184":0.1711490238058669,"185":0.022851535549361358,"186":-0.1305989430295082,"187":0.033230949714375506,"188":-0.2018270851892973,"189":-0.037522437355230774,"190":-0.030165031802147795,"191":-0.14394823714474234,"192":-0.2091846362904635,"193":-0.16749313077112304,"194":0.017797349792566884,"195":0.07280712133230074,"196":-0.16943545242480454,"197":-0.09353601760431972,"198":0.009844284504093347,"199":-0.3624830523862579,"200":-0.12174578842232953,"201":-0.01697896781677753,"202":-0.3145684335772474,"203":0.045300130975205806,"204":-0.23866287972683867,"205":-0.005629587687594803,"206":-0.0739055999993108,"207":-0.1709568080209264,"208":0.08663881666812598,"209":-0.34604652339893216,"210":-0.014781327744911648,"211":0.08179685059890107,"212":-0.29302413199563676,"213":0.07486416240037673,"214":-0.1899678911851366,"215":-0.36871499018645715,"216":-0.3476761329203213,"217":-0.017257635644857966,"218":-0.374088876778147,"219":-0.060228010446326787,"220":-0.05383156552280965,"221":-0.06953664043608175,"222":0.07344665717165215,"223":-0.06820417231659365,"224":-0.15231834799173932,"225":0.10164511497615045,"226":-0.09485627692178264,"227":0.07815639880398416,"228":-0.3220222453335028,"229":-0.00410866607324877,"230":0.09701276797630387,"231":-0.4513731159820923,"232":-0.25204465408952503,"233":-0.3414706232027822,"234":-0.2705891456381934,"235":-0.12190650996167418,"236":-0.08629573423325068,"237":-0.07142316269576049,"238":-0.020279053241326436,"239":-0.15371190357161424,"240":-0.19801514544460624,"241":0.17241031029373996,"242":-0.18316675943319255,"243":-0.0836921893180114,"244":-0.2777223479503221,"245":-0.10585746961662497,"246":0.20490448383844878,"247":-0.18731995400046672,"248":-0.15950992929158686,"249":-0.27159146238944776,"250":-0.06752172008917476,"251":-0.2688886750993316,"252":-0.156149641793167,"253":-0.07084626569623195,"254":-0.20710335305706876,"255":-0.12815021696098383}},{"sx":1,"sy":1,"depth":256,"w":{"0":0.0014923644202874955,"1":-0.03161313107922476,"2":-0.05699532794248781,"3":-0.022887311294543248,"4":-0.1255941870020763,"5":-0.0021130081249437493,"6":-0.034411363969044824,"7":-0.10256665221964881,"8":-0.2924666685025818,"9":-0.12006010245533287,"10":-0.12216421862384638,"11":-0.20416221707684393,"12":-0.2005814622117884,"13":-0.033867900822954586,"14":-0.050433026307022545,"15":-0.10702822148724304,"16":-0.09138271385776212,"17":0.021060451393003277,"18":-0.26135390089663585,"19":-0.15145539296703453,"20":-0.12384597858607796,"21":-0.0018632269501194566,"22":-0.15335753690790904,"23":-0.06820884064508201,"24":-0.09238753429793013,"25":-0.1576889573460622,"26":-0.13448948954048856,"27":-0.10052341691453158,"28":-0.27748302604564845,"29":-0.003085437732831803,"30":-0.12774328182242944,"31":-0.1818435700699755,"32":-0.27779051217450557,"33":0.07080546832341106,"34":-0.13062135263664543,"35":-0.25180629226238044,"36":-0.13426335318942323,"37":-0.1918215826644291,"38":-0.2797398694882716,"39":-0.012477845243611186,"40":0.23801540376617558,"41":0.22156180158619507,"42":-0.09873328577994442,"43":0.20268009943201043,"44":-0.17555311715502245,"45":0.016678450181142248,"46":-0.28733428671471745,"47":-0.20022315800278973,"48":-0.15348351327701973,"49":-0.019583605300782726,"50":-0.12494922756462018,"51":0.043152615434431454,"52":0.07164588835089014,"53":0.10264874114427266,"54":-0.4446440586836127,"55":0.044859784259817674,"56":0.594320639893427,"57":0.18352036005783537,"58":-0.19761454616106092,"59":0.2378217716926107,"60":0.02687105944274136,"61":-0.048335140658214565,"62":-0.20313443831364447,"63":0.09030618215582999,"64":-0.037018279315595794,"65":-0.08636062640496404,"66":-0.06737320864270235,"67":-0.0650053693087574,"68":-0.2875511051570125,"69":-0.1502464772016894,"70":-0.1297719195969234,"71":-0.1996966973209799,"72":-0.15105155621218014,"73":-0.32054305992724363,"74":0.03524146754888582,"75":0.03751518063990136,"76":-0.17045898200882317,"77":-0.2710581992697186,"78":-0.19846706184792764,"79":-0.21371235296245786,"80":-0.048266140291262,"81":0.2055669848802994,"82":-0.3020702694067248,"83":-0.0739712016311615,"84":0.022912117355857888,"85":-0.015242095779392726,"86":-0.02690250701242639,"87":-0.17183539923003574,"88":0.02906924767274716,"89":-0.10074353253641341,"90":-0.04506456516317375,"91":-0.12544252110660353,"92":-0.1243357118716729,"93":-0.16185636504646073,"94":-0.07216292785229361,"95":0.038809744327062766,"96":-0.13364342990204264,"97":0.09075558241827401,"98":-0.10069770373105731,"99":-0.1292571353381013,"100":0.060927454729938955,"101":-0.4788523906557124,"102":-0.11702968890203877,"103":-0.18248693409188455,"104":0.059260697964001886,"105":0.06075466547297085,"106":-0.17546171689389786,"107":0.15027328612618,"108":-0.11276049604136819,"109":0.19878965442360075,"110":-0.3690700961683781,"111":-0.1048285299009503,"112":-0.28510262932565866,"113":-0.19490366987647592,"114":0.20375866862550057,"115":-0.16632232551447954,"116":-0.13860044398560759,"117":-0.3332718636682514,"118":-0.23446607539853598,"119":-0.15303538271978417,"120":0.2615597493546741,"121":0.02579569207804263,"122":-0.30907121355122485,"123":0.31112835317911347,"124":-0.06545205597916165,"125":0.33274490584946664,"126":-0.7424312417602784,"127":-0.2279450990253351,"128":-0.23510007112948028,"129":-0.22047642957326874,"130":-0.2128109308758255,"131":-0.27696939532701526,"132":0.11367037255286395,"133":-0.2836725097014014,"134":-0.33671513611082765,"135":-0.06092751306650482,"136":0.11389230064749253,"137":-0.0015734981670406242,"138":-0.1806917854242792,"139":-0.14336763075489029,"140":0.07446596412093243,"141":-0.06184063797991023,"142":-0.4207057145657215,"143":-0.3379308703011485,"144":-0.07381553472350051,"145":-0.26055350288273577,"146":-0.1165993052133832,"147":-0.1779779455637921,"148":0.05705040617853836,"149":-0.21189371021568174,"150":-0.07190744559027504,"151":-0.031516531953205466,"152":0.0025058065078991856,"153":0.05379351951853365,"154":-0.11691636751511406,"155":0.0626331892807992,"156":-0.054755628307946246,"157":-0.05830449928388426,"158":-0.33065112123995555,"159":-0.09244916729024014,"160":-0.13405919222902166,"161":-0.22126488664998395,"162":-0.053380373814489866,"163":-0.05196883291671537,"164":0.01314506092268339,"165":-0.12321839268346932,"166":-0.012418552267717906,"167":-0.011721571045020408,"168":-0.2416583311327665,"169":-0.22292739098876402,"170":-0.19497524438823224,"171":-0.22419090134213107,"172":-0.006747551764237185,"173":0.05651169564950462,"174":-0.2680402571251832,"175":-0.22053251157857162,"176":-0.24384998680677653,"177":-0.09522706934830694,"178":-0.02905968792957148,"179":-0.16700081100679756,"180":-0.16527550947635367,"181":-0.09606578082525259,"182":0.11325948856703585,"183":0.04690305507294453,"184":-0.32317955090766604,"185":-0.3215461380196694,"186":-0.10287829025124075,"187":-0.42647315244897643,"188":-0.12431192310624034,"189":0.34291330399712994,"190":-0.20179049946728705,"191":-0.2402976441831604,"192":-0.1018528429390375,"193":-0.13089017848234305,"194":-0.15479709383954166,"195":-0.0781065183153134,"196":-0.03809843173134537,"197":-0.3276831023436148,"198":-0.03021802700418074,"199":-0.12126003007139885,"200":0.08693351520827258,"201":-0.24335217171189824,"202":-0.07330774708104236,"203":-0.07174822877939672,"204":-0.03645171220322326,"205":-0.00541365573148644,"206":-0.07822810163666873,"207":-0.413074471456823,"208":0.13085335783378352,"209":-0.27228465182692974,"210":-0.03232867410580378,"211":-0.1599176607585563,"212":0.08157674622777299,"213":-0.31806531819652006,"214":-0.25685487583750455,"215":-0.04304570934571255,"216":-0.038029748533491343,"217":-0.11168498747537735,"218":-0.19595470980864582,"219":-0.14834052920585347,"220":-0.0675876060759343,"221":-0.1514606240715942,"222":-0.1787456007959421,"223":-0.4109990034116983,"224":0.022921489185831305,"225":-0.5096023231240285,"226":-0.06654007598277159,"227":-0.12147528662636571,"228":0.05660482270082016,"229":-0.01072033137436091,"230":-0.1458859460270337,"231":0.06704030168645472,"232":-0.09469112873397433,"233":0.047020946636039826,"234":-0.01321055966440001,"235":0.054429888445028766,"236":-0.04804367117402308,"237":-0.1147588139707796,"238":0.08138866388901284,"239":0.006349623810172747,"240":0.036368687931506244,"241":-0.0975767150538424,"242":-0.15778948658647746,"243":-0.06444896825907864,"244":0.030583816526729972,"245":-0.14981687556829432,"246":-0.1511834365571506,"247":-0.00404163402363137,"248":-0.1700766584686621,"249":0.038256489379901434,"250":0.006036131344018181,"251":-0.07431165342186986,"252":0.02568215737203579,"253":-0.3878138753607667,"254":0.03953706716626953,"255":0.10467508882023853}},{"sx":1,"sy":1,"depth":256,"w":{"0":0.03542022929286399,"1":0.050739064262242006,"2":0.14031373253307097,"3":0.10531233900635395,"4":-0.36208360644306664,"5":0.15036605091444713,"6":-0.02078424239255067,"7":-0.15672270365330063,"8":-0.2971973463917926,"9":-0.09548384719422882,"10":-0.20651026134882033,"11":-0.1653959865984274,"12":-0.28474519629159006,"13":-0.06455667402935253,"14":0.019481114326288396,"15":0.18571888026783392,"16":-0.1071891677639198,"17":-0.27011281238475454,"18":-0.29957382967694707,"19":0.02296052509814104,"20":-0.418626949338219,"21":0.0796760788805053,"22":0.12867969383188782,"23":-0.07340924924483398,"24":-0.34549345980995383,"25":-0.0613783396602736,"26":0.041058611910975255,"27":-0.22216319961155717,"28":-0.2646990211733172,"29":-0.32497841840771313,"30":0.2738029981076834,"31":0.08099895616858546,"32":-0.1059631503292661,"33":-0.39770417581202605,"34":-0.5360450639096724,"35":-0.08739417977137194,"36":-0.19356491431883743,"37":-0.0188363379454092,"38":-0.024692059817447376,"39":-0.0765592427776636,"40":-0.09549631871030213,"41":0.2137775984126993,"42":-0.26131985049231166,"43":0.22141956647375446,"44":0.08539535265688643,"45":-0.14511494946330325,"46":0.18932271771565506,"47":0.1620954405037838,"48":-0.13650321931290846,"49":-0.2152562417696636,"50":0.14274438133079242,"51":-0.10482435692969404,"52":-0.0529818170577015,"53":-0.04604465099800814,"54":-0.07879753070049883,"55":-0.06047483388151145,"56":0.008836542813588128,"57":0.10537909485542027,"58":-0.43818160676523066,"59":0.08797990102614354,"60":0.1064596850798061,"61":-0.01625084483519373,"62":0.054767307676162884,"63":0.05543797008757195,"64":-0.18044739657940434,"65":-0.20098405118477025,"66":0.045226596866981356,"67":0.2276395833752096,"68":-0.4557682689691457,"69":0.08815108560462545,"70":0.018728709973037102,"71":-0.09543907430268149,"72":-0.60401831456551,"73":0.001972267392182221,"74":-0.10210232343010002,"75":-0.18835104336348532,"76":-0.47491658781506135,"77":-0.2506217757896449,"78":0.08786881101570737,"79":0.07368521588171145,"80":-0.060038496644773696,"81":-0.10381688173709783,"82":-0.5437290131520481,"83":-0.006939681679493347,"84":-0.12807307773905416,"85":0.1524740630814895,"86":-0.047736839151757374,"87":0.012510596919411466,"88":-0.14915604912093408,"89":-0.08436706363532757,"90":-0.03951796787003144,"91":-0.05235689534020356,"92":-0.05946335698413464,"93":-0.2969159347224193,"94":0.03979649576080726,"95":0.1567345072639211,"96":-0.04195023317672458,"97":-0.10563928917412761,"98":-0.26054986196274377,"99":-0.08268718159696427,"100":0.16733333677978937,"101":-0.27191223404729276,"102":-0.23230057257113618,"103":-0.051231351004963066,"104":-0.04215724485309316,"105":0.025943507124011257,"106":-0.28660006057518506,"107":0.11067429816011176,"108":-0.012449597737076637,"109":-0.1866783414512809,"110":-0.014877344282356179,"111":0.07432319748547991,"112":0.04965562812541817,"113":-0.28167170513469736,"114":0.037744549194770494,"115":-0.16164386471791842,"116":0.2177937176910518,"117":-0.35714375234252976,"118":-0.20903423217866357,"119":-0.058457738902711075,"120":-0.1848328679795821,"121":-0.07788411966337447,"122":-0.31034043191519556,"123":0.044252309167093704,"124":-0.030051233570302857,"125":0.05954764864511349,"126":-0.3738120710450333,"127":-0.12605743204263573,"128":-0.12060670094103822,"129":-0.040140521206267515,"130":0.1458437307560386,"131":0.1900067861651985,"132":-0.6402589927836704,"133":0.12522043003919267,"134":-0.017318853735713218,"135":-0.20038414190017614,"136":-0.30257922059359094,"137":-0.20198527573031014,"138":-0.034745825246663135,"139":-0.13142432560811826,"140":-0.16637940658998362,"141":-0.4695374580008883,"142":-0.03648741503297757,"143":-0.10500851434069468,"144":-0.05047734879150439,"145":0.08167562030438026,"146":-0.2533611128459032,"147":0.040159809065047104,"148":-0.42723770938963,"149":0.08311460822503541,"150":-0.036207787560294025,"151":-0.04686927404965244,"152":-0.1524109331975398,"153":-0.27044357615917347,"154":0.036149577789006404,"155":-0.2521245044801617,"156":-0.09148503483625095,"157":-0.3404054401312794,"158":-0.19556542074954658,"159":0.04829201215989702,"160":0.1711695575366507,"161":0.023479513764096883,"162":-0.17217055573510875,"163":-0.3327331852199745,"164":-0.04920063749345765,"165":-0.28695339083953514,"166":-0.3720971829229206,"167":-0.20560761332995348,"168":-0.0692501687362881,"169":-0.13131672078150128,"170":0.13799952940348642,"171":-0.31891495276243725,"172":-0.36226553184759686,"173":-0.2210592698272124,"174":-0.23484655476218952,"175":-0.29445452722401255,"176":-0.12603939720838928,"177":-0.2183255238931095,"178":-0.17216579121566022,"179":-0.22450197949686276,"180":-0.1656834538520474,"181":0.025961073138632152,"182":-0.14441342407524219,"183":-0.028974796724142386,"184":-0.20021672470032725,"185":-0.07822370273064146,"186":0.21901290259775835,"187":-0.1663275568170464,"188":-0.025477298147503907,"189":-0.17242769629153237,"190":-0.1898515287261496,"191":-0.26473301915907493,"192":-0.20066607453101998,"193":-0.2075902509506824,"194":0.09615774716114917,"195":-0.23681364488958867,"196":-0.28182563138874295,"197":-0.03536891030513255,"198":-0.07671919568598813,"199":-0.132794114307392,"200":-0.15583740512050137,"201":-0.3171094305051523,"202":-0.010978378822259997,"203":-0.24148624231112786,"204":-0.08613375488255727,"205":-0.2349660211148795,"206":-0.16906061115632925,"207":-0.1022297036591875,"208":-0.2152805391049122,"209":0.21206911152363644,"210":-0.07325088679310267,"211":-0.667056459941106,"212":-0.15031328663333351,"213":-0.3619632265583545,"214":-0.08605653448164804,"215":-0.13441637729906214,"216":-0.07107732043225798,"217":-0.09498925249847323,"218":-0.03782357206971383,"219":-0.33985212864709047,"220":-0.13690365944540803,"221":-0.12448159419875164,"222":-0.5546311657130746,"223":-0.24141656627219943,"224":-0.12669664959508903,"225":-0.2845350859083582,"226":0.011082205792085595,"227":-0.28517281559392843,"228":-0.06454643927146811,"229":-0.5556966253454352,"230":-0.1986306676242515,"231":-0.09843677914706514,"232":0.004684218848814176,"233":0.09918953152140252,"234":-0.033420942956340925,"235":-0.004691951129350005,"236":-0.24418633553690877,"237":0.1735116678558024,"238":-0.3601665002410362,"239":-0.35859760671567786,"240":0.02510766944171205,"241":-0.3127096313414771,"242":0.04802064042990292,"243":0.04073333662485152,"244":-0.06768137294508365,"245":0.06195886026185951,"246":-0.20084630984534285,"247":-0.06485207481407215,"248":-0.09313589682909136,"249":-0.0019202535518440264,"250":0.09135913227710891,"251":0.0070912399174306905,"252":0.02826906739131663,"253":-0.0339435589155065,"254":-0.20531720248199536,"255":-0.02657342912733796}},{"sx":1,"sy":1,"depth":256,"w":{"0":-0.0744351247328789,"1":0.16305569663044364,"2":-0.10908848533370841,"3":-0.05105767302840192,"4":0.21636884510118432,"5":-0.24589519649064423,"6":0.007120295408287693,"7":0.0927069594825531,"8":0.1537822718181787,"9":-0.11187965781607291,"10":0.30400798221095926,"11":-0.06205882617023398,"12":0.08702923368206526,"13":0.1956552068480016,"14":-0.033389884549241106,"15":-0.3683721750082963,"16":-0.0690091570425558,"17":0.04034493943688376,"18":-0.039643617359497126,"19":-0.3789176632295433,"20":0.11730774452703878,"21":-0.2783238480272715,"22":0.0008991849969541104,"23":0.04300017616596785,"24":0.010727516857976512,"25":-0.11803887613758186,"26":0.12891111892513935,"27":0.0879815705048752,"28":-0.02533986262184175,"29":0.016542985809830626,"30":-0.2921767739073836,"31":-0.3881092465522825,"32":-0.1401276735440789,"33":-0.17565792824000726,"34":-0.30252516746807145,"35":-0.395053411358693,"36":0.014247538636279396,"37":-0.40146087588738333,"38":-0.2957019692640064,"39":-0.017014886896897854,"40":-0.01253647556214542,"41":-0.18335142051074002,"42":0.1427516055505283,"43":-0.012139863214498302,"44":-0.1411476355702814,"45":-0.2568476673911049,"46":-0.28621489605363665,"47":-0.3047335247149964,"48":-0.12959613923184632,"49":-0.06435684850572126,"50":-0.048209294915187724,"51":-0.15785422711881297,"52":0.07760121581374285,"53":-0.23395081289290276,"54":0.10311339281766946,"55":-0.17989882578185312,"56":-0.11665531644511554,"57":-0.14142149679010935,"58":-0.14434028374977353,"59":-0.0919262535283374,"60":-0.08803111530815898,"61":-0.13639411538827836,"62":-0.175360173973596,"63":-0.05367550932460463,"64":-0.02932266461502242,"65":0.015482188362190426,"66":0.056688676149281726,"67":-0.06677122030762324,"68":0.05405165820940426,"69":-0.2147059812772567,"70":0.06186433631621431,"71":-0.058013830503629966,"72":0.11866976334725465,"73":0.05243786569615309,"74":-0.0022150423198949182,"75":-0.15658253249674167,"76":0.006947300886369919,"77":0.2617854395472527,"78":-0.31156705109040705,"79":-0.1107440036519748,"80":0.18649510331272084,"81":-0.38474408586252895,"82":0.1702325118277515,"83":-0.14302832961099932,"84":0.08432953382658794,"85":-0.08924469883125673,"86":-0.0267900169329754,"87":0.2771109484337639,"88":-0.08573019414849817,"89":0.10742248319393885,"90":-0.2478180381680294,"91":-0.10281918141559994,"92":0.04942722182651414,"93":0.13272420704800267,"94":-0.03552914165402173,"95":-0.1684669977977054,"96":0.16886077667583102,"97":-0.084195508544933,"98":0.1903920745939724,"99":0.0670079981881145,"100":0.19567376362202793,"101":0.0854002536569448,"102":-0.16666228663572497,"103":0.1821302162342262,"104":0.028828935797390483,"105":-0.28036086330241433,"106":-0.21451464463589273,"107":-0.06369866695703964,"108":0.0010186705603217707,"109":0.03993575999740902,"110":-0.03493580998549263,"111":-0.29381613837683107,"112":0.15601248887030564,"113":0.09616507915010529,"114":-0.1005490851383297,"115":-0.16278523381111099,"116":0.14089382717050186,"117":-0.011842775766744964,"118":-0.004240224776948765,"119":-0.18220361165463586,"120":-0.21877880524992557,"121":-0.23467453427131243,"122":0.06240189065846048,"123":-0.06553424055183152,"124":-0.06788735403899453,"125":-0.15737538015782315,"126":-0.13288953235170936,"127":-0.059306590884463724,"128":-0.3315585076333444,"129":-0.39009441392864247,"130":0.11742570990175073,"131":0.09672403207403693,"132":-0.11146530545721935,"133":-0.18557572679457976,"134":0.009379843269386911,"135":-0.21292465928623006,"136":-0.08069705085657347,"137":0.22928558484889555,"138":-0.44658263074200744,"139":0.04200774332570425,"140":-0.05914527942685724,"141":0.08981753437584482,"142":-0.1545251818215684,"143":-0.25216372921879554,"144":-0.2944515840363934,"145":-0.2124284277155655,"146":-0.06475573436998859,"147":-0.04975907933655942,"148":-0.30408517598951273,"149":-0.08348308646728037,"150":0.030173636383066825,"151":-0.37130857610922474,"152":-0.1827608184063513,"153":0.09944475629176047,"154":-0.5773849323268491,"155":0.22506084144734437,"156":-0.009998151525077905,"157":-0.0338567340709789,"158":-0.017838045036129752,"159":0.060492487519771834,"160":-0.14363136602301946,"161":-0.16428268228768958,"162":-0.2025744757925777,"163":0.045474157891451865,"164":-0.09988853939420186,"165":0.069090834414113,"166":-0.32970919535236326,"167":-0.11933967736794439,"168":-0.0388412882283674,"169":-0.35680954917878127,"170":-0.21935278892320684,"171":-0.03458246955170019,"172":0.11469108931305731,"173":-0.06242066936770361,"174":0.06439968171301734,"175":0.23479222448135806,"176":-0.05594516563614734,"177":-0.19061520909467877,"178":-0.1334474873741264,"179":-0.015121484492777209,"180":-0.01937949742975352,"181":-0.19497493887674489,"182":-0.19022192255043996,"183":-0.07705792865608305,"184":0.14749379607298418,"185":-0.07364082831391179,"186":-0.06616996613084741,"187":-0.14382150498926,"188":-0.08925347113564179,"189":-0.3144548856496077,"190":0.0388460631419729,"191":-0.1999759189816846,"192":-0.1257832241183517,"193":-0.4741743700298472,"194":-0.41352201627224777,"195":0.05619519096987025,"196":-0.06476000481595594,"197":-0.1494527099543108,"198":-0.009818964969759892,"199":-0.12966662673539936,"200":-0.3334621488907078,"201":0.04175082667203597,"202":-0.1328737723616856,"203":0.09163254034217917,"204":-0.3124824794686495,"205":-0.0948197983467009,"206":-0.09051345055745395,"207":-0.22585995595468647,"208":-0.2508555442522856,"209":-0.18413652228925448,"210":0.0252300571494654,"211":0.058182990415199726,"212":-0.5999356342111554,"213":0.028934604498372513,"214":-0.09040197890930432,"215":-0.26878342311047626,"216":-0.2755500586711605,"217":-0.0936316171696664,"218":-0.22484303957734772,"219":0.22940141729516536,"220":-0.17998281880020375,"221":-0.17106452865718286,"222":0.14438148049858238,"223":0.1182200558068934,"224":-0.11421310807457757,"225":0.2960472957579602,"226":-0.12573118068273023,"227":-0.00022284920882647847,"228":-0.5150511533257182,"229":-0.10109633551391647,"230":0.02929908289614658,"231":-0.21639377794700518,"232":-0.27244427377983205,"233":-0.1882133243830129,"234":-0.0517096050927397,"235":0.001645104590185557,"236":-0.1398205210506906,"237":-0.18581856852376655,"238":0.05890596706705543,"239":0.22310643623799567,"240":-0.15679632811390537,"241":-0.08988168214853691,"242":-0.2160947391374286,"243":-0.03476842238074896,"244":-0.5201444320661405,"245":0.06171776083614442,"246":0.03058879651847843,"247":-0.240249378590945,"248":-0.3260483922701136,"249":-0.29428841779908044,"250":-0.23944178790935994,"251":-0.1606346460733323,"252":-0.18132272338807384,"253":-0.07082983015483682,"254":-0.052363939323285834,"255":-0.1852464955392528}},{"sx":1,"sy":1,"depth":256,"w":{"0":0.038987880019758246,"1":0.009679585277466434,"2":-0.12206628238811702,"3":-0.031235593799857176,"4":-0.032588616253107786,"5":-0.027355878283862475,"6":0.004110412199370249,"7":-0.04678397396860019,"8":-0.12153966929592877,"9":0.014078851904797135,"10":-0.05206976597065721,"11":0.004721250912950136,"12":-0.054196960915189565,"13":-0.053403442409444085,"14":-0.04467620411661218,"15":0.13321947314526134,"16":-0.10321358704872853,"17":0.1391651777169128,"18":-0.05502333273037733,"19":-0.2814203288569718,"20":-0.040914403828577584,"21":0.06371586667590602,"22":-0.09687467200341107,"23":0.08655796799330322,"24":-0.08484692970338444,"25":0.01948271568676043,"26":-0.11184512768177905,"27":0.04881585495492732,"28":0.04390725936818719,"29":-0.20133998713081172,"30":-0.1725903599996345,"31":0.04523349775099264,"32":0.20953515296458472,"33":-0.10002936782813356,"34":0.23006905410519526,"35":-0.11843515336599911,"36":0.08373961377779839,"37":-0.027207010775198555,"38":-0.24098733873158146,"39":-0.0011339437159254612,"40":0.02157158311081808,"41":0.18362274437023487,